nep4_zbl 2 Te Ge 
zbl 0 0
cutoff 8 8 92 92
n_max 8 8
basis_size 12 12
l_max 8 2 1
ANN 70 0
 -3.9514989e-01
  4.2680141e-01
 -1.4931753e-01
 -4.4480884e-01
  1.8570790e-01
  1.1020135e+00
 -1.7731895e-01
 -1.1731565e-01
  1.8752806e-01
 -4.2451927e-01
 -4.4166788e-01
 -8.7446295e-02
 -5.8560210e-01
 -2.3093584e-01
  5.3375977e-01
 -1.4775850e+00
 -6.9670063e-03
  3.2498604e-01
  2.2794124e-01
 -1.8704867e-01
 -1.4311787e-01
 -1.3667414e-01
 -2.3370549e-01
  4.6657782e-02
 -7.5552702e-01
 -1.2401502e-04
 -1.1316011e-01
  3.7459053e-02
 -9.0122730e-02
 -4.5488924e-02
  3.3243647e-01
  3.5438087e-02
  1.3312978e-01
 -3.2472578e-01
  4.8271695e-01
 -5.8907662e-02
  4.9388504e-01
  4.4762257e-02
 -2.2686341e-01
  1.7391168e-01
 -3.3318915e-03
 -1.0719440e+00
 -1.7328580e-01
 -3.3956671e-01
 -1.8602769e-01
 -1.9856602e-01
  3.3592528e-01
 -2.4210390e-01
  2.7475694e-01
  2.8974721e-01
 -9.7010744e-01
  1.8894237e-01
  1.3970376e-02
  4.2369891e-02
  2.4988702e-01
 -3.8634967e-02
 -8.0446959e-02
 -2.8369939e-01
  1.9414040e-01
 -3.6270076e-01
  1.6468321e-01
  2.8922620e-01
  6.7428105e-02
 -2.7401654e-02
 -6.7763150e-02
 -2.1026447e-01
  2.2432345e-01
  1.7376032e-02
 -1.1227370e-01
  1.9359557e-01
  5.8565933e-01
 -1.5338126e-01
 -5.2998090e-01
  1.9637641e-01
 -2.6996690e-01
 -4.0961597e-03
  1.3783054e-02
 -2.3598820e-03
  1.3365651e-02
 -7.0797548e-02
  2.2250056e-01
  3.8973272e-02
 -1.9854229e-02
 -5.6087214e-02
 -4.4344772e-02
 -2.8293371e-01
  1.4296450e-01
  4.6353686e-01
  5.1410824e-01
  1.9026124e-01
 -3.5177805e-02
  9.1197401e-02
 -1.5279492e-02
 -2.8239204e-02
  1.3049321e-01
  5.1250938e-02
 -4.7748560e-01
 -8.7350488e-02
 -1.6947466e-01
  4.3268311e-01
  8.6463898e-01
  7.3030800e-01
 -4.4403461e-01
  1.6070639e-01
  9.7505555e-02
  5.0033432e-02
  1.7489917e+00
 -5.6826025e-01
  1.7006138e-01
  1.1958003e+00
 -6.3475542e-02
 -4.8840217e-02
  1.9937594e-01
 -2.7895433e-01
 -3.2714558e-01
 -7.5940388e-01
 -1.0606164e-01
 -1.1905482e+00
 -1.1115078e-01
  1.1175688e-01
 -1.0815422e-01
 -1.0162862e-01
 -1.4657019e+00
 -5.1355898e-01
 -3.1553701e-01
  7.5273916e-02
  1.0938277e+00
 -1.2948611e-01
 -3.6655870e-01
 -6.7475665e-01
  3.1699213e-01
 -1.8343751e+00
  3.9735049e-01
 -6.6939011e-02
  2.1171753e-01
 -9.0776813e-01
  2.0725510e+00
 -3.4924218e-01
  1.8848521e-01
 -8.4310994e-02
 -1.2246367e+00
 -5.1310444e-01
 -3.7792021e-01
  8.0902532e-02
 -4.0914607e-01
  1.0939920e-01
 -1.9397785e-01
  6.0904283e-02
 -2.7830666e-01
 -1.1555194e-02
 -6.6634297e-02
 -9.3150593e-02
  4.4563551e-02
 -1.1092572e-01
 -4.2445964e-01
  3.9546240e-02
  8.9320540e-02
  3.4381169e-01
  2.6060861e-01
 -1.5188953e-03
 -8.7009408e-02
  1.5580650e-01
  2.0589343e-01
 -4.4446241e-02
  3.2141924e-02
 -8.7338358e-02
 -3.1951892e-01
  5.8983557e-02
 -5.1808441e-01
 -1.9575957e-02
  9.6008182e-02
 -1.3481592e-01
  2.7818400e-01
 -8.3579950e-02
 -4.5140499e-01
 -8.1255060e-01
 -7.2172941e-03
 -9.0220094e-02
  2.0685977e-01
  2.4341871e-01
  5.2173670e-02
  6.7707467e-01
  1.9401653e-01
  7.7617162e-01
 -7.9215176e-02
 -1.9699281e-01
 -2.8435653e-01
 -4.2886156e-01
 -4.0685803e-01
  6.3722812e-02
  9.3112543e-02
  4.6095216e-01
  2.7941176e-01
 -6.0615517e-02
 -2.9844275e-02
  6.5374482e-01
 -8.6556233e-02
 -7.3539191e-03
 -8.7130077e-02
  1.6099145e-01
  4.1897848e-01
  2.8860681e-02
 -2.3674704e-02
  1.7837287e-01
  3.7177682e-01
  4.4780828e-02
 -7.5222093e-01
 -2.0289122e-01
  3.1806450e-02
  8.2408227e-02
  6.5978440e-03
  5.6633517e-02
 -9.3850940e-02
 -3.0453390e-01
 -2.7732235e-01
  6.5059859e-01
  2.2432880e-02
  2.4942374e-01
 -2.2276855e-01
 -3.8682111e-02
 -1.2576227e-01
 -2.7008510e-01
 -4.4065046e-01
  1.2247527e+00
  6.5654987e-01
 -3.3076251e-01
  2.4962807e-01
  7.7578202e-02
 -8.5251182e-01
  7.9626626e-01
 -1.4371493e-01
 -5.7554728e-01
  6.9140637e-01
  5.6405950e-01
  1.7895839e-01
  6.5955274e-02
  5.0277084e-01
 -1.2580483e-02
  2.4259850e-01
  9.1151422e-01
 -3.3284113e-01
  7.2020337e-02
 -2.4416085e-01
  1.2420422e-01
  1.9719692e-01
 -3.1145221e-01
 -1.6008192e-01
 -1.4222932e-01
 -1.4258832e-01
  5.0994551e-01
  5.2725196e-01
  1.6129926e-01
  1.8401608e-01
  1.6414343e-01
  2.1915078e-01
  3.9125103e-01
 -2.7429527e-01
  3.4026179e-01
 -6.8056458e-01
  1.9128291e-01
  4.9319857e-01
 -3.3038288e-02
  9.2509098e-02
 -3.4956999e-02
 -1.5082106e-01
 -1.7961250e-01
 -1.1688538e-01
 -1.6871348e-01
  5.3291224e-02
 -1.2762128e-01
 -4.4383362e-01
  3.2307670e-02
 -1.4056800e-01
 -2.2304015e-01
  2.9647008e-01
 -1.0267571e-01
  6.7883480e-01
  1.9419336e-01
 -1.2907477e-01
  1.7254010e-01
 -1.4124249e-01
  3.6606771e-01
 -3.4851614e-01
 -2.1243272e-02
  3.4621271e-01
 -5.4516917e-01
 -1.6324323e-01
 -7.7888505e-03
 -7.5234270e-01
 -5.6869441e-01
 -3.0844366e-02
  4.5073569e-02
  2.1664202e-01
 -4.8792258e-01
 -2.5764826e-01
 -3.0101473e-02
  3.5607663e-01
 -7.3783147e-01
  4.9904278e-01
  3.8653091e-01
  1.1601268e+00
  2.7582029e-01
  1.2893877e+00
 -1.7637514e-01
 -3.2672742e-01
 -1.9148789e-01
  3.4671839e-02
 -1.5415944e-01
 -9.6341901e-02
  1.3002133e+00
 -3.7374935e-01
 -2.9342991e-04
  8.2702719e-02
 -3.5698634e-01
  7.6840222e-02
  1.5740197e-02
  9.6668467e-02
 -3.9979633e-02
 -8.0710173e-02
 -2.1820086e-01
 -5.1569295e-01
 -3.7294369e-02
  5.8612533e-02
  2.4622556e-02
  1.8348640e-01
  5.9743297e-01
  1.1739068e-01
 -1.6441275e-01
  2.6649240e-01
  1.7118418e-01
  3.3264428e-01
  5.4430938e-01
 -5.9806156e-01
 -9.8873958e-02
  3.0459380e+00
 -1.8343987e-01
  2.4161379e-01
  6.0620052e-01
 -2.3862023e-02
 -9.6571821e-01
  5.4487371e-01
 -3.7546328e-01
 -3.8191843e-01
 -1.7296547e-01
 -4.1714913e-01
  2.5872096e-01
 -2.8765867e-02
  2.2095600e-01
  6.3276291e-01
  3.9613003e-01
 -1.8643118e-01
 -4.7705156e-01
  4.4219518e-01
 -5.8478378e-02
 -1.8281466e-01
 -2.9128540e-01
 -2.6009583e-03
  1.4538579e+00
 -3.6875285e-02
  4.0805999e-02
  2.4567515e-01
  9.0290725e-02
  6.0328003e-02
 -2.8581080e-01
  1.6353381e-01
 -3.6846027e-01
 -3.2704842e-01
 -8.7705471e-02
 -4.1500244e-02
 -9.2546441e-02
 -4.3070605e-01
  1.2276081e+00
  2.5076214e-02
 -1.4189612e-02
  5.8491349e-02
 -1.6989897e-01
 -9.7509235e-02
  1.2925480e-01
  1.3849270e-01
 -1.2854590e-01
  3.0654436e-01
 -3.9489403e-01
 -4.8774462e-03
  1.4584647e-01
 -2.4910422e-01
 -3.7945113e-01
  2.9561308e-01
 -1.8579237e-01
 -4.5397244e-02
 -1.6236134e-01
 -1.2009303e-01
  2.0861888e-01
 -6.0103267e-02
  7.6091304e-02
 -2.8771421e-01
 -7.6422787e-01
 -1.1688320e-01
 -5.8070969e-02
  2.1976070e-01
 -6.1142308e-01
 -6.7386776e-01
 -8.5701376e-02
  1.7203504e-01
  1.0717791e-01
  1.9661614e-01
 -1.5683545e-01
  2.8342938e-01
  1.9480325e-01
 -5.3623760e-01
 -2.2038960e-01
  2.3819391e-01
  6.2773153e-02
 -2.9680353e-01
 -1.3828801e-01
  1.7598829e-01
  7.3215580e-01
  1.0785156e-01
 -4.4101071e-01
 -2.0312524e-01
 -5.1342487e-01
  4.2504311e-02
 -2.1083543e-01
 -3.3104073e-02
  4.2440064e-02
 -3.6722463e-01
  2.0328666e-01
 -3.0561483e-01
  1.2618947e-01
  6.0526654e-03
  1.0116844e-01
 -2.7176324e-01
 -4.2249304e-01
  1.0512657e-01
 -2.2334191e-01
  3.5744660e-02
  4.4951633e-02
  1.7313875e-03
  6.2873892e-02
 -2.4649976e-01
 -4.2842351e-02
 -2.0346190e-01
  1.7465986e-02
  2.4519293e-01
  4.1001430e-01
 -5.9527770e-02
  1.9755195e-01
 -2.6028037e-01
 -2.6403359e-01
  3.7686190e-01
 -4.0244445e-02
 -2.3467842e-01
  7.9318963e-02
  3.6197391e-01
 -2.7068621e-01
  2.3231286e-01
  1.8128278e-02
 -1.6403276e-01
  1.6983340e-02
 -5.4898426e-02
 -4.0682924e-01
  8.1176236e-03
  7.7173345e-02
 -1.1651229e-02
  1.7858104e-01
 -4.3926457e-01
  4.5535997e-01
 -4.2582400e-02
  1.1158733e-02
  2.7293551e-01
 -1.0050642e+00
  6.2078589e-01
 -1.3567902e+00
 -2.2914107e-01
 -3.0575326e-01
  2.1626900e-01
 -2.7917129e-01
  3.5742530e-01
 -5.7435280e-01
 -7.7837609e-02
  1.9511522e-01
 -6.3177258e-02
 -4.5303276e-01
  5.9816045e-01
 -1.9223090e-01
  1.0702921e-01
 -1.8126932e-01
  2.7456909e-01
 -1.6324040e-01
  1.0388063e-01
 -2.7927360e-01
 -1.7363483e-01
 -2.4957514e-01
 -2.8353712e-01
  2.7552078e-02
 -2.0255043e-01
  5.8654439e-01
 -2.9598203e-01
 -1.0046372e+00
 -5.4928627e-02
  1.0265490e+00
  5.4061902e-01
  6.4383596e-01
  2.0777726e-01
  1.5171301e+00
 -5.0577212e-02
  1.4384077e-02
 -5.2439356e-01
  1.2095790e-02
  5.2685124e-01
  3.7863696e-01
 -5.2788502e-01
  4.6084795e-02
 -1.9312361e-01
 -3.5158071e-01
  4.4345134e-01
  4.3104398e-01
  4.1560877e-02
 -1.9369457e+00
  6.0327936e-02
 -4.4183710e-01
  5.4010934e-01
  8.8961154e-01
 -3.9110288e-01
  1.4541484e+00
  3.9867982e-01
 -3.4493420e-01
  5.1336497e-01
  1.8967203e+00
 -1.1472576e-02
  8.3683228e-01
 -6.0834163e-03
 -1.6597389e-01
  2.2779958e+00
  2.9572499e-01
  2.8569046e-02
 -1.9734721e-01
  4.4011974e-01
 -7.6627076e-02
  2.1209073e-01
  3.2186999e+00
  7.9172027e-01
  7.6607531e-01
  3.6404389e-01
 -1.0392725e-02
  7.2655731e-01
 -3.8369626e-02
 -2.6805303e-01
  1.7141356e+00
  1.0248990e+00
 -5.3582847e-02
  2.2815626e+00
  8.0942649e-01
  3.1948993e-01
 -4.2683282e-03
  3.6099201e-01
 -3.4234270e-01
 -1.1214061e-01
  2.0863102e-01
  3.0700645e-01
 -7.4757004e-01
  1.3510165e-01
  4.7113231e-01
  2.0022990e-01
  4.3232642e-02
 -2.8082976e-01
 -8.0407506e-01
  7.5461727e-01
  5.8501199e-02
  1.9541627e-01
  1.4836803e-01
 -1.5863837e-01
 -3.6339520e-03
 -6.2044126e-01
 -5.1485097e-01
 -3.8513999e-02
  1.0717832e+00
  2.4926101e-01
  6.2133753e-01
 -4.8974362e-01
  1.0363679e-01
 -1.9008325e-01
 -4.4054355e-02
  8.4377235e-01
  4.5585185e-01
  1.6721898e-01
  8.2752794e-02
 -1.9880238e-01
  8.2764941e-01
  9.7126663e-02
  1.1458988e-01
 -6.6874295e-02
  3.1390327e-01
 -1.3867601e+00
 -7.5681500e-02
  1.1541932e-01
  1.6806045e-01
 -2.2217129e-01
 -1.0621382e-02
 -1.5617937e+00
  1.2323154e+00
 -1.5689849e+00
  1.5091392e+00
 -3.6473039e-01
  1.5007704e-01
 -3.2284081e-02
 -2.9013732e-01
  3.4633920e-02
 -7.2518569e-01
 -3.3233097e-01
  2.6049620e-01
 -6.4317888e-01
 -1.7266153e-01
 -6.0367781e-01
 -6.6580099e-01
  3.9165506e-01
  4.7627925e-03
  5.9464246e-01
 -5.4672036e-02
  5.8946460e-01
 -6.8661696e-01
 -2.6012695e-01
  9.3177164e-01
 -1.4317977e-01
  1.5607533e-01
 -7.5693108e-02
 -4.9633303e-01
 -4.9416640e-01
 -3.5514691e-01
 -2.9842818e-01
 -2.0072773e-01
 -5.3716892e-01
  3.5962737e-01
  3.2209235e-01
  2.7640197e-01
 -4.2764336e-02
 -1.3488017e-01
  4.1720539e-02
 -3.7490181e-03
 -8.5052037e-01
 -1.1714994e+00
 -5.9245087e-02
  5.5776203e-01
 -3.7879175e-01
 -4.5844200e-01
  1.3556992e-01
 -1.4749967e-01
  1.7609606e-02
 -5.2079654e-01
 -1.0399644e+00
  7.9841518e-01
 -6.7895693e-01
 -4.9274873e-02
 -9.3556470e-01
 -1.7547980e-01
 -4.9242193e-01
 -2.9851599e-02
  1.3862930e-01
  2.6251724e-01
 -3.0218469e-02
  1.8180646e+00
  4.7937429e-01
 -3.2741562e-02
 -2.3283744e-04
 -2.7187845e-01
 -1.1133609e-02
  1.5816326e-01
  5.3934413e-01
 -2.5410405e-01
  2.3956455e-01
 -3.3592823e-01
  7.6793893e-03
  7.9640687e-01
  3.0124372e-01
  4.8206291e-01
 -1.4477240e-01
 -3.7604666e-01
 -5.2333090e-02
 -3.8558472e-02
  1.5333736e-01
 -7.4653067e-02
  7.6441482e-02
  3.9507997e-01
  2.1211101e-01
  1.2280411e-01
  9.2120282e-03
 -6.4237557e-02
 -5.0813490e-01
  1.7422457e-01
  2.6137579e-02
  1.6083963e-01
  8.3519347e-02
 -1.8600826e-01
 -5.0621957e-01
 -1.3324410e-01
  4.9526957e-01
 -8.5342564e-02
 -9.6673437e-04
  2.3196948e-01
 -4.3112192e-01
  7.0394188e-01
 -9.4603121e-01
  2.3035674e-01
 -1.0172303e-01
  4.0661909e-02
 -6.0467593e-02
  1.1818867e+00
  8.6679064e-02
  1.6017386e-01
  5.7333905e-02
  2.2238804e-01
  6.2407941e-02
 -3.0105855e-02
 -3.2809976e-01
  6.9796246e-01
 -1.3444105e-01
 -2.6051435e-01
  3.1159624e-01
  2.0250562e-01
  1.6879962e-01
 -1.5105087e-01
  1.9766451e-01
 -3.9341253e-01
 -4.4513758e-02
 -3.3175893e-02
  4.6133026e-01
 -1.1875887e-01
  8.3182149e-02
 -1.0093985e-01
  6.7763710e-01
  1.5931790e-01
 -4.3758467e-01
 -2.5551605e-01
  5.1848567e-01
  3.8630936e-01
 -1.5810874e-01
 -1.1321060e-02
 -1.6188189e-01
  1.0957164e-01
  2.4520833e-02
 -8.1222869e-02
  2.4993108e-01
 -1.1076359e-01
  2.3073055e-01
  6.2267903e-02
 -1.8496680e-01
 -2.0408615e-01
  1.4586413e-01
  4.4314042e-01
 -2.7479789e-01
  1.6640405e-01
  1.3040085e-01
  3.0685374e-01
  2.5801256e-01
  2.7180141e-01
  5.6093234e-01
 -1.3771017e-01
  9.3211401e-01
  1.7681901e-01
 -9.9891901e-02
  1.6909860e-02
  5.5436844e-01
  1.3848890e-01
 -2.1423191e-01
  7.8493476e-02
 -3.7622696e-01
  1.0205235e+00
  3.3087406e-02
  1.7356889e-02
 -9.5654982e-01
  8.7260142e-02
  3.5895404e-01
 -1.1836441e-01
  2.8191692e-01
 -1.8640794e-01
  2.6891121e-01
 -1.2810956e-01
 -8.6369954e-02
 -8.2708709e-02
 -1.7843151e-01
  1.1646938e-01
  1.8633007e-01
 -4.0721476e-01
  6.5490201e-02
 -1.2208716e-01
  1.5194908e-01
  1.2376061e-01
  6.2200958e-01
 -5.6368936e-02
 -5.8364160e-02
  4.9452686e-01
 -8.5747823e-02
 -5.1758701e-01
  1.3601309e-01
  2.4215125e-01
  7.8238606e-02
  6.1921024e-01
  6.5309155e-01
  1.2057171e+00
 -1.3868198e-01
  1.6081904e-01
 -1.7588535e-01
 -6.4650372e-02
  9.0175249e-02
 -2.4369751e-01
 -2.7190647e-01
  6.7454720e-01
  7.2116166e-01
 -1.8329963e-01
  1.2388250e-01
 -1.4107594e-01
 -1.6834144e-01
  2.8590634e-01
 -1.7964163e-01
 -3.5801435e-01
  1.3109195e-02
 -5.8412319e-01
 -1.5996721e-01
 -7.3050904e-01
 -5.5328492e-02
 -5.5630650e-02
 -5.4162577e-02
  4.8995372e-02
  5.6296116e-01
 -5.7514522e-02
  1.9359840e-01
 -1.5786925e-01
  2.8470877e-01
 -2.9312830e-02
 -1.7222124e-01
 -1.1410384e-01
 -1.8064125e-01
 -1.9891596e-01
 -3.5318691e-01
 -1.0338014e-01
 -6.6493697e-02
 -7.3173451e-01
  4.0861064e-01
  2.6814076e-01
  1.5369628e-01
 -1.3112320e-01
  1.7809759e-01
  7.3936358e-02
 -2.6727501e-01
  5.2402264e-01
  4.0620320e-02
  1.4946288e-01
  1.2103190e-02
  1.4831002e-01
 -2.3322321e-01
  5.0681067e-01
 -4.8579760e-02
  3.0765921e-01
 -3.0387166e-01
 -1.5221538e-02
  2.0995888e-01
  5.8572435e-01
 -3.2983604e-01
 -5.4213905e-01
 -2.8838021e-01
  2.2595309e-01
 -4.0467209e-01
  3.4212235e-01
 -5.7339036e-01
  2.5161088e-01
 -1.8538068e-01
 -2.9084387e-01
  4.5891788e-02
  1.0731953e-01
  1.4316610e-01
 -4.0846318e-01
 -2.2911160e-01
 -2.4162029e-01
 -2.7343670e-01
 -8.5206968e-01
  2.8760171e-01
 -6.0563432e-03
 -1.6850963e-02
  1.1102663e-01
  4.1429794e-01
 -4.4236040e-01
  1.2317736e-01
 -3.5836014e-01
 -3.6616698e-02
  1.7072935e+00
  8.4760539e-02
 -9.8611742e-02
  8.7450422e-02
  1.3944463e-01
  8.6023211e-02
 -6.2647618e-02
 -2.2422818e-02
  9.6105188e-02
  2.4518397e-01
 -1.5694152e+00
 -4.8881280e-01
  1.3914131e+00
  6.3552153e-01
  6.2531076e-02
  1.3371736e+00
 -3.9897170e-02
 -6.8439001e-01
 -5.7225309e-02
 -6.8843395e-02
  7.3623919e-01
  7.0781559e-02
  4.1554305e-01
  2.9510862e-01
 -8.0470145e-01
 -1.2671632e-02
 -1.2937592e+00
 -7.0908330e-02
 -1.2089946e+00
 -3.8320068e-01
 -4.5416817e-01
 -2.5165108e-01
  7.9986073e-02
 -4.5993429e-01
  1.7985350e-01
 -2.6604795e-01
 -5.1754344e-02
  6.3557190e-01
 -1.8071742e-01
 -1.1863292e+00
 -4.4617079e-02
  2.7380684e-01
 -3.3722433e-01
 -2.7254245e-01
  1.1772604e+00
  2.5929701e-01
 -2.4875207e-01
 -3.8427278e-02
  1.6950853e-01
  8.5103892e-02
 -3.2134926e-01
  3.3324152e-01
 -5.1071858e-01
  8.1165564e-01
  3.0679485e-01
 -7.5742036e-01
 -1.2020667e+00
 -4.8160851e-02
  1.9383194e-01
  2.3063710e-01
 -1.3227127e-01
 -2.2983305e-01
 -8.8858831e-01
  9.0484846e-01
 -8.6180556e-01
  6.4124756e-02
  1.0731316e-01
 -5.4626447e-01
  6.4969540e-02
  5.8453311e-03
 -7.5450689e-01
 -8.1280017e-01
  2.9099968e-01
 -1.0136231e-01
  2.1939756e-01
 -1.5477909e-01
 -8.5121199e-02
  7.0211075e-02
  6.1166310e-01
  1.9364784e-02
  2.4173750e-02
 -9.7589332e-01
  8.8241689e-02
  2.6024094e-01
 -3.3827692e-02
  5.8678657e-01
  4.6238694e-01
  1.7338102e-01
 -4.8371542e-01
  1.5143625e-02
  1.5416218e-01
  1.3493450e-01
  2.7473108e-03
 -3.0247569e-01
  1.4519511e-01
  2.9339140e-02
  4.5091659e-02
  1.8454725e-02
  6.8044245e-02
  1.9488049e-01
 -1.8685187e-01
  6.7317843e-01
  1.1197697e-01
  2.5815678e-01
  2.2250870e-01
 -7.8160323e-02
 -4.9259725e-01
  3.1100196e-01
 -4.3777207e-01
 -2.0494556e-01
  1.9022879e-01
 -6.5225326e-03
  1.9090085e-01
 -2.5021335e-02
  1.8520463e-01
  2.4976459e-01
  3.7148890e-01
 -7.4281521e-02
  2.0253994e-01
 -2.6628789e-01
 -1.2172539e-02
 -1.1778617e-02
 -6.6404521e-02
 -8.7992297e-03
  6.7194417e-02
 -6.8812251e-02
 -2.4274407e-01
  2.3405084e-01
 -8.4183604e-02
 -3.5291564e-01
  2.7053338e-01
 -1.7841521e-01
  4.8327506e-01
 -1.0005127e-01
 -1.2750825e-01
 -1.2486974e+00
 -2.5835070e-01
 -1.5136332e-03
 -3.1910691e-02
 -1.7931071e-01
 -2.5220004e-01
  6.2124036e-02
  2.2474343e-01
  1.6142024e-01
 -9.1986561e-01
  1.7314473e-01
 -1.1836030e-01
 -1.8616199e-01
  1.8296807e-01
 -2.7545586e-01
  1.2769926e+00
 -3.4547813e-02
 -7.9424001e-02
  1.7188275e-01
  1.6066334e-01
  1.5018386e-01
  1.6981681e-01
 -3.9826024e-01
 -4.5570217e-02
  5.8103599e-02
 -1.2524526e-01
 -3.1084812e-01
 -3.9587858e-01
  1.0698579e-01
  5.2440548e-01
 -1.4646786e-01
 -1.1476511e-01
  1.0441729e-01
 -1.4719330e-01
 -8.7299105e-03
  3.0873322e-01
 -4.2016307e-01
  5.3640101e-02
  4.6354377e-01
  5.1923418e-01
  2.8919503e-01
 -2.9755360e-01
 -2.8236759e-01
 -2.9857954e-01
 -1.6642183e-01
 -2.6078064e-02
 -7.7116269e-01
 -2.9025257e-01
 -3.4357783e-01
  2.0452707e-01
  2.1661653e-01
 -2.4917273e-01
  1.1564323e-01
 -1.7543536e-01
  5.1772004e-01
  1.6340230e-01
  1.0451949e-01
  1.1076236e-01
 -2.3507072e-01
 -2.8303960e-01
 -8.0934420e-02
  4.7817135e-01
  4.1197690e-01
  4.5417053e-01
  1.4447041e-02
  2.1483864e-01
 -8.1138112e-02
 -1.6261378e-01
 -2.2796050e-01
 -1.7401566e-03
  5.6183346e-02
  9.5409192e-02
  6.6243899e-01
  2.4345009e-01
  2.6203100e-02
 -1.2919013e-01
  8.6836445e-01
  7.1865630e-01
 -1.0934272e-01
 -9.8892041e-02
  3.7221724e-01
  4.6599735e-02
  2.6725420e-01
  3.4746370e-01
  3.1141144e-01
 -3.7037396e-01
 -2.0743108e-01
  8.6078370e-01
 -9.3835160e-02
  9.6998474e-07
  2.0805798e-01
  4.2959961e-01
  2.5348380e-01
  1.5714383e-01
 -2.8010535e-01
 -1.5985109e-01
 -7.7225663e-02
  1.8619166e-01
  7.0040619e-01
 -3.7144285e-01
  1.5506372e-01
 -6.1078738e-02
  6.8898089e-02
 -2.7770317e-01
  4.8679337e-01
 -8.6993702e-02
 -4.1519653e-02
  9.0447062e-01
  5.9729364e-02
  2.0765680e-01
 -3.0105837e-02
 -2.7972236e-01
  3.7664163e-01
 -7.8827597e-02
 -2.4169430e-03
 -1.4903313e-01
  1.0239362e-01
 -7.8709573e-01
 -1.0843069e-01
  2.1372294e-01
  4.4258609e-01
  6.0209051e-02
 -1.9908877e-01
  3.4059843e-01
 -5.1141769e-01
 -1.7318586e-01
 -1.0863627e-01
 -2.1637760e-01
 -2.4446405e-02
  1.0241067e-01
 -1.2328254e-01
  2.2462435e-01
  4.3121081e-02
 -1.8553421e-02
 -1.5412005e-02
 -2.0469269e-02
 -1.9876377e-01
  6.4054662e-01
  5.4365695e-01
 -3.3421957e-01
 -1.9380404e-01
  2.2208594e-01
  2.1818142e-01
  4.2002168e-01
  3.9775422e-01
  1.3494006e-01
 -4.9312152e-03
 -2.5658548e-02
 -5.0414956e-01
  9.5062509e-02
 -8.2121581e-02
 -1.8710244e-01
  7.7651992e-02
  1.1195832e-01
 -4.7502071e-01
 -2.1911733e-01
 -7.6482892e-01
  1.3087441e-01
 -4.0407676e-01
  3.3427060e-01
  1.4871050e-01
 -1.6967674e-01
 -3.9339714e-02
  7.8906335e-02
  1.1736877e-01
  2.8617939e-01
  6.0650196e-02
 -1.8133718e-01
  1.8103443e-01
 -1.7207685e-01
 -2.6395378e-01
  6.8179071e-02
 -1.0924174e-02
  4.3069482e-01
  5.8107454e-01
  3.3578184e-01
 -4.6211696e-01
 -2.4336886e-01
  3.5295624e-01
  3.5156515e-01
 -3.7890595e-01
  3.3395536e-02
 -3.7142780e-02
  2.2097801e-01
  8.7562495e-01
 -2.0545682e-02
 -5.9768826e-01
  3.4119576e-01
 -4.9714833e-01
  3.3445161e-02
 -3.7605697e-01
  1.6593282e-01
  7.6450169e-02
  1.0646477e-01
 -8.9419343e-02
 -5.3370934e-02
 -5.2217108e-01
 -1.8465792e-01
  1.4236899e-01
 -3.0325744e-01
 -1.4825740e-01
  1.1115767e-01
  1.3772839e-01
 -3.0010547e-02
 -5.5153206e-02
  1.1082577e+00
 -1.8196033e-01
 -3.7714708e-01
  2.0954686e-01
  1.5215594e-01
 -8.2506873e-02
  7.6273546e-02
 -3.6831746e-01
  1.6391830e+00
  8.1433035e-02
  4.0993178e-01
 -3.3457834e-01
  1.7533644e-01
  1.0947323e-01
  2.3654386e-01
  1.1315215e-01
 -1.6498740e-01
  8.0367610e-02
 -3.7769005e-01
  7.1374133e-02
  7.7209428e-02
  2.2434992e-01
 -4.6725130e-01
 -3.1986564e-01
  1.1239453e-01
 -1.0167339e-01
  3.5324100e-01
  3.0657837e-01
  2.1377727e-01
 -5.5275851e-01
 -3.3847484e-01
 -3.4835238e-02
  4.8049274e-01
 -4.1410121e-01
  1.4156799e-01
  4.4383712e-02
 -6.8869747e-02
  1.7775241e-01
 -4.3866959e-01
  1.0172453e-01
  1.8322116e-01
  3.1763244e-01
 -1.5130276e-02
  2.4116594e-01
  1.6729388e-01
 -3.7325978e-01
 -1.4307229e-01
  8.9098364e-03
 -1.0146231e-01
  1.5243971e-01
  4.2391890e-01
  5.8553725e-02
  4.0225711e-01
 -6.3518956e-02
  8.2701616e-02
  1.4237578e-01
 -7.9577677e-02
 -1.1409885e-01
  1.2761113e-01
  1.3589519e-01
  1.0816021e-02
 -5.6263153e-02
 -6.8983811e-01
  2.7131522e-01
 -3.8544536e-01
 -1.2376521e-01
  1.2504475e+00
 -1.2113381e-01
  6.1586261e-01
  3.6241949e-01
 -8.8197792e-01
  5.9507102e-01
 -1.8675314e-01
  1.5259202e-01
 -6.3607000e-02
  1.9452530e-01
 -7.1705365e-01
 -1.8632431e-01
  1.7114414e-01
 -6.3173944e-01
  1.1790156e-01
  5.8167720e-01
  3.5792267e-01
  9.8085999e-02
 -4.3696097e-01
  3.2546036e-02
  8.1647712e-01
  8.2808346e-01
  1.4230312e-01
 -1.4108986e-01
  9.8773628e-01
  4.4035658e-01
 -6.2829185e-01
 -1.8432729e-01
 -9.7795151e-02
 -3.2182586e-01
  1.1942558e-01
  6.2358484e-02
  4.7329384e-01
 -6.8151459e-02
  1.3734972e-01
 -7.2341159e-02
 -7.0109427e-01
  1.6530626e-01
 -4.4171807e-01
 -2.2270818e-01
 -2.6874360e-01
  5.8128662e-02
 -1.5964395e-01
  1.5827043e-01
  3.9552310e-01
 -6.5755539e-02
 -1.3003150e-01
  2.9692307e-01
 -1.8828118e-01
  3.6046425e-01
  1.8262808e-01
  1.0652673e-01
  8.2753517e-02
 -1.4352715e+00
 -3.1673494e-01
  4.1851792e-02
  1.2442295e-01
  5.5406418e-02
  1.3100563e-01
  3.9603809e-01
  5.5292431e-02
  5.0346965e-01
  1.3508329e-01
 -6.3911609e-02
 -1.9800039e-03
 -3.4007523e-02
 -1.8243450e-01
 -1.2555178e-01
  6.3180767e-02
  1.5684192e-01
  2.8676116e-01
  1.9531660e-01
  9.6835561e-02
 -5.5291116e-01
 -2.2407266e-01
 -3.1738285e-02
  1.1972249e-01
  1.5546095e-01
 -2.4476629e-01
 -1.4520618e-02
  5.6317014e-01
  1.5984325e-02
 -8.9486130e-02
  4.3533614e-01
 -1.0177940e-01
  2.6549247e-01
  3.4591508e-01
  2.2967178e-02
  1.5838526e-01
 -1.5620039e-01
  1.4552911e-01
 -7.4479297e-02
 -3.2869023e-01
  1.5417483e-01
  5.4612112e-01
  5.7703853e-02
  1.6752375e-02
 -4.4538808e-01
 -2.4735251e-01
 -2.3380321e-01
  1.0647760e-01
  2.5113112e-01
 -8.4136300e-02
 -1.7242131e+00
 -2.4644557e-01
 -1.6910394e-01
  3.9021489e-01
  1.1399401e-01
 -3.9785552e-01
  1.2803602e-01
  8.4432143e-01
 -1.9576421e-01
  6.4173460e-02
  2.7924219e-01
  6.6272914e-01
  4.5587921e-01
  3.1851196e-01
 -1.2799452e-01
 -2.9670373e-01
  3.9569058e-02
  1.1436013e-01
  2.3267277e-01
  4.2677041e-02
 -3.0836609e-01
 -3.6570791e-03
 -1.0354559e+00
  4.1182414e-02
  3.8854733e-02
 -7.1272179e-02
 -2.7309555e-01
  1.4247967e-01
  4.8493952e-01
  9.9932593e-01
  5.5031706e-02
  2.1497232e-01
 -4.4750381e-01
 -6.3907616e-02
  3.6618775e-01
  1.5851736e-01
 -2.5750440e-01
 -4.1815570e-01
  3.4285066e-01
 -1.4742927e-01
  4.8904586e-01
  2.8171191e-01
  9.2140675e-02
 -6.4783764e-01
 -1.0034113e-01
  1.5453081e-01
 -3.5983514e-02
  2.1475123e-01
 -1.0820256e-02
 -2.6555028e-02
  1.3263786e-01
 -5.2228969e-01
 -7.3751993e-02
 -1.8438306e-01
  2.8056663e-01
  6.8389408e-02
  1.0772850e-02
 -1.5360174e-01
  1.9822897e-01
 -7.0344478e-02
  4.9852472e-02
  1.9508837e+00
  2.2713894e-02
 -3.3484206e-01
 -2.8757238e-01
  7.1414150e-02
 -8.4670186e-02
  5.3659011e-02
  3.3023551e-02
  1.8860075e-01
  2.2801908e-02
 -1.5607949e-01
 -7.2832510e-02
 -9.1866001e-02
  3.2978058e-01
  1.4271559e-01
 -6.3729173e-01
 -2.2997971e-01
 -4.4723272e-01
  3.6554262e-02
 -7.3557824e-02
 -2.7659374e-01
 -1.4596439e-02
  3.0073533e-02
  1.0905851e+00
  7.6706223e-02
  1.6200155e-01
 -2.7673975e-01
  6.3287389e-01
 -8.9104772e-01
 -6.2723053e-01
  9.7580798e-02
  2.3773730e-01
 -1.2289304e+00
 -1.3168357e-01
 -6.0696630e-03
  4.1655827e-01
 -2.1058916e-01
  5.1794684e-01
  3.0292850e-02
 -2.4222425e-01
  4.9311852e-01
 -1.7672423e-01
  5.6785315e-01
  2.4159572e-01
 -1.0738473e-01
 -2.1031782e-01
 -2.4998368e-01
  7.4768752e-01
  5.8595752e-03
  4.8474905e-01
 -3.1688824e-01
  1.1081710e+00
  3.0334872e-01
  7.3105268e-02
 -1.5004215e-01
 -5.5246204e-01
  1.8457671e-01
 -1.2581167e-01
  2.0244557e-01
 -2.0130980e-01
  1.2834789e-01
 -4.5189035e-01
  1.6386707e-01
 -4.2394507e-01
  6.1726432e-02
  1.6012557e-01
 -6.1979747e-01
  1.3183111e-01
 -2.8245239e-02
 -1.2703964e+00
  7.1213329e-01
 -4.9393693e-01
  5.4780617e-02
 -2.5863478e-01
  1.1079741e-01
  1.0955405e-01
 -1.1141428e-01
  1.9079775e-01
  4.8931673e-01
 -1.9879350e-02
  4.9163210e-01
 -7.3927194e-01
 -7.9200530e-01
 -1.1047383e-01
  4.7240379e-01
  1.0607318e-01
 -1.2596284e-01
 -1.6455354e-01
  1.2810042e+00
  1.4637132e-01
 -9.3026891e-02
 -3.7784930e-02
 -9.7766690e-02
 -2.2161266e-01
 -2.0556440e+00
 -5.6204051e-02
 -2.9927871e-01
  4.3417391e-01
  9.1707343e-01
  4.2887995e-01
  4.2841715e-01
  3.8913858e-01
 -2.8100368e-01
  1.8118983e-02
 -8.1516409e-01
  9.2474377e-01
  1.1649732e-01
  6.8428636e-01
 -7.2528966e-02
 -3.6119530e-01
  1.8400081e-01
 -1.1956241e-01
  2.6855010e-01
 -1.0064041e-01
 -7.1886651e-02
  1.8096513e-01
 -2.1994333e-01
  6.0115325e-01
  1.7812616e-01
 -2.8216803e-01
  5.6528908e-01
 -9.6551761e-02
 -1.6675587e-01
 -8.0967307e-02
  4.3889859e-01
 -3.5633788e-02
 -2.8210512e-01
  2.7697200e-01
 -9.8145813e-02
  1.8262999e-03
 -2.9096371e-01
 -3.9418992e-01
  1.1924546e-01
 -2.7294061e-01
 -1.3576458e-01
  1.2922190e-01
 -9.0179662e-04
  3.4107722e-02
 -1.0114455e-01
 -1.1903996e-01
  5.8761958e-02
 -1.2316952e-01
 -5.5234271e-01
 -3.9814992e+00
 -1.9488758e-01
 -3.4802619e-03
  2.4878551e-01
 -4.4033818e-02
 -1.4066038e-01
  1.2822892e-01
 -3.0100718e-01
 -9.1460603e-01
 -2.8722588e-02
  2.3484305e-01
 -1.8801032e-01
  5.9149140e-01
  1.9090383e-01
 -1.6911339e-02
  1.2917261e-01
 -8.0666982e-02
  8.1045926e-02
  6.9953442e-02
 -2.4862196e-01
 -3.0834053e-02
 -2.0991993e-01
  8.7006666e-02
 -1.0790795e-01
  5.4346889e-01
  2.8791001e-01
 -7.7953137e-02
 -2.3356418e-01
  4.1634792e-01
  3.8191101e-01
  7.4686900e-02
 -4.3813226e-01
  2.1194369e-02
 -2.2468349e-01
 -1.9629974e-02
  4.8263305e-01
  2.6755258e-01
  3.3385111e-03
  3.2531661e-01
 -1.2317258e+00
 -4.5150205e-01
 -9.0093434e-02
 -4.4349509e-01
 -1.6125817e-02
 -9.6970427e-01
 -1.1916482e-01
  6.7977577e-02
  1.9423714e-01
 -3.2699680e-01
 -1.5885378e-01
  4.8817489e-01
  4.0838930e-01
 -3.4330450e-02
 -2.9709792e-01
 -1.2971592e+00
  7.0287161e-02
  1.7804945e-01
  2.8581011e-01
  9.4544161e-03
 -3.1877258e-01
  2.8102812e-01
  1.4050570e-01
  1.3638632e-01
 -1.7029561e-01
  2.0274511e-01
 -3.0489898e-01
  2.8359061e-01
 -3.9052136e-02
 -2.2726318e-02
 -5.5190295e-02
  1.3350037e-01
  2.1205224e-01
  3.6618009e-01
 -1.4886372e-01
  2.6219472e-01
 -1.6090646e-01
 -2.8596919e-02
  3.7678838e-02
 -2.7003619e-01
  4.1099638e-01
  4.2319402e-02
  1.4762793e-02
 -8.9418329e-02
 -4.5076888e-03
 -1.7045803e-02
  2.9685009e-01
  2.9023492e-01
 -2.3165493e-01
  1.2080522e-01
  1.0437546e+00
 -2.1384908e-01
 -3.2748424e-02
 -2.6855590e+00
  6.7064834e-01
 -1.9127759e-01
  2.8745008e-01
  2.7293406e-02
  9.2630219e-03
 -2.4353993e-01
 -4.7593173e-01
  3.7016189e-01
  6.0539685e-02
  2.2576086e-01
 -6.3499466e-02
  3.0515671e-01
  2.5953317e-01
 -5.2249476e-02
  9.6581809e-02
 -3.1636229e-01
 -1.7620251e-01
 -1.6923338e-01
  4.9317893e-01
 -1.2506483e+00
  5.0581521e-01
  2.6375325e-02
 -6.6987687e-01
 -9.2638664e-02
  3.9424732e-02
 -1.7190455e-01
  7.8400366e-02
 -1.2760460e-01
  3.2908204e-01
  7.5607896e-02
 -3.6383218e-01
 -9.7139204e-01
 -1.4171019e-01
  9.7657883e-01
 -6.4143062e-01
  1.2672432e-01
 -8.3852358e-02
 -2.5250697e-01
 -1.1533374e-02
 -7.3606431e-02
  1.9486669e-01
  2.5280482e-01
 -3.0269387e-01
 -1.1506449e+00
  2.9799849e-01
  1.9761512e-01
  4.8970026e-01
  3.7183505e-02
  4.7467956e-01
 -7.0952013e-02
  6.7748070e-02
 -6.3302809e-01
 -3.7567362e-01
 -9.4982284e-01
  1.3183732e-01
 -2.1172093e-02
  2.6557192e-01
  2.0219754e-02
 -2.9644230e-01
  2.0405509e-01
  1.1705434e-01
 -2.8106290e-01
 -9.8242182e-01
 -1.9851080e-01
 -1.9807129e-01
  1.6983883e-02
  1.4652935e-01
 -1.1106724e-02
  8.5389949e-02
  2.2167473e-01
 -2.3045456e-01
  3.4633824e-01
 -1.0006034e-03
 -2.9481518e-01
  7.9525465e-01
  5.9141628e-02
  1.4328557e-01
  3.1834438e-02
 -1.9250225e-01
  1.5325923e-01
  6.9065398e-01
  2.5433508e-01
  7.5839746e-01
  5.5595946e-02
  2.3231803e-02
 -2.3520255e-02
 -2.9854986e-01
 -1.5793985e-01
 -4.3037850e-01
 -4.0045276e-01
 -2.1456525e-01
  1.0657063e-01
  1.4562659e-01
 -2.8668904e-01
  4.7503922e-02
 -8.4069543e-02
 -6.3217476e-02
 -5.2426569e-02
 -8.1216671e-02
 -2.4787715e-01
  7.0217818e-02
  2.9243144e-01
  2.3497887e-01
  3.3812916e-01
  3.8913578e-01
  1.1423495e-01
  4.2958818e-02
 -1.0834854e-01
  3.5154581e-02
  2.3800516e-01
 -1.7885707e-01
 -1.6178384e-01
  9.2131808e-02
  2.9173814e-02
 -2.6390496e-01
  2.6062828e-01
 -1.4601381e-02
 -1.6577174e-01
  1.4963484e-01
  4.7255084e-02
  8.3863449e-01
  2.4102248e-01
 -1.3916396e-01
 -6.9835419e-03
 -5.3038073e-01
  4.5348504e-01
 -1.4683501e-01
  1.6694972e-01
  4.1501656e-01
 -3.7549666e-01
 -1.0937741e-01
 -1.4981844e-01
 -6.7514902e-01
  5.1767942e-02
 -1.1860264e-01
  1.3859928e-01
 -7.7090777e-02
 -1.7324824e+00
 -1.8241923e-01
  4.1823193e-01
 -3.2268447e-01
  1.4351326e-01
  1.3398498e-01
 -5.8046514e-01
  5.0166303e-01
 -1.3190582e-02
 -1.9918144e-01
 -2.2075641e-01
  1.4537758e-02
 -4.1112185e-01
  1.5743737e-01
 -1.3540208e-01
 -2.5395764e-02
  8.6542591e-02
 -3.4060466e-01
 -5.3424042e-01
 -5.4986667e-02
  3.1075644e-01
 -2.5651404e-01
  7.1949184e-02
 -2.0027068e-02
  1.6588990e-02
 -3.7678346e-01
 -1.5233877e-01
  7.0031899e-01
 -4.5254785e-01
 -9.2909671e-02
 -5.1688731e-01
 -6.3120711e-01
  5.4358941e-02
 -1.0359040e-01
 -5.9553415e-02
 -9.2215709e-02
  5.4936475e-01
  1.3637280e-01
  2.8578711e-01
 -1.9863136e-01
 -3.5474747e-02
  1.9240130e-01
  5.7465482e-01
  6.2039338e-02
  5.1535922e-01
  6.5877475e-02
 -1.2302194e-01
  2.2302057e-01
  1.1131561e-01
  7.9688185e-01
 -1.9835295e-02
 -5.9407818e-01
 -3.5922489e-01
  1.1646913e-01
 -1.4421602e-01
 -1.1620562e-01
 -4.5973197e-01
 -5.1205814e-01
 -6.3648216e-02
  4.3308368e-01
  1.9381326e-01
  2.6059467e-01
  8.3142266e-02
  4.6995640e-01
  4.4076025e-01
 -1.1360233e-01
  1.2895645e-01
  4.5629973e-03
 -1.1178870e-01
  2.6870871e-01
  8.8707305e-02
 -1.1840258e-01
 -1.7292760e-01
 -8.9057237e-01
 -1.1058421e-01
 -6.3069183e-01
 -1.7212915e-01
  5.0100278e-02
 -2.4934945e-01
 -4.8556056e-02
 -4.0109101e-01
  1.8475969e-01
  3.0973324e-01
 -3.5036188e-01
  4.0674777e+00
 -4.2731357e-01
 -6.2852383e-01
  5.3075392e-02
 -4.7119549e-01
  1.6937982e-03
  2.5957629e-01
  1.2093645e-01
 -1.1915116e-01
  2.5887752e-02
  4.2837816e-01
 -3.1317389e-01
 -1.9488961e-02
  2.0508993e-01
  2.3700008e-01
  1.8372277e-02
 -1.4621952e-01
  3.0543424e-02
  6.6197008e-02
 -2.0002276e-02
  1.8843906e-01
  2.2201007e-02
  1.5341390e+00
  8.5468277e-02
 -2.2833589e-01
 -1.0388228e-01
 -6.3036337e-02
 -3.9748812e-01
  2.8456989e-01
  6.3050225e-02
 -9.4108611e-02
  1.1657254e-01
 -2.0361336e-01
 -1.6560156e-02
  2.7026704e-02
 -5.7377379e-02
 -2.2658113e-02
 -1.7295481e-01
 -6.5056533e-01
 -4.9501657e-02
  3.1153759e-01
 -4.0154719e-01
 -1.9281669e-01
 -8.7944902e-03
  1.4683555e-01
 -4.1682359e-02
  4.9194685e-01
  1.5557446e-02
  4.3907315e-01
 -3.3516613e-01
 -2.0607794e-02
  2.3348485e-01
 -2.3770063e-01
  6.4790703e-02
  8.6853392e-02
  6.8622366e-02
 -3.3861447e-02
  7.7074692e-02
  4.5967620e-02
 -5.8814056e-02
  2.1737799e-01
 -1.0537978e-01
 -2.2882307e-01
 -6.0738929e-02
  4.9953866e-01
  3.6063287e-01
  1.2188802e-02
 -3.1908024e-02
  1.4777499e+00
  1.0074812e-02
  1.6337399e-01
  3.6925659e-02
  6.7692943e-02
 -3.6173254e-02
 -4.4715516e-02
  3.0023053e-01
 -1.2387922e-01
 -7.5710791e-01
  5.9853327e-01
  4.7712216e-01
  1.4093412e-01
  5.9357864e-01
  2.1538696e-01
 -2.3883745e-02
  1.5019213e-01
  1.1408557e-01
 -3.6328596e-01
  2.2921501e-01
  4.4006458e-01
 -2.3638363e-01
 -4.8264530e-01
 -4.5475658e-02
 -9.3545772e-02
  7.1444474e-02
  4.7600025e-01
  4.9066937e-01
 -1.7462115e-01
  1.7796175e-01
 -8.8020384e-02
  3.3810592e-01
 -8.4893751e-01
 -1.4179160e-01
  3.6344454e-02
 -3.1540555e-01
 -3.6665004e-01
  4.8689619e-03
 -1.5699983e-01
 -2.2256275e-01
 -2.9154468e-02
  3.1032494e-01
 -2.9732171e-01
 -2.0692585e-01
  1.1440843e-01
 -1.8077031e-01
 -2.3530933e-01
  5.9224457e-02
  9.7792886e-02
  3.6437783e-01
 -1.5239346e-01
 -8.4777378e-02
  5.1136369e-01
 -5.8011985e-01
  7.3007539e-02
  8.3867051e-03
  1.7354263e-01
 -5.7362509e-01
  2.1638811e-01
 -2.4822812e-01
  9.7759096e-03
  2.7895749e-01
 -1.0525017e-02
  1.9135432e-01
  1.1566427e-01
 -3.6168206e-02
  3.1455126e-02
  6.1645514e-01
 -1.3925844e-01
 -2.8111905e-01
 -2.0937776e-02
 -9.0491796e-01
 -2.0248820e-01
  9.6732356e-02
 -3.8196689e-01
 -2.6298553e-01
 -6.5135747e-02
 -1.1402828e-02
  7.0043541e-02
 -8.7633781e-04
 -3.3846861e-01
 -1.0514916e-01
  7.0743993e-02
 -9.1173396e-02
 -4.1987365e-01
 -1.9033258e-01
 -6.5793805e-03
 -1.7355343e-02
  6.8157604e-03
 -4.0821493e-02
 -9.4765827e-02
  2.7383342e-01
 -1.4878736e-01
 -3.1953174e-01
 -8.0048256e-03
  5.1284689e-01
 -1.1603113e-01
  8.1821308e-02
 -1.9083942e-01
  7.4283876e-02
 -3.0748531e-01
 -1.7968603e+00
  1.5863775e-01
 -1.1650933e+00
 -3.9844677e-02
 -1.0379924e+00
 -5.6306344e-01
  1.8475391e-01
 -8.9004016e-01
  5.8061987e-02
  2.8581786e-01
 -8.7668307e-02
 -3.8103646e-01
  2.1226609e-01
  5.6652707e-01
 -2.8166848e-01
 -2.8411982e+00
  4.2805105e-01
  5.3900361e-01
 -7.2266436e-01
 -7.5587027e-02
 -3.6387824e-02
  6.7662187e-02
  3.3304151e-02
  9.7418949e-02
 -1.5705527e-01
 -1.0764632e-01
 -3.8014743e-01
  4.2386267e-01
  2.0974682e-01
  4.6677895e-02
  4.2433265e-01
  4.4651430e-02
  8.1386447e-02
  3.7816510e-02
 -7.5867012e-02
 -4.1046128e-01
  3.2346871e-02
  8.4379844e-02
  3.1679934e-01
  3.5350895e-01
  6.1005175e-01
  2.4495299e+00
 -1.1379386e-01
  8.7312572e-02
  3.7402056e-02
 -7.5818677e-03
  2.6636344e-01
  2.0115343e-01
 -4.2846996e-02
  4.0850648e-01
  1.2546055e+00
  9.2557572e-02
  5.4207232e-02
 -2.7173540e-01
  4.1991663e-01
 -1.9321969e-01
 -8.3408289e-02
 -6.2666011e-01
 -2.4913670e-01
  8.4266653e-03
  6.2005058e-02
 -2.9703754e-01
  2.1109998e-01
 -9.0161331e-02
  4.0922937e-01
 -2.1619444e-01
  4.8987862e-02
  1.2470927e-01
 -2.7685419e-01
  1.3630516e-02
  2.7653241e-01
  2.9395047e-01
  7.2688818e-02
 -4.4922560e-02
  1.8134306e-01
 -2.5498933e-01
  3.0955835e-03
  4.4105583e-01
  2.5328141e-01
  1.6796649e-01
  3.7364084e-01
  4.0492761e-01
  5.5040383e-01
  4.8235458e-01
 -4.0921204e-02
 -6.4105058e-01
 -1.7638877e-01
  1.6690527e-01
  6.7582107e-01
 -6.3055031e-02
 -1.5813951e-01
 -1.9060238e-01
  1.1347533e-01
 -2.4033576e-02
 -2.6262644e-01
 -1.6841300e-01
  2.2148876e-02
  1.1337553e-01
 -5.0831085e-01
 -1.6613834e-01
 -8.3746783e-02
 -8.4603369e-02
 -4.1707560e-02
 -1.0463534e-01
  1.4160231e-01
 -4.0645137e-02
  4.0924546e-01
  4.5338254e-02
  1.5867171e-01
 -2.6463872e-01
 -1.4264531e+00
  2.3372020e-01
 -9.0495296e-02
  6.5664075e-02
 -9.8072603e-02
 -5.6039117e-02
 -3.4228253e-01
  1.4045113e-01
  1.7778587e-02
  6.9596004e-01
 -9.6398449e-01
 -5.2695613e-02
 -9.6854889e-01
  3.4652431e-02
  6.2419677e-01
  1.2210834e-02
  1.9872761e-01
 -2.4335106e-01
  3.2004076e-01
 -3.1112459e-01
  2.7014694e-01
 -7.1735807e-02
 -4.7618514e-01
  1.2495016e-01
 -3.9114766e-02
 -2.6490141e-03
  7.4260511e-02
  1.6211888e-01
  3.9649644e-01
 -5.9409153e-01
 -2.3468776e-01
 -2.0935789e-01
  1.9352852e-01
  4.2844662e-01
  7.4770995e-03
  2.4118106e-01
 -2.1369338e-01
  8.5552663e-01
 -1.5955350e-01
 -1.0576998e-01
  4.7320455e-01
  3.8971089e-02
  2.9737979e-01
 -3.4384525e-01
  1.0390157e-01
  3.9736974e-01
  4.8708111e-01
 -4.2823916e-03
  2.4537893e-01
 -2.3563214e-01
 -1.1196103e-01
 -1.9937845e-01
 -2.3419873e-01
  8.7384254e-02
 -2.9832929e-01
 -8.5752927e-02
 -2.1336488e-01
  4.1439301e-01
 -5.3590763e-01
 -2.1239586e-01
  1.9797480e-01
  6.5949392e-01
 -5.4513538e-01
  6.1988854e-01
 -4.8783574e-02
  2.5198543e-01
 -2.1135406e-01
 -9.4801066e-03
 -3.2128623e-01
  1.7096743e-01
 -1.1436972e-01
 -2.9442853e-01
 -4.4410788e-03
 -1.1309463e-01
 -5.2201789e-02
 -1.7923926e-01
  3.9295658e-01
  1.1474860e-01
 -4.8304996e-01
 -1.4054749e-02
 -3.2949322e-01
 -1.4001897e-01
  7.0782661e-02
 -7.8396952e-01
  5.1899083e-02
  1.4302208e-01
  1.7578650e-01
 -3.0388454e-01
  6.2416069e-02
 -1.1055647e+00
 -1.6786022e-01
  7.9900557e-01
 -7.0534593e-01
 -3.2666039e-01
  8.1968322e-02
  4.0857548e-01
 -3.4352350e-01
  1.2121965e+00
 -2.0005931e-01
  5.6092507e-01
 -4.6240774e-01
 -6.0202261e-03
  1.7032520e-01
  4.9685322e-02
 -3.9062016e-02
  6.4721549e-01
  2.5664642e-01
 -2.2628473e-01
 -2.4911366e-01
 -3.2728848e-01
 -6.4688098e-01
  8.1476539e-02
  3.9476812e-01
 -3.1496432e-01
 -3.0413017e-01
 -1.5814564e-01
  6.9849722e-02
 -1.3811320e-01
  2.9438943e-01
 -2.1533324e-01
  1.3111918e-01
  3.1179541e-01
  4.1517713e-03
  9.3909662e-04
  4.2324939e-01
 -6.0722999e-02
 -4.4266829e-01
  3.9905378e-01
 -1.8301032e-01
 -1.8127383e-01
 -1.1786010e-01
  1.9911046e-01
  5.3292111e-02
  5.7381731e-03
 -7.7409185e-02
  2.2445785e-01
  2.6164582e-01
 -2.9731146e-01
  1.5283820e-01
 -1.2927836e-01
  5.9923017e-01
 -2.0826441e-01
  5.3342659e-02
 -1.0091013e-01
  4.7600709e-02
  1.6881770e-02
 -6.9523698e-01
  7.9700582e-02
  2.5128128e-02
  1.6718264e-01
  3.1119123e-01
 -5.0673562e-01
 -4.9965620e-01
 -1.6356158e-01
 -4.4811603e-01
  5.7448059e-01
  2.9634777e-01
  9.4664671e-02
 -5.6567781e-02
  7.4808496e-01
  2.8438810e-01
 -1.1953821e-01
  3.0014649e-01
 -2.1486588e-01
  1.1632693e-01
  1.4052123e-01
  3.4971517e-01
  3.6111945e-01
 -4.1365170e-01
 -2.0560087e-01
 -4.4332668e-01
 -1.0191643e-01
  3.5946880e-02
 -5.3466007e-02
 -9.3491845e-02
 -1.8636115e-01
 -1.0246381e+00
 -1.2577493e-01
 -3.4281820e-02
 -1.8375954e-01
  1.0321099e-01
 -5.1238006e-01
  5.4850286e-01
 -3.6286563e-03
 -1.0436770e-02
 -4.2454362e-01
 -2.8902885e-01
 -1.3964356e-01
 -4.1874862e-01
 -1.6569529e-01
  6.4761288e-02
 -1.1576895e-01
  2.9399556e-01
  1.0711647e-01
 -7.8178048e-02
 -1.4896222e+00
  1.6533971e-01
 -1.1746664e-01
 -3.8040850e-01
  1.2155646e-01
  9.5221601e-02
  2.8467476e-01
  3.0176562e-01
  2.6738721e-01
  1.0203901e-01
  3.1334558e-01
 -8.9032240e-02
 -2.5957718e-01
  1.4957862e-02
 -1.4673002e-01
  2.2408918e-01
 -2.2703059e-01
 -5.1898575e-01
  3.0047658e-01
  1.4672841e-01
  9.0334250e-04
  4.7193256e-01
  2.3148455e-01
  4.8854301e-04
  2.7123162e-01
 -9.6165597e-02
 -8.9019403e-02
  3.4068516e-01
 -8.0741927e-02
 -1.0113855e-01
  1.7615499e-01
  1.2478322e-01
  9.7203963e-03
 -1.3386056e-01
  3.5279240e-02
 -1.1127693e-01
  3.1133178e-01
 -4.3848222e-01
 -1.7204712e-01
 -6.0011506e-01
  5.2715473e-02
 -1.0391236e-01
  5.2037094e-02
 -3.4430578e-02
 -3.3461154e-02
  6.7775197e-02
 -2.2925046e-01
  2.9212868e-01
  4.3719116e-01
  7.2520696e-02
 -3.3768222e-01
 -4.4875646e-01
  3.9687529e-01
  5.3715181e-02
  8.2145947e-01
  1.4548138e-01
  9.7920977e-02
 -1.4000855e-01
  5.6741733e-02
  1.8701617e-01
  6.2125033e-01
  1.8872032e-02
  5.8529222e-01
  4.9476471e-02
 -4.3445393e-02
  5.1086962e-01
  1.2585713e-01
 -1.8839684e-01
 -6.5654427e-02
 -7.6717354e-02
  5.9168704e-02
 -3.0760407e-01
  1.7340225e-01
 -6.7289419e-02
 -9.6496768e-02
  1.7811787e-01
 -7.3380522e-02
 -8.6718701e-02
  3.9500511e-01
  3.7012273e-01
 -9.7181424e-02
 -1.7789288e-01
  1.2729585e-01
 -1.0426328e-01
 -6.3911766e-02
 -5.4944631e-02
  3.9081659e-02
 -3.2254305e-02
  5.6424081e-01
  8.8606805e-02
 -4.2286506e-01
 -3.8432467e-01
  7.1842712e-01
 -8.4812164e-01
 -2.3118106e-01
  8.6539283e-02
  2.1180421e-01
 -5.2862579e-01
 -5.0635380e-01
 -4.5372808e-01
 -2.6937342e-01
  5.7170695e-01
  6.9786102e-01
 -6.0731815e-03
  1.1751144e-01
  3.2327232e-01
  2.4656431e-01
  4.0174764e-01
 -6.0533319e-02
  1.4405406e-01
 -6.2942699e-02
 -6.6304408e-02
  1.4740750e-02
 -6.9274814e-03
 -3.0317339e-01
  2.2815986e-01
 -1.6786849e-02
  9.9690568e-01
  1.8150747e-01
  4.7563020e-02
  3.5800970e-01
 -2.5680849e-01
  1.3071412e-01
 -6.4308745e-01
 -1.7689216e-01
  1.0005686e-01
  1.4045762e+00
  3.2886755e-01
 -1.1154724e-01
  1.5076087e-01
  3.2988635e-01
 -7.6928504e-02
  4.1542077e-01
  4.4343916e-01
  5.7305861e-01
  1.4478911e+00
  7.0609361e-01
  2.0419392e-01
  4.0673518e-01
  1.1635515e-01
  2.7830059e-02
  3.0574900e-01
  6.8238885e-03
  6.0576171e-01
  1.4963791e+00
  9.6012795e-01
  4.5624483e-02
  1.6045372e-01
  9.1177531e-02
 -2.3069378e-02
  4.2552289e-01
  4.1076995e-02
 -9.5867664e-02
  1.4770912e+00
  4.4564165e-02
  8.0592793e-01
  6.0556567e-01
 -3.7041441e-02
 -3.2633817e-01
  8.6965695e-02
 -6.0402948e-01
  5.7290532e-03
  6.9624677e-02
  9.1737902e-01
  3.8675025e-01
 -6.8095379e-02
  1.5700099e-01
  4.9494900e-02
 -1.0068104e-01
 -1.5596904e-01
  9.1663301e-03
 -6.4019576e-02
 -1.1314492e-01
  5.7330292e-02
  3.0171117e-01
  1.7038925e-01
  1.3027737e-01
 -4.7970980e-01
 -3.7019852e-01
  2.7808389e-01
  1.1559308e+00
 -2.4212505e-01
 -6.1861056e-01
 -2.1103857e-01
  1.6208974e-01
 -1.7928198e-01
  7.3248482e-01
  1.2978349e+00
 -2.1421616e-01
 -1.3104227e-01
 -2.0430206e-01
 -3.1666535e-01
 -7.2541159e-01
 -1.0040133e+00
 -7.1164572e-01
 -1.3580678e-01
 -1.9086699e-01
 -8.9502275e-02
 -4.6949548e-01
  9.4740689e-02
  1.4064352e-01
 -1.0673331e-01
  1.2883927e-01
  3.3577287e-01
  3.4678230e-01
  2.5349692e-01
 -1.0417733e+00
 -2.6661873e-01
  1.1511096e-01
  3.3249933e-01
 -2.9599659e-02
  1.4971900e-01
  7.8076571e-01
  2.6029812e-02
 -2.0083776e-01
 -1.8256509e-01
 -3.2616738e-02
  1.5239097e-01
  1.5745775e-01
  5.6061219e-02
  7.0547444e-01
 -5.9694856e-02
 -1.8638514e-02
 -3.3199501e-01
  2.6629111e-01
  1.7946508e-02
 -8.0354512e-03
 -2.1969527e-01
 -1.4140094e-02
  1.9456966e-02
 -3.1638607e-02
  5.4540850e-02
 -1.1828741e-01
  2.0832063e-01
  2.7709407e-01
 -4.6234488e-02
  4.0780481e-02
  5.7546759e-01
  4.4261247e-01
 -1.4369451e-01
  1.3186632e-01
  2.7016679e-02
  1.0427554e-01
 -2.6955307e-01
  3.4480091e-02
  2.8533018e-01
 -6.6131733e-02
  1.1654868e+00
 -2.8695405e-02
  8.1275868e-01
  1.1228922e-01
  5.4799717e-02
 -1.8553548e-01
  1.1319851e-02
 -7.7203709e-01
  8.6971901e-02
 -1.8083219e-01
  1.1202960e-01
  4.0965501e-02
  1.8738472e-01
  6.2641776e-01
 -1.8262954e-01
 -9.5873199e-02
 -3.6305150e-01
 -2.1428958e-01
 -8.3602197e-02
  3.6656612e-01
  2.9721013e-01
  1.1099843e-01
 -1.3210946e-01
 -2.9543060e-01
 -6.8090372e-02
  1.4689119e-01
  4.7818318e-02
  7.0489503e-02
  2.4273710e-01
  5.7063665e-02
 -1.8361224e-01
 -3.1524166e-01
  6.4728278e-01
 -2.2455169e-01
  1.5276788e-01
 -1.0703536e-01
 -9.0678826e-02
  9.6898615e-02
  1.8131848e-01
 -3.5252061e-02
  1.8649055e-01
 -1.1551595e-01
 -6.7467260e-01
  3.4754135e-02
  4.5462720e-02
 -1.6686738e-01
 -3.3203140e-01
 -5.2206188e-01
  2.0090020e-01
  4.3524299e-03
  5.4966904e-02
  1.5026261e-01
 -4.2253566e-01
  1.0998823e-01
  1.4698745e-01
  4.7046203e-02
 -2.4307601e-02
  8.3817190e-01
  1.8737882e-01
  2.5570187e-01
  2.9259628e-01
  6.3754886e-01
 -3.1716594e-01
 -5.7580119e-01
 -1.3424791e-01
 -4.0494878e-02
 -2.1322373e-01
  8.1336397e-01
  4.3838803e-02
  5.1955175e-01
 -2.1775915e-01
  1.5856308e-03
 -7.1337901e-02
  2.5938728e-01
 -9.7539879e-02
 -1.1350944e+00
 -8.9471586e-02
 -4.0770245e-01
 -1.3956976e-01
 -1.0440731e+00
  5.4545309e-03
  1.6098344e-01
 -3.3852141e-02
 -5.9564292e-01
 -1.6340125e-01
  3.7409928e-02
 -3.0617136e-01
  1.4032425e-01
  3.6626965e-01
 -3.1163174e-01
  6.6707850e-01
 -4.3941551e-01
 -4.9958801e-01
  2.6580827e-02
  1.3729675e-01
 -6.1614241e-02
  7.1965070e-03
  5.7710075e-01
 -1.0764113e-01
 -4.7532174e-01
  2.8342110e-01
  1.2652420e-01
 -2.7100012e-01
  1.2116287e-01
 -8.9451529e-02
 -1.0758140e-01
  2.1254444e-01
  3.1377012e-01
 -3.1750897e-01
  4.8803067e-01
 -7.7013455e-02
 -1.1890232e-01
 -1.0592223e-01
 -2.4517478e-01
 -5.0153837e-02
  1.3694150e+00
  7.9706274e-02
  4.3849945e-01
  1.2755020e-01
  6.5772092e-01
  4.7229153e-01
 -2.8860655e-01
 -1.6183028e-02
  1.0280548e-01
 -5.8677328e-01
  1.7008439e-01
 -6.3865101e-01
  1.5525119e-01
  5.4491699e-01
  7.5358033e-02
 -1.8414627e-01
  1.4864898e-01
  1.6854602e-01
  7.6908939e-02
 -3.5369940e-02
 -1.4903352e-01
 -4.9264349e-02
 -2.5936878e-01
  3.9719674e-01
 -2.6760021e-01
 -3.7527218e-01
  1.6236812e-02
 -1.0041229e-01
  1.6727084e-01
  1.0970098e-01
 -1.3682134e-01
 -2.6539364e-01
 -2.1077515e-01
 -1.3110256e-01
 -1.4085551e-01
  1.3561818e-01
  3.1189805e-01
 -3.3520871e-01
  3.3475471e-01
 -1.4140795e-01
 -1.0314403e-01
 -1.5422037e-01
 -6.2815510e-02
 -2.0159101e-01
  6.2670931e-02
 -2.2470370e-01
 -1.6995431e-01
 -3.2825097e-01
  2.1219546e-01
  5.0168674e-02
  4.8782274e-01
  4.1302005e-03
 -7.2451634e-03
  1.6862607e-01
  2.3148410e-02
  1.3698357e-01
 -8.5195079e-02
 -3.5552200e-02
 -6.6480988e-01
 -5.8078259e-01
  1.2415267e-01
  3.0444520e-02
  2.5025427e-01
 -1.5807690e-01
  4.4842863e-01
 -6.7337894e-01
 -2.5392324e-01
  9.6597201e-01
 -1.5646076e-01
  2.0891535e-01
 -3.3240426e-01
 -1.8863495e-02
  3.3957276e-01
  4.8459613e-01
 -1.8350517e-02
 -3.0800560e-01
  6.2786698e-02
 -1.6379985e-01
 -2.9465321e-01
  3.3037391e-01
  3.1249502e-01
  2.9398102e-01
  1.4308718e-01
 -4.0681770e-01
 -4.7010779e-02
  3.2947648e-02
  1.4382599e-01
 -1.2724923e-01
  1.5955584e-01
 -1.2101685e-01
  1.9175239e-01
 -6.7668611e-01
  2.1253989e+00
  4.0233005e-03
 -6.2015604e-02
 -1.0951244e-01
  1.0820778e-01
  7.4007589e-01
  2.3934834e-01
 -2.4994738e-01
  1.1656684e-01
 -3.2331738e-01
  1.0493983e+00
  2.0405784e-01
 -1.9957246e-01
 -1.3296352e-01
 -3.0275100e-01
  7.4205804e-01
 -7.9714678e-02
 -2.8265840e-01
 -8.1303698e-01
 -9.8422579e-02
 -2.7859700e-01
  5.0553884e-02
 -3.6562780e-01
  4.2407233e-01
 -4.3872097e-01
  2.4894139e-01
 -6.3704962e-01
  5.7112932e-01
  1.4141145e-01
 -4.1714123e-01
  2.0013141e-02
  2.4054028e-01
 -2.3695886e-01
  6.4186007e-01
 -8.3236806e-02
  6.3199973e-01
 -1.2735938e-01
  6.1434728e-01
 -2.5930819e-01
 -2.9714603e+00
 -4.3976405e-01
 -9.8539568e-02
 -4.0898990e-02
  4.3692067e-01
  8.6425148e-02
  2.0640731e+00
 -1.4677292e-01
 -1.5821286e-02
 -1.3768442e-01
  1.5871209e-01
  1.9267710e-01
  8.8263977e-01
  1.3778973e-01
 -1.8156511e-01
  6.0008001e-02
 -2.5923502e-01
 -1.3129737e-03
  3.1883072e-02
 -1.0637891e-01
  1.5603006e-01
 -1.9682726e-01
 -1.4080295e-01
  1.4286004e-01
  9.9447705e-02
 -1.0105363e+00
  4.3005687e-01
  3.7095219e-01
 -3.2826978e-01
  1.1337998e-01
 -2.8727087e-01
 -1.4478868e-01
  4.2577589e-01
 -2.5953081e-01
 -4.8019152e-02
  2.0449687e-02
 -2.8542371e-02
 -4.8078677e-01
  3.0007091e-01
 -2.3364452e-01
  1.0225724e-01
 -7.0285672e-01
  3.0817881e-02
  2.8555277e-01
  5.5240756e-01
 -4.6004069e-01
 -2.0607339e-01
 -8.4332474e-02
 -6.8176538e-01
 -8.9299554e-01
 -3.1614509e-01
 -2.9554352e-02
  5.2379191e-02
  2.3870994e-01
  7.6091446e-02
 -2.6190194e-01
  2.0810060e-01
  2.4031840e-01
 -7.0854115e-01
  2.9272723e-01
  1.1320177e-01
  1.1226465e-01
 -7.2013509e-01
  5.6238677e-02
 -1.8826625e-01
 -4.2095140e-01
  2.4350162e-01
 -1.6903532e-01
  1.2213468e-01
  9.0039395e-02
 -1.6796404e-02
  7.6865411e-01
  2.0234491e-01
  2.4511936e-01
 -6.2429719e-02
 -1.0321152e-02
 -1.0048843e-01
 -1.9463189e-01
 -2.8337687e-01
 -3.0843437e-01
  4.7054097e-02
 -1.0485833e+00
  4.2354237e-02
 -2.8953478e-01
  6.6168201e-01
  2.1227209e-01
 -1.7748958e-01
 -4.0490162e-01
  1.7459568e-02
 -2.7477926e-01
 -2.4346887e-01
 -1.0106515e-01
 -1.7978558e-02
  2.0193827e-01
 -4.0824947e-01
 -5.3502494e-01
  4.4629559e-01
  1.0032331e+00
 -3.2365277e-02
  2.0053191e+00
 -1.0469084e+00
 -1.0281997e+00
  5.1534498e-01
 -5.3843629e-02
 -1.7685555e-02
 -1.0649213e+00
 -2.0277911e-01
  4.8153955e-01
  3.0715945e-01
  5.9375342e-02
  5.8755702e-01
 -2.0300274e-01
  8.4130011e-02
 -1.1505286e+00
 -2.3592383e-01
 -5.6393760e-01
 -1.9692603e-01
  5.8806157e-01
  1.2882895e-02
  3.3815525e-02
  5.9704041e-01
  1.2485019e-01
  3.2890403e-01
 -2.9437289e-02
 -3.3617634e-03
 -7.1002841e-01
 -1.1943276e-01
 -1.2284189e-01
 -1.3469209e-02
 -2.0550169e-02
 -1.9064128e-01
 -3.9555880e-01
  3.1247291e-01
  2.5296614e-01
  6.5486960e-02
 -5.6853437e-01
 -2.4568588e-01
 -1.9275826e-01
 -1.0685435e-01
 -9.0916522e-02
  3.5322827e-01
  3.8342670e-01
 -2.3779084e-01
 -6.2042665e-01
 -8.0787390e-02
  1.5044898e-01
  1.2205781e-01
  4.3137184e-01
  4.3118280e-01
 -2.3596458e-01
  3.7113848e-01
 -9.3981568e-03
 -1.7505495e-01
 -4.4990256e-01
 -2.7081098e-02
 -2.0365252e-01
  8.0276847e-02
  4.1905713e-01
 -3.4919694e-01
  3.5754794e-01
  5.8937138e-03
 -6.3915646e-01
 -2.4758559e-01
 -6.1584567e-04
 -4.4692886e-01
  2.4520531e-02
 -1.1332173e-01
 -7.7215198e-04
  3.4547564e-01
  2.5377434e-01
  2.5453532e-01
  1.3648569e-02
  5.9453958e-01
 -1.3460551e-01
 -2.6475078e-01
 -3.0851710e-01
 -4.0799890e-02
 -4.6479398e-01
 -3.1845331e-01
  6.5031268e-02
 -3.2313284e-02
 -7.8796834e-02
 -3.8770676e-01
  6.9007820e-01
 -5.1478070e-01
  4.8090588e-02
 -3.8497273e-02
  4.8241478e-01
 -4.0212336e-01
  6.5542437e-02
  5.6267512e-01
 -4.0917128e-01
  2.4469467e-01
 -2.9095638e-01
  1.2808391e+00
  1.0796325e+00
  5.6874818e-01
 -3.4779018e-01
 -1.0726790e+00
  7.2648269e-01
 -3.6827424e-01
 -1.3537268e-01
 -1.2578969e-01
  2.5261617e-01
 -6.1304355e-01
 -1.1158416e+00
 -5.8929467e-01
 -1.2579954e-01
  2.4710299e-02
 -3.0552253e-01
 -1.1067201e-01
 -9.1731805e-01
 -9.1431044e-02
 -4.8227435e-01
  7.4768037e-02
 -3.1469053e-01
  1.3761733e-01
 -3.6869159e-01
  5.1557064e-01
 -1.3113530e+00
 -7.1915680e-01
  6.7736131e-01
 -1.9640949e-01
 -9.7385836e-01
 -4.5760572e-01
  5.1545483e-01
  7.2718877e-01
 -9.7693539e-01
 -6.7812079e-01
 -2.5731041e+00
 -9.6282881e-01
  3.6811396e-01
 -6.3143325e-01
  2.3386244e-01
 -4.9005252e-01
 -7.0036501e-01
 -1.2437974e+00
 -1.3641613e+00
 -9.8338336e-01
 -2.7698967e-01
  8.5442349e-02
 -1.1490139e+00
 -1.8557829e+00
 -2.3196393e-01
  2.5571355e-01
 -9.9111333e-02
 -1.0543378e-01
 -9.6842319e-01
 -4.4225580e-01
 -2.5422281e-01
 -2.0063123e-01
 -1.0051978e+00
 -5.9827778e-02
 -5.3130561e-01
 -3.2219982e-01
  6.3561141e-02
  5.1373500e-02
 -4.5971024e-01
  5.5212277e-01
 -7.5194418e-01
 -8.8879660e-02
 -1.2040848e-01
  4.7906712e-01
  1.3721433e-01
 -3.5248917e-01
 -1.6639383e-01
 -1.8935427e-01
  5.5809784e-01
  6.4752914e-02
  1.6307041e-01
  7.5381750e-01
 -4.6022451e-01
 -7.9782538e-02
  1.0422668e-01
  8.8329285e-01
 -2.7304227e-02
  1.7903404e-01
 -3.0302033e-01
 -3.0060031e-03
 -9.7386621e-02
 -6.0784620e-01
 -1.2482135e-02
 -1.5381470e-01
 -1.1545080e+00
  8.1943884e-02
  1.9791257e-01
 -6.4442321e-03
  2.3896811e-03
  2.5567767e-01
  3.5365824e-02
  8.2720555e-03
 -3.2937083e-01
  2.4151212e-01
 -1.1878739e-01
  7.7598685e-01
 -2.4951303e-01
  1.8963608e+00
  8.3378285e-02
 -1.9313256e-01
 -9.3853861e-01
 -2.4114151e-02
 -7.1535073e-02
 -3.7149858e-02
 -1.7988355e-01
 -2.5462303e-01
 -1.2239999e-01
  3.8993191e-02
 -4.3988812e-01
  2.7640893e-03
  3.7047926e-01
 -3.4334317e-01
 -1.5195934e-01
  3.3451822e-01
  2.6834646e-02
 -3.0591056e-01
 -4.0766947e-02
  2.2433050e-01
 -7.0691183e-02
 -1.8359420e-01
  1.1555801e-01
 -5.5916056e-02
 -1.4105710e-01
 -4.0241742e-01
  1.5945114e-01
  7.4725203e-02
  2.5499420e-02
  3.5396289e-02
  1.6306221e-01
 -2.1865374e-01
 -5.1960731e-01
 -6.1675340e-02
  1.7734559e-01
 -2.2179825e+00
 -6.8251836e-01
 -4.5555252e-01
 -4.7201926e-01
  6.0623284e-02
 -3.6409846e-01
  7.9701513e-02
  5.6459570e-01
  3.7924492e-01
 -1.4466265e-01
  2.2008671e-01
  2.7635461e-01
 -2.4777254e-01
  3.9732268e-01
 -2.3828682e-01
  6.8732528e-03
 -1.9426268e-02
 -5.3058356e-01
  1.3128516e-01
  2.0277879e-01
  2.5561058e-03
  1.6360581e-01
  3.8747258e-02
 -1.3500266e-01
 -2.6772052e-01
  3.7134597e-01
  2.5638261e-01
  2.3847848e-01
 -3.0888790e-01
  1.0434846e-01
  9.1459528e-02
  5.8471248e-02
  1.3594347e-01
  3.1193525e-01
 -3.7884004e-02
 -8.1310615e-02
  1.4958814e-02
 -3.1170315e-01
 -5.6030564e-02
  1.2892106e-01
 -8.6800143e-02
 -6.3315499e-01
  2.6761356e-01
 -2.9161206e-04
 -1.7732102e-01
  3.4925897e-02
  2.7423069e-01
  1.6174123e-01
 -2.6687753e-01
  3.3273318e-01
 -4.2528242e-02
 -1.7090011e-01
  4.2643994e-02
  9.9183001e-02
 -4.5909170e-02
  1.6085726e-01
 -3.8422044e-02
 -5.4895241e-02
  1.4995176e-01
  1.3106595e-01
  5.6650007e-01
 -1.3454804e-01
  4.1727066e-01
 -3.5142252e-01
 -5.0083953e-01
 -7.0589668e-01
 -3.3327928e-01
 -2.4601020e-01
  4.4603413e-01
  2.8786471e-03
  3.8094021e-02
 -1.4769602e-02
 -4.3921185e-01
  1.1552406e-01
  8.2777476e-01
 -1.7441151e-01
 -1.7815194e-01
 -6.4936489e-02
 -3.2543175e-02
  7.7915806e-03
  2.2980008e-01
  1.2985450e-01
 -1.5240772e-01
  1.0252577e-01
  1.9103561e-01
 -1.7129946e-01
 -5.8971215e-02
 -5.8384880e-02
  9.8983329e-03
  8.2753301e-02
  2.1814299e-01
 -6.6016190e-02
 -4.0647242e-02
 -2.2638953e-01
  1.5255202e-01
  1.1669070e-02
 -5.4800034e-02
 -9.9973179e-02
 -6.5604895e-02
  5.8738554e-01
 -1.6033567e-01
 -5.1564783e-01
 -1.4168793e-01
  2.9391590e-01
  7.6767907e-02
 -2.2224529e-01
 -3.8228124e-01
 -2.7704945e-02
  6.0465597e-02
  1.7902043e-01
 -3.1869244e-02
  6.0080215e-03
 -1.3216934e-01
  3.1923869e-01
  2.8974631e-01
  6.6174704e-01
 -4.3084264e-02
  7.0983686e-02
  7.3735155e-02
  3.2244819e-01
  8.3558552e-02
 -1.6941224e-01
 -6.6276670e-02
  1.7689681e-01
 -1.4964585e+00
 -1.2546782e-01
 -1.2731822e-01
 -1.8865162e-01
  8.6244762e-02
  1.8494867e-01
 -5.8724999e-02
 -5.3395945e-01
 -2.4771968e-01
 -5.6594208e-02
  8.1485242e-02
 -6.1536826e-02
  4.2152137e-02
 -5.5445379e-01
 -3.1826404e-01
 -2.8064946e-02
 -3.7783548e-01
  1.5140553e-01
 -2.3726724e-02
  2.3717215e-02
 -4.2672667e-01
 -4.1348666e-01
 -5.1012855e-02
  2.5164545e-01
  5.9193623e-01
 -1.4052136e-01
 -1.0417312e-01
 -8.5158277e-01
 -8.1633307e-02
  1.9074242e-01
 -1.2575293e-01
  5.0691832e-02
  3.6656536e-02
 -3.7211356e-01
  3.0882820e-01
 -9.4918847e-02
  2.3645082e-01
  2.7668703e-01
  4.3553096e-01
  8.9493707e-02
  6.2503636e-02
 -8.9450508e-01
  1.2756734e-01
  8.6022407e-02
 -1.4242864e-01
 -4.7449157e-02
  2.3140170e-01
  2.2518264e-01
  9.2972025e-02
 -4.6091773e-02
 -5.8610153e-01
  1.9459939e-01
  5.2505946e-01
  2.8345078e-01
 -3.9433753e-01
  2.9487638e-02
 -6.1618950e-02
  1.0288689e-02
 -7.0946097e-01
 -8.7540847e-01
  9.8844223e-02
 -3.9523342e-01
  4.2446536e-01
  7.2139651e-02
  5.4127192e-01
  2.3315337e-01
 -2.1314645e-01
  3.9856203e-02
 -4.2265734e-01
 -5.7409242e-02
  7.8561448e-02
  1.3052322e-01
 -3.0654374e-01
  7.4498164e-03
  2.4898438e-01
 -2.8696379e-01
  2.8108200e-01
 -3.0152053e-01
 -2.0689318e-01
  8.1261117e-03
 -2.0838058e-01
  2.5054559e-01
  2.0137872e-01
  7.8423321e-02
  2.9788008e-01
 -3.6277834e-01
 -2.8370569e-02
  2.4628940e-01
  4.3549359e-01
 -2.7402829e-02
  8.4784508e-02
 -5.9950501e-01
 -1.5278687e-01
  2.1316040e-01
 -2.0933622e-01
 -1.6453693e+00
 -1.2914848e-01
 -5.0621617e-01
  1.7818865e-01
 -4.6720188e-02
 -8.8708855e-02
  2.3491214e-01
 -2.1004266e-01
 -3.3450222e-01
 -3.0748647e-02
 -1.2810956e-01
  5.8792132e-01
 -4.6851808e-01
 -1.9296855e-01
  5.1066399e-02
  1.8447915e-01
 -4.3785772e-01
  1.5341307e-01
  3.0552691e-01
  2.2032806e-01
  4.2419338e-01
 -8.5915700e-03
  1.9203810e-01
  4.3992810e-03
 -2.7221066e-01
 -3.9651343e-01
 -4.8225261e-02
  2.7295896e-01
 -9.4977655e-02
  1.1466555e-01
 -1.7920794e-01
  2.3264802e-01
 -4.0763694e-01
  4.7009978e-01
  1.7725909e-01
  5.9325207e-02
 -7.5439304e-02
  6.6371381e-01
  2.3470776e-01
 -2.1124855e-01
  3.3236703e-01
 -7.7753121e-01
 -1.2369373e+00
  1.4205606e-01
 -3.4401861e-01
  9.1382198e-02
 -6.5886444e-01
 -2.2022311e-01
 -7.0343637e-01
  7.7069104e-02
 -1.9043685e-01
 -3.7792706e-01
 -4.8195416e-01
  1.3099964e-01
  4.5943137e-02
 -1.9630170e-01
  1.8104094e-01
 -1.3286558e-01
 -4.3484339e-01
  1.6374901e-01
  2.2276402e-01
  8.9158580e-02
 -7.8061879e-02
 -1.3400379e-01
 -9.3495464e-01
  1.2131739e-01
  9.2389062e-02
  4.1558701e-01
 -2.1376620e-01
 -3.9687002e-01
  2.2870843e-01
  1.0882555e-01
  4.4200573e-02
  5.0514482e-02
  1.3022608e-01
 -4.0842953e-01
  6.4505976e-01
  6.7915404e-01
 -2.1861768e-03
  9.0933032e-02
  1.7281216e-01
 -1.3487355e-01
 -4.7295281e-01
  4.3675218e-02
 -4.3475018e-03
 -1.1616105e-01
 -4.5166618e-01
  1.1932597e+00
  3.1578189e-04
 -1.2540371e-02
  2.2663891e-01
  2.3991419e-01
  2.5398183e-01
 -4.2609251e-01
  4.1311657e-01
 -2.9381633e-01
 -1.0834512e-01
 -3.8840361e-02
  1.1966647e-01
 -8.9119971e-01
  3.0386424e-01
  4.6528408e-01
 -9.3615092e-02
  5.6374347e-01
  4.5030794e-01
 -1.2068888e+00
 -3.4720674e-01
 -1.8310115e-01
 -2.7348360e-02
  4.1319441e-02
 -7.5584725e-02
 -1.0254638e-01
 -2.4550162e-01
 -1.3820370e-01
  2.7078834e-01
 -3.9477965e-01
  3.5194688e-02
 -1.6804671e-02
  2.9496598e-01
 -1.2627305e-01
 -1.7000723e-01
 -1.8409785e-02
 -5.2991110e-01
  2.7568844e-01
  4.4289646e-01
  2.5377661e-01
 -1.2070183e-01
 -1.5830542e-01
  1.3936454e-02
  2.4746759e-01
 -5.5569071e-01
 -4.6607789e-01
  7.6397099e-02
 -1.0823967e-02
  1.8760690e-01
  1.4450997e+00
 -7.1452165e-01
 -1.0494740e-01
  1.1228330e-01
 -7.7139296e-02
 -2.4587971e-01
  4.9073897e-02
 -3.0603927e-01
 -2.1552112e-02
  1.3941310e-01
  7.2038814e-02
  2.6703028e-02
 -5.4375745e-02
 -1.4036882e-01
 -1.4881302e-01
  2.4563195e-02
 -3.1848970e-01
  5.0734479e-02
 -1.5982775e-01
  2.5746173e-01
  5.9203547e-01
  1.8391632e-01
 -1.4660320e-01
 -2.2474581e-01
  1.0034346e-01
  3.2254043e-01
 -1.2816380e-01
 -3.9310390e-01
  4.0611356e-01
 -4.0628916e-01
  5.0948423e-01
 -1.3795473e-01
 -4.1623992e-01
  3.7213823e-01
  1.6388239e-02
  7.6887019e-02
  3.5125595e-01
  1.1220091e-01
 -5.0066447e-01
 -7.6508597e-02
  3.8141462e-01
  1.6102740e-01
  4.1744536e-01
 -1.6905758e-01
 -1.4301617e-01
  2.9327250e-01
 -1.8624926e-01
 -3.5476644e-02
  3.3647025e-01
  1.3504097e-01
  1.6240256e-03
 -7.9788610e-02
 -1.5743007e-01
 -1.6691437e-01
 -1.5742463e-01
 -1.8849204e+00
 -1.4489220e-01
 -1.3497271e-02
  2.2974707e-01
  5.1081937e-02
 -1.3660407e-01
  8.0568800e-03
  6.0296385e-03
 -8.9663686e-03
  6.7742914e-02
  8.4310591e-02
 -4.6977723e-01
 -9.9116139e-02
 -1.7214103e-01
 -5.5152357e-02
  3.8974155e-02
  5.8415301e-02
  2.3424728e-01
 -1.9590503e-01
  1.5496409e-01
  5.1644391e-01
 -5.8191139e-01
  3.8529390e-01
 -2.8616688e-01
  4.8874371e-02
  3.1131480e-03
  1.3185625e-01
  4.6592557e-01
  1.0982910e+00
  8.8046081e-02
  6.3943553e-01
  1.9390669e-01
  1.9923015e-01
  2.1394059e-01
  5.7778269e-01
  7.3929429e-01
  6.0302973e-02
 -1.2732789e-01
  1.1176285e-01
  9.4885208e-02
 -9.6495477e-03
 -5.3653264e-01
 -1.3472481e-01
 -7.7080518e-02
  7.1932608e-03
  2.4280420e-01
  2.0782636e-02
 -2.5217992e-01
  2.1479955e-01
  9.2824465e-01
  2.6745978e-01
 -6.8744674e-02
 -9.6488416e-02
 -4.3487060e-01
  2.1398338e-02
  1.8936519e-03
 -1.0579549e-02
  1.7551856e-01
 -3.3517224e-01
  3.2438509e-02
  2.2979297e-02
  5.2005315e-01
  3.4135270e-01
  3.7977049e-01
 -4.2846769e-02
 -1.4655678e-01
 -2.0063227e-01
 -1.8963253e-01
 -5.2109832e-01
 -1.3365261e-01
  1.3867646e-01
 -2.3393527e-02
 -2.9665068e-01
 -2.9680967e-02
 -1.7178379e-01
 -1.5864883e-01
  3.8384423e-01
 -7.1992584e-02
  2.5006589e-01
  1.2408176e-01
  1.8806624e-01
  5.2032149e-01
 -1.0938963e-01
 -5.0269660e-02
 -8.6662121e-02
  5.7160252e-01
 -1.9061790e-01
  4.9707907e-01
 -7.9941392e-02
 -2.9335506e-02
 -8.2233779e-02
  3.1534755e-01
  4.8831293e-01
 -1.6728706e-03
 -5.3559724e-02
 -8.1696779e-02
  9.1818580e-03
  4.1583756e-01
 -3.3890191e-01
 -1.7769638e-01
 -3.7685473e-02
  1.3062659e-02
 -7.5905003e-02
 -1.2061709e-02
 -1.6927604e-01
 -3.8317442e-01
  6.2245697e-01
  1.4895979e-02
 -1.0877170e-01
 -2.9340202e-01
  8.6414404e-02
 -4.0427361e-02
  1.1690998e-02
 -4.3561590e-01
 -1.3720597e-01
  6.9504850e-02
  1.1561474e-01
 -1.2348218e-01
  2.5027541e-02
  1.0597012e-01
 -1.5074025e-01
 -2.8317589e-01
  4.4784695e-01
 -7.0261300e-01
  7.0875965e-02
  1.5547480e-01
 -6.5485466e-01
 -2.2893563e-01
  1.1536122e-01
  1.1814576e-01
 -5.4534554e-01
 -2.8178212e-01
  1.4944705e-01
 -1.5193105e-01
 -1.6762078e-01
 -2.9491356e-01
 -3.3398932e-01
  8.3404817e-02
  5.0078875e-01
 -2.1802548e-01
 -2.7483279e-01
  2.4236341e-01
 -6.8301492e-04
  5.9100211e-01
  2.8456552e-02
 -1.1330744e-01
  2.7674016e-01
  3.3728158e-01
  1.5091723e-01
 -6.9737732e-02
 -3.9226070e-01
 -5.6994450e-01
 -1.7711630e-01
 -8.4188372e-02
  7.1416181e-01
  4.4744781e-01
  1.3474959e-01
 -1.5329622e-01
 -2.0695861e-01
  2.8199747e-01
 -6.9986778e-01
 -3.8250452e-01
  1.1397111e-01
 -4.3252075e-01
  6.0766440e-02
 -3.4056526e-02
 -1.5557654e-01
 -7.9824173e-01
 -1.2561119e-01
  5.7966757e-01
  1.2852877e-02
  8.6898154e-01
  5.4782254e-01
  2.9194079e-02
  8.8843256e-03
  4.9177441e-01
 -1.2376065e-01
  3.8506758e-01
  1.0091960e-02
  2.8203255e-01
 -1.9437369e-02
 -2.7754396e-02
  7.5807858e-01
 -4.1057789e-01
  3.4603071e-01
  3.2095122e-01
 -5.7255752e-02
  2.1678548e-01
 -1.2610027e-01
 -4.3093222e-01
  1.3092138e-01
  3.5349584e-01
 -3.3293879e-01
 -4.4361004e-01
 -2.7124918e-01
  1.4482635e-01
 -3.0380484e-01
 -2.6473626e-01
  2.3914023e-01
 -6.9585085e-02
 -1.1778624e-02
 -4.9267974e-01
  2.4012500e-01
  1.4476259e-01
 -2.9298890e-02
 -2.4000436e-02
  2.1896869e-01
 -4.5542407e-01
 -2.3211883e-01
 -5.1021926e-02
 -1.6557595e-01
 -7.8050327e-01
 -3.0950516e-01
  2.6855573e-01
 -3.3165401e-01
  1.6914576e-02
 -1.1011355e-01
  9.2308193e-02
 -1.3750096e-01
  4.0074140e-01
  8.8676339e-01
  2.1855025e-01
  6.3494898e-02
  7.1779943e-01
  5.5419767e-01
 -3.6444202e-01
  2.3761213e-01
 -1.7222282e-01
  3.0247575e-01
  6.5416254e-02
 -7.3537543e-05
 -1.9099890e-01
 -1.0992925e-01
 -1.7173392e-01
 -2.7015141e-01
 -2.1667472e-01
  2.7773595e-01
  1.7168494e-01
 -1.3881317e-01
  1.1815305e-01
  3.8223166e-02
 -5.0620280e-02
 -1.0409370e-01
 -4.4882309e-02
 -5.3703900e-02
  2.0929627e-01
  9.6590079e-02
 -1.4527486e-01
 -1.0436559e+00
 -6.0916007e-02
  1.0367861e-01
  1.6110313e-01
 -7.1771628e-01
 -6.2029058e-01
 -2.5807723e-02
  1.7963732e-02
 -2.6272908e-01
 -2.9879141e-01
  2.0041662e-01
 -2.4734091e-02
 -5.0440329e-01
  3.1497851e-01
  2.9819432e-01
 -1.8486886e-01
  4.9362257e-01
  1.3723871e-02
  2.5605381e-01
 -6.8488806e-02
  7.6454088e-02
 -4.7592029e-01
  4.6007335e-02
  1.7742227e-01
 -1.5458528e+00
 -2.2554892e-01
  2.2595674e-01
 -1.9568133e-01
  9.8630704e-02
  3.4659496e-01
 -3.3580655e-01
 -1.2320413e-01
 -6.1738777e-01
  6.9337118e-01
  3.7649971e-01
 -3.5358615e-02
 -9.1227561e-02
 -2.6501954e-02
 -1.1088718e-01
 -2.9553136e-01
  1.1320489e-01
  5.2310329e-02
 -1.7955759e-01
  5.2178365e-01
  9.3709040e-01
  5.9139270e-02
 -2.6065227e-01
  3.5165590e-01
 -9.3201183e-02
  1.7262707e-02
 -1.5301374e-01
  3.4849250e-01
  3.2652414e-01
 -1.6275965e-02
  1.0651783e-01
 -5.6275818e-02
  4.3997347e-01
  1.4110483e-01
 -1.4278081e-01
  2.6906368e-01
 -3.2304313e-02
 -1.4638206e-01
 -3.1630859e-01
  7.2742468e-01
 -3.1985202e-01
  6.4145611e-03
  2.0240068e-02
  1.8011568e-01
 -5.2572912e-01
 -2.6800700e-02
 -2.4629414e-02
  1.5887365e-01
 -1.7048936e-01
 -1.2090715e-01
 -2.7936463e+00
  1.0969120e-01
  4.7341549e-01
 -6.3150901e-01
 -9.9302314e-02
  1.2752926e-01
  1.6315989e-01
  4.3736675e-01
  3.6451030e-01
 -1.2937157e-01
  1.7102333e-02
 -1.2502767e-01
  1.0590637e-01
 -2.3759329e-01
 -3.2258600e-01
  1.2691975e-01
  2.8739421e-02
  1.1531029e-01
 -3.3392045e-01
  2.4549389e-01
  1.9007497e-01
 -4.7004759e-02
 -5.7793778e-01
 -6.8158485e-02
  6.6066819e-01
  1.0520233e-01
 -9.1351146e-01
 -7.6390043e-02
  9.4057679e-02
 -1.3319540e-01
 -3.7441766e-01
  4.3603312e-02
  5.5158768e-02
  9.2630553e-01
  1.1788344e-01
 -6.7822583e-02
  2.6810035e-01
  4.0617049e-01
 -9.2242762e-02
 -1.9080179e-02
  1.9729909e-01
 -3.7051955e-01
 -9.8129636e-01
  1.9037472e-01
  2.7991810e-01
  3.4759337e-01
 -2.6154529e-02
  1.0154229e-01
 -1.3266735e-01
 -4.5971265e-01
 -2.8701240e-02
  3.8732889e-01
 -1.4660189e-01
  2.5931451e-01
 -1.3946794e-01
  3.9617491e-01
 -9.0756464e-01
 -1.3224564e-01
 -3.0426666e-01
 -3.9069492e-02
  5.0733489e-01
  5.8802438e-01
  1.4392136e-01
 -3.2379776e-01
  9.0169716e-01
  2.5382409e-02
  2.7346817e-01
  2.3372515e-01
 -5.2310067e-01
  2.1865750e-02
 -4.7994796e-02
 -1.0662216e-01
 -5.3062302e-01
  7.7337843e-01
  1.0507106e-01
 -6.5571092e-02
 -1.8443888e-01
 -2.7912000e-01
  4.4923669e-01
  7.8333354e-01
 -1.0249927e-01
  1.7441958e-01
 -1.8570933e-01
  5.0445944e-01
 -1.3847943e-01
  2.9108304e-01
  1.9608736e-01
  1.1672211e-02
  6.7496592e-01
 -2.2112854e-02
  3.2779317e-02
  1.0808453e-01
  1.8097667e-01
  1.3263513e-01
 -5.3815164e-02
  3.8417813e-01
 -1.6210762e-01
  3.3191022e-01
 -1.1272648e-02
  9.1435120e-02
  2.4212545e-01
  4.1530347e-01
  2.4312953e-02
 -2.4916885e-02
  1.4199764e-01
  4.9495143e-01
 -2.2562990e-01
  9.5961727e-02
  2.4265760e-01
 -1.8512762e-01
 -1.6609143e-01
  7.6337002e-02
 -1.0147515e-01
 -3.7592095e-01
  6.7608543e-02
 -5.7887065e-01
  2.2981660e-01
 -2.7185110e-02
  8.7756895e-02
  1.1684397e+00
  1.0441111e+00
 -4.7368252e-01
 -4.1995806e-01
  8.0423003e-01
  1.4486300e+00
  6.8013972e-01
  1.5075396e+00
  1.3272531e-01
 -4.9043748e-01
 -2.4048284e-01
 -2.5350755e-01
  1.3590294e-01
  6.3722543e-03
 -2.0745769e+00
  1.3231456e+00
  2.5614282e-01
  9.7559236e-02
  1.3321006e-01
  2.7266398e-01
 -3.8695458e-01
 -8.3992875e-01
 -1.3089167e+00
  6.7504907e-01
  4.3957606e-01
 -1.4371458e+00
 -1.0136184e+00
 -1.3768105e-01
 -2.1433604e+00
 -5.6702185e-01
 -1.0108614e+00
 -7.5197858e-01
 -1.1077658e+00
  8.7251472e-01
  2.2526434e-01
 -4.1008803e-01
  8.9739628e-02
 -1.6651492e+00
 -6.5808290e-01
 -5.9596276e-01
 -1.6081923e+00
 -3.0565277e-01
 -3.3524910e-01
  2.8244683e-01
 -1.0896602e+00
 -3.3708468e-02
 -1.7742352e+00
 -2.1063383e+00
 -4.6199992e-01
 -8.4863657e-01
 -1.0430335e-01
 -9.3385994e-01
 -3.2044023e-01
 -1.3044997e-01
  2.0119238e-01
 -7.1077627e-01
 -1.9565279e+00
 -1.1000360e+00
 -8.6525440e-01
 -4.3669611e-01
 -2.9734233e-01
 -1.2529703e+00
 -5.7083064e-01
 -5.3132571e-02
 -1.6042817e+00
 -9.9791998e-01
 -2.4771579e-01
  4.2321730e-01
 -2.1349272e-01
  2.6390582e-01
  1.3913828e-01
 -8.6808723e-01
  8.6727089e-01
 -2.0547630e-02
 -9.8451334e-01
  1.6503064e-01
 -4.1750869e-01
  3.3043854e-02
 -8.1517110e-03
 -1.0646465e-01
 -4.8194754e-01
 -3.4014413e-01
 -2.0811170e-01
 -3.2989621e-01
 -2.6808175e-01
  1.5641573e-01
  2.1601979e-01
 -5.5931658e-01
 -4.2103175e-03
  2.3962735e-01
 -1.9472276e-01
  1.3708645e-01
 -2.0355597e-01
  6.9401674e-02
 -7.3062205e-03
 -7.7972688e-02
  1.6720258e-01
 -9.4626293e-02
 -4.4341114e-01
  2.1526494e+00
 -3.5489699e-01
 -1.7115570e+00
  6.9997889e-01
 -3.3963346e-01
  4.2518577e-01
  1.0368245e-01
 -3.8105133e-01
 -7.1310067e-01
 -4.5578304e-01
 -8.9540666e-01
  6.7759611e-02
 -9.7714163e-02
 -4.4285536e-02
 -2.0424482e-01
  5.0440252e-01
 -6.3626939e-01
  6.6117084e-01
 -6.2052019e-02
 -3.0663809e-01
 -1.0616748e-01
  1.5022546e-01
 -2.3741671e-01
  2.0535430e-02
 -7.2984584e-02
 -1.8915604e-01
  1.7112534e-01
 -2.7214170e-01
 -1.3624008e+00
 -8.5028177e-03
 -1.1357229e+00
 -1.5999131e-01
 -1.6587067e+00
 -3.2623994e-01
 -3.1035453e-01
  6.0122736e-02
  3.0712195e-02
 -1.0243891e+00
 -6.5591216e-01
 -1.6962709e-02
 -9.8220237e-02
 -2.4959886e-01
  3.8246755e-02
  1.7271230e-01
 -1.0127801e+00
 -2.4188128e-01
  9.4543286e-02
 -2.4968901e-01
 -5.2327245e-02
 -2.0952584e-01
  1.5964197e-01
  2.8768963e-01
  7.7187940e-02
 -1.6744690e-01
 -1.5749685e-01
  8.6168903e-01
 -1.8750007e-01
  2.5274014e-01
  2.3521379e-01
 -1.8585184e-01
 -3.9167172e-01
  9.0435344e-01
 -3.1197125e-01
  2.6435927e-01
  2.2849971e-01
 -1.8248853e-01
  4.0427655e-01
 -1.6212076e-01
  2.2549994e-01
  1.0123570e-01
 -1.4927077e-01
 -1.0449960e+00
  2.6286185e-01
 -3.5780174e-01
 -7.1396005e-01
 -4.6863679e-02
 -3.4414053e-01
 -2.4442197e-01
  1.5924902e-01
 -1.2432461e+00
 -2.8681237e-01
  8.1403470e-03
 -1.8958673e-02
  3.2355182e+00
 -6.4352036e-02
 -2.0343718e-01
 -7.3029622e-02
 -6.4869255e-01
 -5.3932101e-01
  3.8091210e-01
 -8.1566423e-01
  1.0325824e+00
  1.3855152e-01
  1.1128954e-01
 -1.5077086e-01
 -1.3729341e-01
 -4.5127783e-02
 -3.7427768e-01
 -6.2736607e-01
  3.5042363e-01
 -4.8621554e-02
 -4.1333669e-01
  2.0419785e-01
 -4.2332099e-03
 -3.7733737e-01
  8.5137278e-02
 -3.1584132e-02
  7.5665619e-03
 -2.2668604e-02
  1.8117590e-01
 -1.3093133e-01
  2.6478365e-01
 -4.1372467e-02
  3.1770684e-02
  5.8235782e-01
  1.8899293e-03
  4.4010479e-02
 -1.1051022e-01
  1.9659745e-02
 -6.0322843e-02
  2.7525131e-02
 -1.5321578e-01
 -2.9780608e-01
  1.6672174e-02
 -2.0443018e-01
  4.0744615e-01
  4.3810990e-02
  5.9225783e-02
  1.8370120e-01
  2.8703493e-01
  2.3832680e-01
  2.5125632e-01
  6.8942043e-03
 -6.9252145e-01
  5.7501141e-02
  4.4713709e-01
  3.2407414e-02
 -1.1275198e-01
 -1.5649532e-01
 -9.5347360e-02
 -6.5283269e-02
  1.8355448e-02
 -7.9908240e-01
  7.0967145e-02
  1.4919470e-01
 -3.7390304e-01
 -5.4711286e-02
  3.2741344e-01
  9.3945347e-02
  4.5101726e-01
  3.5312149e-01
 -4.3205509e-01
  3.5176970e-02
  4.7544789e-01
  1.4639352e-01
  1.4804292e-01
  7.4387640e-03
  5.4936402e-02
  4.3642435e-02
 -1.0476875e-01
 -8.4641747e-02
 -2.1308882e-02
  3.7165787e-02
  1.5192741e-01
 -2.8698084e-01
  1.6993278e-01
  5.1059604e-01
 -1.5955904e-01
 -3.3601403e-01
  3.5304767e-01
 -1.5377997e-02
  3.1360421e-02
 -8.6605594e-02
  9.4770074e-02
  8.5953660e-02
 -5.8860917e-02
  3.0164968e-02
  1.2943743e-01
 -5.0109327e-02
 -2.1581183e-01
 -3.0220318e-01
 -1.6259201e-02
 -2.3557431e-01
  3.1596866e-01
  1.8612595e-02
  5.2408630e-01
  2.7083468e-01
  1.7652629e-01
 -9.1175914e-02
 -9.0588078e-02
  2.4722482e-01
  1.5794697e-01
  2.6630569e-01
 -3.0176279e-01
  1.6590799e-01
 -3.0492607e-01
  1.2900881e-01
  7.5424768e-02
  1.2697241e-01
  4.0232846e-01
 -1.0342228e-01
  2.2766617e-01
  2.7214624e-02
 -3.7946182e-01
 -4.5744812e-01
 -2.1139412e-01
 -2.0034386e-01
  4.7772789e-01
 -1.2441524e+00
  4.8630759e-01
 -5.9619313e-01
  2.4176215e-01
 -3.6726746e-01
  1.3601446e+00
 -2.0181550e-01
 -2.4602741e-01
  1.0146263e-01
  1.3864554e-01
  1.0980818e-01
 -2.2006693e-01
  2.0081793e-01
 -1.7897795e-01
 -2.3036017e-01
  1.4734150e-02
  9.5736310e-03
 -1.1902872e-01
 -1.7368352e-01
  8.1622504e-02
  1.7844859e-01
 -5.7929015e-01
 -1.6099188e-01
 -4.2833197e-01
  3.9687654e-01
 -2.8238213e-02
  8.9250445e-02
 -8.5981739e-01
  3.1591028e-01
 -1.1585404e-01
 -7.4839689e-02
  6.7951575e-02
  2.9726587e-02
  1.6826811e-01
  1.5017013e-01
 -4.3950835e-01
  5.8860134e-02
 -5.7874721e-01
 -1.3417764e-01
  3.2738286e-01
 -2.7495930e-02
 -9.0692587e-02
 -2.3183656e-01
  2.0295458e-02
 -1.6151319e-01
  1.5552785e-01
  5.2368373e-01
 -2.7567873e-02
  1.3011752e-01
 -3.6784068e-01
 -8.9814313e-02
 -1.4597021e-01
 -2.4633331e-02
 -3.5175604e-01
  2.0150672e-01
  3.9487038e-02
 -1.5874343e-02
  2.8775957e-01
  3.8690382e-01
 -9.0977944e-02
  2.3060313e-01
  9.4873734e-02
  2.0163183e-01
 -2.1495497e-01
 -3.3833522e-01
  1.1716486e-01
  5.5598778e-01
  5.5555917e-02
  3.6581118e-02
 -3.6429800e-02
  4.3445581e-01
  3.0605989e-02
  2.7036649e-01
 -6.8966341e-01
  3.0034029e-01
  8.6574391e-02
 -1.6138282e-02
 -5.7139266e-01
 -2.4201708e-01
  1.0970405e-01
 -3.6971703e-01
 -2.3896129e-01
 -2.3709327e-01
 -3.4153502e-02
 -4.4830490e-02
 -2.3259376e-01
 -1.9504055e-01
  2.2496316e-01
  9.1223374e-02
  1.7860371e-01
  5.5368673e-02
 -2.4697363e-01
  2.1348131e-01
  6.1080885e-01
 -2.2429734e-01
 -8.9780107e-02
 -1.9736876e-01
  2.0189812e-02
 -2.1260147e-01
 -2.7294958e-01
  1.8065555e-01
  6.4481661e-02
  2.7885308e-02
 -2.7631104e-01
  7.1185939e-02
 -3.5315219e-02
  8.9398578e-02
 -6.5518409e-02
  1.2541850e-01
 -1.4835036e-01
 -2.4741477e-01
 -1.3624251e-01
 -4.9532652e-01
 -8.2220934e-02
  1.6452338e+00
 -3.6675221e-01
 -3.7304953e-01
  3.2997143e-01
  2.2769609e-01
  2.4488317e-02
 -7.4070156e-02
  4.9945828e-01
  4.4290942e-01
  5.5247635e-01
  7.5646251e-02
 -3.0405146e-01
  6.5665430e-01
 -1.5339494e-01
  8.8635813e-03
 -6.6315371e-01
 -8.1251496e-01
 -2.9143074e-01
  3.6449262e-01
  3.5290790e-01
  9.5037723e-01
  6.9805704e-02
  1.9066001e-01
 -2.7932140e-01
  1.4284872e-01
 -4.7038597e-01
  2.4984123e-01
 -2.0631239e-01
  1.2868573e-01
 -1.5336540e-01
  5.6066498e-02
 -1.7297213e-01
 -6.0817204e-02
 -6.4723510e-01
 -1.9508259e-01
 -2.7950141e-01
 -3.4717137e-01
 -1.7731412e-01
  2.9937852e-02
 -5.1088661e-01
 -8.0467087e-01
 -3.0797750e-02
 -3.4104705e-02
  4.2074892e-01
  4.8508221e-01
  1.7954156e-02
 -2.5788429e-01
 -8.9233562e-02
  9.2734590e-02
  5.7636154e-01
  2.1657549e-02
 -3.7564531e-01
 -1.0473669e-01
 -1.4988032e-01
 -1.1782549e-01
  4.2799216e-02
 -3.1557614e-01
  5.1903535e-02
 -1.2630381e-01
  2.0653799e-01
  8.4916435e-02
  1.5531355e-01
  5.5309540e-01
 -1.1877930e-01
 -1.5000601e-01
 -2.8242931e-01
 -1.9219471e-02
 -1.4574659e-01
  1.4317986e-01
  4.0705293e-02
 -1.2612821e-01
  3.2906394e-02
  1.3815852e-01
 -8.7404782e-03
  1.9360198e+00
 -1.9566137e-03
 -8.1094307e-01
 -1.1865686e+00
  2.3042949e-01
 -6.4261037e-01
  1.0531165e-01
 -1.4823378e+00
 -7.3436332e-01
  1.8215512e+00
  3.5300943e-01
 -4.2002681e-01
  7.8708810e-01
  8.3396894e-01
 -4.7785503e-01
 -1.4575678e-01
  3.5512008e-02
 -3.2992455e-01
  2.7625713e-01
  3.2353389e-01
  7.7586728e-01
  5.1409796e-02
  5.3380722e-01
  1.2676626e+00
  3.3330086e-01
  1.6120768e-01
  2.4289267e-01
  1.8044707e+00
  2.6186561e-02
  1.2442539e-01
 -2.7478692e-01
  7.7011055e-01
 -5.4026389e-01
  4.4183251e-01
  8.1298608e-01
  1.1801344e+00
  4.6683171e-01
  7.4607360e-01
 -6.0432170e-02
 -1.6414976e-01
  1.0403615e-01
  6.3725442e-01
  4.1708063e-02
  8.3567524e-01
 -3.6978570e-01
  2.6816291e-01
  9.7319579e-01
 -4.4153103e-01
  1.4261886e-01
  1.1567398e-01
  1.4216961e+00
  4.6465033e-01
  1.7557304e-02
 -6.5004006e-02
  7.6133013e-01
  1.6042265e+00
  5.1270604e-01
 -9.2895450e-03
  2.0323265e-01
 -7.5492668e-03
  4.8165330e-01
  6.5944217e-02
  1.0532639e+00
  3.3899599e-01
 -4.4106837e-02
  7.1670026e-01
  8.2469784e-02
  1.9393943e-02
 -2.5792924e-01
  3.4592399e-01
  9.5463604e-01
  3.3257279e-01
  5.0047714e-01
  9.0290993e-02
  9.4036657e-01
  4.2581107e-02
  1.9473477e-01
 -8.8144675e-02
 -7.3419040e-01
  3.1470636e-01
  1.9012500e-03
  4.1187918e-01
  3.7155691e-01
 -1.1502619e-01
  1.1436239e+00
 -9.1003105e-02
 -1.4986236e-01
  2.3728520e-01
  3.4353936e-01
 -1.5111372e-01
  3.4496510e-01
 -7.6807752e-02
  1.1083251e-01
 -2.3928593e-01
 -1.6684404e-02
 -5.2048934e-01
  9.0767436e-02
  1.1788166e-01
  7.4540806e-01
 -7.0395100e-01
 -3.9533731e-01
 -4.1722320e-02
 -8.3994573e-01
  4.6414707e-02
  1.1063139e+00
  1.6550416e-01
  3.0424173e+00
 -1.0763434e-01
 -3.5295221e-01
 -8.3804853e-02
 -1.6115811e-01
  3.5806495e-01
 -2.6232272e-01
  5.4401688e-02
  1.1595134e-02
 -2.6885903e-01
 -2.1940103e-01
 -2.5102803e-01
  2.2819091e-01
  4.7484371e-01
 -2.9804088e-02
 -4.7392767e-02
  3.7185196e-02
  1.4990181e-02
 -3.5839146e-01
  5.5384940e-01
  5.8768578e-02
 -9.0657035e-03
  1.7711341e-01
  2.6137277e-01
  2.0601971e-01
 -3.6543319e-01
  1.6192527e-01
  1.3919693e-01
  1.8235324e-01
 -2.8648429e-02
  7.1802072e-02
 -3.3960113e-01
  1.1506163e-01
 -1.5720783e-01
 -1.3481458e-01
  1.0755595e-01
  6.6711493e-02
 -4.6704307e-02
  1.4290504e-01
  3.0766165e-01
  8.4904954e-02
  2.6094478e-01
 -2.8528216e-01
  6.6851147e-02
  1.6920443e-01
 -2.9645649e-01
  1.5471022e-01
 -2.8982317e-01
  7.1208894e-02
  1.9534299e-01
  9.7381778e-02
 -1.4998004e-01
 -1.0256253e-01
  1.8369955e-01
 -1.0957918e-01
  3.5350475e-02
  1.9027043e-02
 -2.5796285e-01
 -2.7374247e-01
 -1.6449466e-01
 -4.6495163e-01
 -1.2112581e-01
  2.0202696e-01
 -3.8772088e-01
  1.7162679e-03
 -4.3998131e-01
  6.7461208e-02
  2.7238068e-01
 -4.8394480e-01
 -2.7515959e-02
 -1.6278854e-01
  2.5971267e-01
  1.5347853e-01
 -2.9519998e-02
 -2.2554380e-01
 -2.1876256e-01
 -3.7890963e-02
  3.9738423e-01
  1.4850441e-02
  2.9991493e-02
 -4.5700106e-01
 -2.6671717e-01
  3.4094259e-01
 -2.3067078e-02
  9.9779665e-02
 -3.9743829e-01
  1.3575052e-01
  2.7103913e-01
  1.3854325e-01
  4.6207440e-01
 -3.2111425e-02
 -4.7068637e-02
 -2.4301779e-01
  2.1768855e-01
  7.0414901e-01
 -1.2391210e-01
  4.7315549e-02
 -6.1137085e-03
  3.8130441e-01
 -2.1797698e-02
  4.6816963e-01
 -3.1814858e-01
  1.2698713e-01
 -8.9727528e-02
  6.5687436e-01
  2.0220404e-02
  1.8287686e-01
 -3.7692942e-02
 -4.2280015e-02
  4.1207081e-01
  1.4195688e-01
 -1.8270496e-01
  3.2536316e-01
 -4.4579729e-01
  1.4076212e-01
  2.6716200e-01
  1.0606182e-01
  8.6550526e-02
 -4.6224216e-01
  3.0575165e-01
  4.8657301e-01
  3.8606212e-02
  1.8582147e-01
 -2.7978987e-02
 -6.5546840e-01
  2.6196840e-01
  9.3598783e-02
 -1.5983838e-01
  5.4395330e-01
  9.2549019e-02
  3.4606595e-02
  8.2031089e-01
  8.8212237e-02
 -2.8822446e-01
  1.7602691e-01
  8.7090939e-02
 -2.8445512e-01
  4.0741734e-02
  2.9931568e-02
  2.0234153e-01
  3.1220693e-02
  1.0637871e+00
  4.6681398e-01
  3.3516787e-02
 -5.1333117e-01
 -9.5724143e-02
  7.8281805e-02
 -3.5696959e-01
 -3.0750564e-01
 -1.3388936e-01
 -4.4140674e-02
  1.2609477e-01
 -8.6524302e-01
  2.9237148e-01
  3.0334607e-01
  1.1911536e-01
 -2.5274250e-01
  3.8305871e-02
 -1.9512112e-01
  2.9284605e-01
  5.5784720e-01
  1.9637145e-02
  4.1650902e-02
  1.2263068e-01
 -5.3446919e-01
  1.9553199e-01
  5.3619482e-02
 -2.8988917e-03
 -1.0686316e-01
  2.3370196e-01
 -4.5247319e-01
  1.9737075e-03
  7.0230640e-02
  3.7661555e-01
  2.1315178e-01
  3.0097750e-01
  9.4549879e-02
  2.6223330e-02
  2.7308294e-01
 -2.5412625e-01
  6.8107359e-02
 -3.1995091e-01
  3.1818730e-01
  5.8990908e-01
  3.9570954e-01
  1.6676340e-02
  1.4644241e-01
  2.8055623e-01
  1.3303764e-01
 -7.4886489e-01
  6.9220684e-02
  9.7297674e-01
  6.3173011e-02
  3.9399296e-02
 -5.4587867e-02
 -1.7267050e-01
 -2.8480945e-02
  5.3550667e-01
 -1.2172434e-01
  1.2037443e-01
  5.3875215e-02
 -2.6454622e-01
  3.9654910e-03
 -1.7253093e-01
  4.6502218e-01
 -6.7066622e-01
  1.5722346e-01
  6.4965717e-02
  1.8116334e-01
  8.2202805e-03
 -2.3456614e-01
 -8.0503017e-02
 -9.8824054e-02
  5.5692412e-02
 -2.1066095e-01
 -3.3953905e-01
 -3.1452453e-01
 -2.0588979e-01
 -3.9571771e-01
 -1.3616018e-01
 -4.9188834e-01
 -1.5244105e-01
  2.7557908e-02
 -2.2183787e-02
  1.6114645e-01
  3.1846693e-01
 -3.0246291e-02
  1.9242786e-01
  1.6008686e-01
  3.0024936e-03
 -1.2254015e-01
 -8.4158945e-01
  1.0045483e-01
  1.9498833e-01
 -4.9921200e-01
 -8.8622403e-01
  8.2839102e-01
 -1.6040780e-01
 -1.4951164e-01
  2.7571243e-01
 -1.7401434e-01
  1.3548757e-01
  1.5102662e-01
 -1.3373007e-01
  1.9571168e-02
  3.1059772e-01
 -6.2960662e-02
 -3.1596041e-01
  2.4711683e-02
  1.4146371e-01
  6.5568203e-01
 -3.8476903e-02
  1.4337717e-01
  2.7534536e-01
 -1.1824580e-01
 -4.9453944e-01
  7.4454635e-02
  3.0132273e-01
  1.4002413e-02
  2.9908159e-01
 -8.6559570e-01
 -1.7474680e-01
  7.9893011e-01
 -1.2401056e-01
 -3.9189243e-01
 -6.0851562e-01
  4.1083068e-01
  2.3215474e-01
 -4.0163186e-01
 -1.2553394e-01
 -6.2698275e-03
  2.6267105e-01
 -1.4582737e-01
  3.9269647e-01
 -1.3482216e-01
  2.2215083e-02
  2.4390057e-02
 -1.1384355e-01
 -8.4773190e-02
 -4.9318755e-01
  1.9448912e-01
 -8.5054743e-01
 -4.6692529e-01
  1.9997635e-01
  8.0249405e-01
 -5.9758842e-02
  2.8432649e-02
 -2.3411156e-01
  3.8267795e-02
  4.8844509e-02
 -2.0108340e-02
 -4.6522621e-02
  3.0496236e-02
 -2.5019270e-01
 -1.6743809e+00
  1.2825532e-01
  8.8182753e-03
  2.4948308e-01
  6.4097345e-02
 -1.7636977e-02
  1.8362699e-01
 -1.8330294e-01
  4.0267909e-01
  3.1235622e-02
  8.6175102e-01
  4.4489208e-01
  1.3949972e-01
 -1.3769519e-01
 -2.3927349e-01
 -2.0390935e-01
 -3.7002500e-02
 -4.6482304e-01
  6.0343993e-01
 -1.0055736e-01
  7.2352156e-02
 -1.3318215e-01
  6.2095660e-01
  9.9519241e-01
  1.6854472e-01
  8.7232876e-01
 -3.9251391e-02
  1.8067618e-01
  6.5931982e-01
 -2.7576509e-01
  2.1863073e-02
 -1.3852867e-01
  3.6946055e-01
 -1.1767685e-01
 -2.7565628e-01
 -3.2533431e-01
 -2.6956993e-01
 -1.4918856e-01
 -4.5786664e-02
 -1.0745916e-01
  7.7378809e-02
  1.8917738e-02
 -4.1793875e-02
 -2.2487482e-02
  1.5818830e-01
  1.9112024e-02
  1.7651802e-01
 -2.9826301e-01
 -1.0144432e-01
  1.9374239e-01
  2.4533302e-01
 -7.6460427e-01
  9.6592419e-02
 -3.1128168e-01
 -1.9006291e-01
 -1.9085641e-01
  2.4540275e-01
 -7.7469803e-02
  8.9149612e-01
 -6.7857943e-02
  8.3453014e-02
  2.0472917e-01
 -1.8220767e-01
  1.5818314e-01
 -3.3969879e-01
 -2.2646381e-01
  2.5021264e-01
 -2.4449910e-01
 -4.2772796e-03
  5.9087139e-01
  2.6020741e-01
 -1.5638493e-01
 -5.7175193e-02
 -4.3398133e-01
 -5.5429614e-01
 -1.8846712e-01
  3.3536077e-02
  3.7813553e-01
 -1.9977994e-01
  3.5482424e-01
  5.4071456e-02
  4.9643406e-01
  4.4453207e-02
  3.7795834e-02
 -2.6096735e-02
 -7.8943783e-01
  1.1794589e+00
  2.1965931e-01
 -1.5711237e-01
 -2.5573725e-02
  2.5329334e-01
  1.5266256e-01
  1.7983717e-01
 -2.8695464e-01
 -3.0618009e-01
 -2.9985371e-01
 -4.3628875e-02
 -5.7879750e-02
 -4.3295324e-01
 -2.6935640e-01
  2.2083582e-01
  1.8427692e-01
  1.6089328e-01
 -2.5105190e-01
  3.9258953e-02
 -2.5636744e-01
 -3.8382329e-02
  1.3887218e-01
 -4.0015060e-02
  1.9574022e-01
 -2.6283920e-02
  6.7482470e-03
 -4.5771512e-01
 -1.5516848e-02
  1.0746849e-01
  2.2040671e-02
  9.2250906e-04
 -1.3672988e-01
  1.2811239e-02
 -8.1454463e-02
 -2.0968052e-02
  6.0617797e-02
 -1.6039807e-01
  1.0993679e-01
 -9.6387488e-01
 -3.4965667e-01
 -8.2282342e-02
  4.4180948e-01
  2.5158706e-01
  1.5250641e-01
 -1.0094898e-01
 -3.0464935e-01
  1.0799252e-01
 -9.6780688e-02
 -2.9692143e-02
  2.3638292e-01
 -3.6963371e-03
 -1.8176745e-01
 -3.8897219e-01
  4.6091806e-02
  7.6657243e-02
 -1.0180245e-01
 -1.4387156e-01
  2.7040610e-02
 -5.0099683e-01
  3.5449588e-01
  2.3363253e-01
  4.3216504e-02
  3.3962962e-01
  1.0427532e-02
 -7.1005046e-02
 -2.9371804e-01
  5.4221556e-02
  8.9994157e-03
 -8.3859181e-03
 -3.1639361e-01
 -2.8928894e-01
  3.6725587e-01
  1.7653203e-01
  5.3362656e-01
  6.6175383e-01
  2.2064424e-01
 -3.7633878e-01
 -5.1351690e-01
  3.9819616e-01
  1.6318621e-01
  4.5009289e-02
  1.2257003e-02
 -4.3788627e-02
  2.5567293e-01
  7.5866744e-02
 -7.4424028e-01
  1.9727641e-01
 -4.2034689e-01
  2.3750458e-02
  6.0603041e-02
  3.9395973e-01
 -3.1406814e-01
 -5.2716665e-02
 -2.0278309e-01
  2.0408957e-01
 -5.7640973e-02
 -1.5145023e-01
 -1.3000843e-01
  9.8546363e-02
 -2.0167489e-01
 -1.6758661e-01
 -2.2264050e-01
 -4.3494627e-02
 -1.5942058e-01
  3.7375718e-01
 -2.5664857e-01
 -2.6453704e-01
  2.4197744e-01
 -2.8041840e-01
  1.9346793e-01
  3.0161886e-02
 -1.2580004e-01
 -1.2043191e-01
  4.2440557e-01
  1.5704203e-01
  7.5570218e-02
 -5.0550174e-02
  3.3480352e-01
  2.8546801e-01
 -1.4985963e+00
  1.0720066e-01
 -2.9386541e-01
 -2.4389545e-02
  6.0069043e-02
  1.7984220e+00
 -1.6476198e-01
 -2.4235833e+00
  9.7217387e-01
  4.8688829e-02
  2.8725579e-02
 -1.2029235e-02
 -5.6652338e-03
 -5.9361182e-02
 -2.9623455e-01
 -1.7491700e-01
  1.9023780e-02
 -5.5766058e-01
  3.4567392e-01
  4.3560994e-01
 -4.3704301e-01
  1.3077436e-01
  4.0103707e-01
  3.9145553e-01
  4.0018252e-01
  3.6970875e-01
  3.0126068e-01
  7.1319306e-01
 -2.7912956e-01
 -3.1305632e-01
 -3.2892552e-01
  2.8631261e-01
 -4.9862379e-01
  1.5625518e-02
  5.5521506e-01
  8.5596383e-01
 -2.8375583e-02
  2.0351027e-01
 -2.4546510e-01
  1.2975998e-01
  1.3873513e-01
 -9.7805537e-02
  2.6197273e-01
 -8.2044458e-01
 -3.3449046e-02
  1.1885541e-02
 -3.0146402e-01
 -9.5319450e-02
 -1.8332098e-02
  1.6952944e-01
  1.2952625e+00
  5.3468272e-02
  2.0387014e-03
 -2.5560606e-01
 -9.4191766e-01
  2.3554459e-02
  1.4498445e-01
  2.5766435e-01
  2.9534644e-01
 -5.8236504e-01
 -6.6637985e-02
  1.8403277e-01
  3.6315262e-02
 -3.3146298e-01
 -3.0067774e-02
 -1.7966329e-01
  3.0877730e-02
 -3.6025295e-01
 -1.5840581e-01
 -8.0579132e-01
  2.2910487e-02
  8.3303608e-02
  4.0822502e-02
  3.0446535e-01
 -8.8139899e-02
  8.3374105e-02
  2.8704122e-01
  2.2202572e-01
  2.9895917e-01
 -9.4591594e-01
 -4.8011243e-01
 -5.2546434e-02
  2.4316192e-01
 -9.6372090e-02
 -8.7501846e-02
  6.1848289e-01
  1.0953610e-01
  5.8021788e-02
 -2.8547496e-01
  1.0434548e-01
 -3.7909079e-01
 -2.0697987e-01
  1.1112597e-01
 -5.5951989e-01
  2.2465225e-02
  1.5860343e-01
  6.9114040e-03
 -7.1087345e-02
 -3.5586563e-01
  2.5309631e-01
 -3.3615288e-01
  1.6210526e-01
  8.3045602e-02
  8.1660479e-02
  4.5054839e-03
  3.6440745e-01
  2.4513313e-01
  2.3729217e-01
 -1.4106232e-01
  3.3665088e-01
  2.3000030e-01
 -2.8650137e-02
 -2.0594843e-01
  6.1436746e-02
 -1.1183278e-01
  3.1013730e-01
  2.8059432e-01
  6.6476542e-01
  2.9736823e-01
 -1.3807939e-02
 -3.1025349e-03
 -7.1866882e-01
  1.0948534e-01
  2.1352943e-02
 -4.5032912e-01
 -4.0571693e-01
 -2.1545215e-01
 -1.6347390e-01
 -2.7848893e-01
 -1.6607188e-01
 -2.3558645e-01
  2.2421038e-01
 -1.2788941e-02
  3.9304918e-01
  9.6725479e-02
 -1.7068690e+00
  2.0681383e-01
 -3.5620421e-02
 -4.4044289e-01
  3.4799880e-01
 -1.4392930e-01
  1.2800448e+00
 -1.8373120e-01
  1.6566487e-01
 -1.3401411e-01
 -1.5988335e-01
 -1.6684738e-01
  5.3436339e-01
 -3.3336552e-03
  6.9842361e-02
 -8.5244119e-02
 -2.3104277e-01
  7.2678551e-02
 -1.0434926e-01
  7.6243228e-01
  4.5311809e-02
 -7.6171458e-02
  2.2305803e-01
  2.1981578e-01
 -5.9291553e-02
  3.5614699e-01
 -2.5816399e-01
  4.3880907e-01
  4.2738420e-01
  1.5326053e-02
  1.1179318e-01
 -2.2778617e-01
 -1.2307100e-02
 -8.6937554e-02
 -2.1563286e-01
  1.8429023e-01
  1.2997808e-01
 -3.8523141e-02
  1.7974116e-01
  5.0096846e-01
 -2.2802790e-01
 -1.2106637e-01
  9.7853713e-02
  5.2250224e-01
 -2.0783976e-01
 -1.0848936e+00
  4.1621167e-02
 -1.1223432e-01
 -3.4463063e-01
  2.5575873e-01
  9.5666394e-02
  3.0667394e-01
 -4.0133202e-01
 -3.5924307e-01
  5.6291020e-01
 -9.7352341e-02
 -3.8107585e-02
  3.8205732e-02
  7.8219429e-02
 -4.4891918e-01
 -5.1094782e-01
 -7.5523064e-02
 -3.9768893e-01
  3.6554165e-02
  2.5027472e-01
  7.0224077e-02
  3.4841797e-01
 -6.8851210e-02
 -8.1354417e-02
 -2.0731176e-01
 -4.2121974e-01
  4.1914469e-01
 -9.9505240e-01
  2.0883957e-01
 -2.1190736e-02
 -2.0113678e-01
  1.2567654e-01
 -2.7262601e-01
 -3.9821127e-01
  8.8358521e-02
 -1.0675698e-01
 -3.6000410e-01
  1.4000200e-01
  1.8569939e-01
 -8.7426409e-02
  1.0249045e-01
 -2.3691516e-01
 -2.7762249e-01
 -3.4398890e-01
  3.8631532e-01
 -2.1492691e-01
  1.3465331e-01
  1.8899742e-01
  3.3243524e-03
 -2.8680736e-01
  3.1757188e-01
 -2.0201491e-01
  4.6279687e-01
 -1.2465504e-01
  2.4430449e-01
  3.2932186e-01
 -9.7985700e-02
  1.3896453e-01
  2.7814960e-02
 -5.8857970e-02
  3.3106574e-01
  1.1230658e-01
  6.0262103e-02
 -1.0382802e-01
 -1.6382851e-01
 -1.6111483e-01
 -1.5691444e-01
 -2.9612434e-01
  3.9825556e-01
  8.0674641e-02
 -1.4718368e+00
  4.3499783e-02
  2.9717071e-02
 -3.3503700e-02
  1.9192810e-01
  2.9115605e-01
 -1.4976597e-01
  1.9301587e-01
 -1.4619002e-01
  5.8458084e-01
  2.9213154e-01
 -1.8789358e-01
 -8.3194517e-02
 -1.4068870e-01
  1.6839217e-01
  4.6632776e-01
  2.1309173e-01
 -5.6546116e-01
 -3.2826237e-02
  4.1205755e-01
 -4.1657510e-01
 -7.2977148e-02
 -3.1349763e-01
 -2.1276493e-01
  3.7101784e-01
 -3.5336941e-01
 -2.9532915e-01
  6.0568597e-02
 -1.7483192e-02
 -7.6616332e-02
  1.3902229e-01
  3.3351339e-02
  2.1270232e-01
 -3.1804171e-01
 -4.0025705e-01
 -8.1450170e-01
  1.8003239e-01
  6.9024974e-01
  4.4018447e-01
 -6.9066778e-02
  2.7148643e-01
 -3.9169994e-01
 -6.7840296e-01
  7.0952588e-01
 -7.3664320e-01
  7.8305894e-01
  2.8895316e-01
  1.0295279e+00
 -1.3818908e-01
 -1.0398169e-01
 -2.3051504e-02
  2.7629536e-01
  5.5896547e-03
 -2.5310355e-01
 -1.8964189e-01
  3.3764711e-01
 -4.6539986e-01
  1.5163919e+00
  6.3921589e-01
  5.7150427e-02
 -9.9087795e-03
 -3.6534381e-01
 -3.3011585e-01
  2.5248599e-01
 -1.3180757e-01
  2.6381686e-01
  4.6308276e-01
  1.0896266e-01
 -6.5920788e-01
  5.8614761e-02
 -1.1261661e-01
  1.4985444e-01
 -2.0565440e-01
 -8.6295575e-01
 -1.3804346e-01
  1.3927022e-01
 -1.4123340e-01
  3.3732336e-02
  5.0573517e-02
  7.0055085e-04
  1.3157973e-01
 -5.9500750e-02
 -4.5208678e-02
 -2.3782744e-01
 -1.1526246e-01
  9.2655703e-02
 -2.0268850e-01
 -3.2146260e-01
  2.4943098e-01
  3.9743170e-01
  4.2067665e-01
 -7.0530638e-02
  3.4599338e-02
  2.0156402e-02
  6.1711103e-01
 -1.7585879e-03
 -1.4622040e-01
  6.7291439e-02
  4.7974225e-02
  6.4106070e-02
  1.2347738e-01
  5.8632921e-02
  2.2613998e-01
  2.6432618e-01
 -8.7925732e-02
  2.1890232e-01
 -6.6469915e-02
  1.7800449e-01
 -1.8274288e-01
 -7.5443447e-02
 -2.0285644e-01
 -1.2721619e-01
  4.4870442e-01
  2.9446992e-01
  4.0383607e-01
  4.3434907e-02
  6.7657089e-01
 -4.7692038e-02
 -7.8732990e-02
 -6.4493835e-02
 -1.2251407e-01
 -1.4502673e+00
  2.6072800e-01
  1.6560251e-01
  6.4050013e-01
  6.0151136e-01
  1.8395638e-01
 -4.4687468e-01
 -1.2773056e-01
  9.7157814e-02
 -4.7073841e-01
 -6.2337670e-02
  7.1732150e-03
  9.7304657e-02
  2.4950267e-01
  4.3674830e-01
  1.5396690e-01
  1.0279274e-01
 -1.2878947e-01
  2.6020345e-01
 -1.5144104e+00
  3.2190591e-01
 -1.4175482e-01
  6.8897128e-01
  1.9493672e-01
  1.5701880e-01
  1.7870988e-01
  1.9251677e-01
  3.5039004e-02
 -4.1970447e-02
 -7.9381937e-01
  2.7063027e-01
  1.2510192e+00
 -2.4647854e-01
  1.2901920e-01
  4.8218575e-01
  1.7296983e-01
  3.0686048e-01
  6.0502028e-01
  1.8440457e-01
 -2.7312261e-01
 -2.5163269e-02
  2.9613915e-01
  3.9166364e-01
 -1.1237759e-01
 -1.5812199e-01
  5.4791731e-01
 -3.3569567e-02
 -1.3599182e-02
 -8.8449553e-02
  4.8248941e-01
  2.9301479e-01
  5.3563613e-01
  3.7774760e-01
  4.6998918e-01
  3.5873798e-01
  1.4983617e-01
  3.0136088e-01
  2.3582239e-01
  4.0241238e-01
 -1.9622135e-01
  7.0988691e-01
  1.1550199e-01
  1.4376034e-01
 -1.6209463e-02
  2.6592010e-01
 -1.2167349e-01
  5.2763843e-03
  3.3594409e-01
 -7.1814090e-02
  3.3274382e-01
  1.1763181e-01
 -1.1127005e-01
  1.0732689e-01
  2.0145607e-01
  4.9391142e-01
 -4.1320533e-01
  7.5226493e-02
  4.4517528e-02
 -7.9221226e-02
 -5.1879056e-02
  4.7623387e-01
  1.0597744e-01
  1.1750435e-01
  3.0594426e-01
  3.0066280e-02
 -2.2026689e-01
  3.4956342e-01
 -3.0943789e-02
  2.2771327e-01
  5.3172354e-02
  1.2574834e-01
  3.0340961e-01
 -3.2921550e-01
 -1.2263194e-01
 -7.2802104e-02
 -6.7515418e-02
 -3.5162017e-01
 -3.2070869e-01
  2.9587981e-01
 -9.7844660e-02
  1.5873031e-01
 -1.4653397e-01
  3.2121012e-01
 -2.9008159e-01
  1.9179173e-01
 -4.1739872e-01
  3.9808527e-02
  2.3126082e-02
 -1.7330998e-01
  2.3948601e-01
  5.3253824e-01
 -6.9743741e-01
  6.5845937e-01
  4.7144422e-01
  3.4968868e-01
 -3.1025067e-01
 -4.3821701e-01
 -2.4276343e-01
  1.3419536e-01
 -9.1214532e-01
  1.6992144e-01
  2.5879633e-01
  1.2133019e-01
 -3.6818665e-01
 -1.3518485e-01
 -6.1431265e-01
 -4.3127826e-01
 -7.7071935e-02
  7.2884254e-02
 -7.9229161e-02
  3.6054257e-01
 -5.7119805e-01
 -1.3251366e-01
 -1.9509234e-01
  1.0314939e-01
  4.7440976e-01
  1.5934248e-01
 -8.5230153e-03
  5.2544270e-03
 -2.0022398e-01
  6.9421887e-01
  1.0638074e-03
  1.0834713e+00
 -7.5687401e-02
 -4.7927326e-01
  6.2896021e-02
  3.8894736e-03
 -2.3437071e-01
 -3.4358639e-01
 -4.0891685e-02
  1.9068407e-01
  2.4216188e-01
 -3.4659842e-01
  4.4664938e-02
  1.3647273e-01
 -1.0115391e-01
  2.6967460e-01
  2.6280358e-01
 -2.3665033e-01
 -3.0763182e-01
 -4.1672531e-01
 -2.0899991e-02
  1.3572089e-01
 -1.8874465e-01
 -1.5964800e-01
 -1.0081158e-02
  5.2551353e-01
 -3.1888551e-01
 -1.3458140e-01
 -3.8256502e-01
  5.1756424e-01
 -1.6966490e-01
  1.0830575e-02
 -1.7510593e-01
  2.1909299e-01
 -3.3052564e-01
  1.5991804e-01
 -2.7513722e-01
  4.4799753e-02
 -4.2591192e-02
  9.6076377e-02
  4.5779210e-01
  5.9475531e-03
 -3.5119665e-01
 -4.8580285e-02
  6.3581645e-02
 -4.2061508e-02
 -8.2333840e-02
 -2.8945176e-02
  1.8500229e-02
 -3.7259489e-01
 -2.0130041e-01
  2.5565956e-02
  2.8993607e-01
  2.7401239e-01
 -3.6458019e-02
 -4.3119007e-01
 -2.1964383e-01
 -4.0942490e-02
  1.0171317e-01
  2.2623751e-01
 -6.3284314e-01
 -2.9776219e-01
  7.5032964e-02
  1.3400049e-02
  4.4321814e-03
 -1.6594583e+00
  7.1281612e-02
 -2.5878417e-01
  9.8514348e-02
 -7.8228340e-02
  1.7610699e-01
 -7.7606402e-02
 -9.1871274e-01
  5.4793257e-02
  1.1043576e-01
 -2.5351149e-01
  1.0378508e-01
 -2.1693511e-02
 -2.4078276e-03
 -1.9643851e-01
 -5.8049116e-02
  1.3433659e-01
 -6.2334234e-01
  1.9202383e+00
 -2.2355251e-01
 -1.4967911e+00
  6.0004610e-01
  1.6263302e-01
 -2.4457730e-01
 -1.2355192e-01
 -1.0318715e-01
 -1.8816742e-01
 -2.4844961e-01
 -1.3378535e-01
 -2.4503534e-01
 -1.1234006e-01
 -1.7932728e-01
  4.1636364e-03
 -1.9032955e-01
  2.5843015e-01
 -7.5865880e-02
 -1.1799204e-01
 -1.6734292e-01
  9.9250263e-01
  3.9570108e-01
 -6.0465746e-03
 -1.1740912e-01
  2.5437734e+00
 -6.6514111e-01
  1.1146267e-01
  1.4254900e-02
 -1.6278090e-01
  8.0333523e-02
  6.7035742e-02
  2.4570182e-01
  6.2466860e-01
 -4.4891134e-01
  2.4097364e-02
 -6.9655128e-02
  2.0283337e-01
  1.4516166e-01
  2.6459625e-01
  4.1805625e-02
  2.9811457e-01
  4.8607558e-01
 -5.2333516e-01
 -1.5991321e-01
  1.6030203e-01
  2.5207368e-01
  6.8916292e-03
 -3.1053224e-01
  1.2053893e-01
 -5.0753325e-01
 -1.5340953e-01
  2.9750618e-01
  2.9210952e-01
 -1.7663679e-01
  4.4391477e-01
  3.3001173e-01
  1.3273329e-02
  1.4217849e-01
  4.0055668e-01
  8.0440223e-02
  7.4023895e-02
  1.3339154e-01
 -1.9027860e+00
 -7.5925656e-02
  7.8976405e-01
 -4.1202906e-01
  1.4752347e-02
  5.1633453e-01
 -2.6398340e-01
  3.5554200e-01
 -1.7466733e+00
 -2.0773222e-01
 -4.1996680e-02
 -2.0329626e-01
 -4.1437504e-01
 -9.8708384e-03
 -8.4671623e-01
  2.2698872e-01
 -3.7238994e-01
  8.3092034e-02
  1.7228259e-01
 -1.1866832e-01
 -1.7723630e-01
 -3.2862377e-01
  1.0642458e-01
  2.6873988e-01
  1.5537444e-01
  4.3671854e-02
  5.0435685e-02
 -1.5667076e-01
 -4.2240065e-01
 -6.1055604e-02
 -3.7046427e-01
 -1.2830058e-01
  1.0605092e-01
 -6.9195640e-01
  1.4621352e-01
  4.6292458e-02
  2.3766497e-01
  4.2241794e-01
 -1.3441370e-01
  5.2293032e-01
  2.9534760e-01
  9.9132769e-02
  9.9123791e-02
 -5.8089700e-02
 -3.3320057e-01
  1.0295270e-01
  4.4464251e-01
 -3.0191439e-01
 -3.5731424e-02
  4.0655419e-01
 -2.7230972e-01
  1.8547678e-01
 -2.1841261e-01
  9.6625477e-02
 -4.3387055e-02
  2.1384971e-01
 -7.1336377e-01
  2.1783295e-01
  4.0583178e-01
  6.6631157e-03
  5.6647307e-01
 -2.5535873e-01
 -4.1027418e-01
 -3.2550195e-01
 -6.4394525e-03
 -5.8012512e-02
  2.6285095e-02
  7.9513984e-03
  6.8064046e-01
  5.7199728e-02
  8.9339279e-02
  2.1189173e-01
  3.9232913e-01
  4.8906800e-01
 -3.3364291e-03
  3.8954479e-01
  1.2155741e-01
  6.2527561e-01
 -1.3652122e-01
 -2.6177466e-01
 -3.2243285e-02
  2.4794613e-01
 -5.9223264e-02
  9.5849345e-03
  2.7514473e-01
  2.0602195e-02
 -2.8461980e-02
 -3.8090877e-02
 -6.3248403e-02
  4.3020111e-02
  2.9731086e-01
 -3.5939112e-01
  6.1584204e-02
 -3.5221672e-01
 -8.9793757e-02
 -1.1246963e-03
 -1.4845006e-01
 -1.5038712e-01
 -4.2300772e-02
 -7.5791933e-02
 -2.1511367e-01
  8.8504910e-02
  1.5567492e-01
 -7.3311591e-01
  4.1929013e-01
  3.2906237e-01
  7.7227645e-02
  2.1016519e-01
  5.7236844e-01
  1.4021770e-02
  2.0790824e-01
 -9.7680867e-02
  1.7495854e-01
  7.6351964e-01
  3.2415473e-01
 -2.0721401e-01
 -1.4066686e-01
  5.4385524e-02
  2.3576927e-01
 -8.4070479e-03
 -3.2999161e-01
 -4.7283396e-01
  3.9144677e-01
 -1.0704675e+00
 -1.4936183e-01
 -3.9193891e-03
  2.3388050e-01
  4.5083530e-02
  9.7976938e-02
  5.4880083e-01
 -6.7561436e-01
 -4.6723700e-01
  2.3208652e-01
 -2.7421203e-01
 -1.2494609e-01
 -2.0627530e-01
  3.5619277e-01
 -5.5319257e-02
  1.8957499e-01
 -2.5592864e-01
 -2.6176006e-01
  3.5455903e-01
  2.8121120e-01
 -3.9510196e-01
 -2.1919474e-01
 -1.2680835e-01
  1.8807010e-01
 -1.2046962e-01
 -8.2773161e-01
 -6.1240777e-02
 -4.9588925e-01
 -2.8259850e-01
 -1.4173165e-01
  1.1762442e-01
  9.5538601e-02
  6.2601365e-02
  1.8262921e-01
  2.0712295e-01
 -2.7903605e-02
  1.1021689e-01
  4.7774738e-01
  1.5772104e-01
 -1.9597645e-01
  2.1740275e-03
  1.6619189e-01
 -8.5614793e-02
  1.5037713e-02
  3.8679370e-01
  2.8661530e-02
  5.3285408e-01
  8.5231251e-01
 -2.5818864e-01
 -1.3620292e-01
 -9.0277195e-02
 -1.7739946e-02
 -8.5193986e-01
 -1.1500400e-01
 -2.7119261e-01
 -4.6049482e-01
 -1.1719524e-01
 -7.0740439e-02
  1.3852413e-01
 -3.5223933e-03
 -6.4087385e-01
  1.9474851e-01
  3.0094105e-01
 -8.1611462e-02
 -4.8511931e-01
 -2.0696034e-01
  1.9479601e-01
 -1.3428111e-01
  9.0379380e-02
 -2.8399563e-01
 -1.8419139e-02
  1.2945076e-02
 -5.4974788e-01
 -3.2533661e-01
  2.1358767e-01
  2.6152793e-01
  3.2647625e-01
  2.0449942e-01
  7.0205934e-02
  2.7604836e-01
 -4.1473262e-02
 -7.4597403e-02
 -2.4659972e-01
  3.1896196e-02
  2.2537398e-01
 -4.4901814e-02
 -3.5249060e-03
  1.3299905e-01
  2.7804616e-01
  8.2830602e-01
 -1.0898282e-01
 -1.4354050e+00
 -1.9696918e-01
  1.2605831e-01
  7.1278475e-02
 -8.7015547e-02
 -3.5960394e-01
  6.8603373e-01
  4.3659189e-01
  8.9484133e-02
  1.1322854e-01
 -1.4057940e-01
  3.2116222e-01
 -1.5547410e-01
  2.2371289e-01
 -1.8273027e-01
 -9.5219964e-01
 -3.6848301e-01
 -2.5761336e-01
 -1.4536358e-01
  2.4257979e-01
 -2.1508407e-02
  1.3225250e-01
  6.3900822e-01
  1.6786676e-02
 -3.6083687e-02
 -3.0695698e-01
  3.5477076e-02
 -4.2345202e-01
  1.1196323e-01
 -1.5634415e-01
  2.2087269e-01
 -9.1386363e-03
  5.8163524e-01
 -9.9437080e-02
 -4.5142895e-01
  9.5378840e-01
  6.2776536e-02
 -1.6847923e-01
  9.6352687e-03
 -1.0119367e-01
  3.5097003e-01
 -3.9996121e-02
  1.8046825e-01
  1.5790230e-01
 -2.3140702e-01
 -4.5611626e-01
  5.7765856e-02
  3.4530863e-01
  1.1371112e+00
  1.6017954e-01
  1.8371996e-02
 -3.8162875e-01
 -3.5723242e-01
 -1.7868636e-02
  8.2968779e-02
 -1.0778144e-02
 -4.1938940e-01
  1.9712804e-01
 -4.3695915e-01
  1.6145369e-01
 -7.0875220e-02
 -1.5357132e-01
 -4.4920310e-01
  3.6832195e-02
  5.6237251e-01
 -4.5529176e-02
 -2.0990646e-01
  1.2341375e-02
 -1.0514347e-01
  2.5710019e-01
  3.5830292e-01
  1.4909081e-01
  1.9444136e-01
 -7.0526592e-02
  7.9999767e-02
  5.4177970e-01
 -2.6549684e-02
 -1.5852126e-01
  3.1209514e-01
 -1.2451570e+00
  7.5294381e-01
 -3.9576286e-01
 -3.3638474e-02
  2.9772909e-03
 -2.2194237e-01
  2.8219348e-01
 -5.5376529e-03
  6.0841914e-02
 -1.4383076e-01
 -5.0351661e-02
 -2.2876403e-01
 -1.3102812e-01
 -1.3330911e-01
  2.6523823e-01
 -2.8244862e-01
  5.9303887e-02
 -2.3977602e-01
 -6.3643014e-01
  1.1785550e-01
 -2.7216721e-01
  7.9562259e-01
  6.3524775e-02
 -3.9698619e-01
 -2.3696668e-01
  2.9201007e-02
 -2.3518145e-02
  5.9612292e-01
  3.3002383e-01
  3.2527480e-02
 -1.0360957e-01
  1.0077424e+00
  7.5931907e-02
 -3.7379193e-01
 -2.2087446e-01
 -5.3273195e-01
  1.5683460e-01
 -8.9494461e-01
 -9.4462439e-02
  2.2053362e-01
 -1.1726830e-01
 -1.4178207e+00
  7.1008092e-01
  6.1041951e-02
 -1.2726204e-02
  3.6596057e-01
 -1.1443502e-01
  1.2686904e-01
 -3.9469667e-02
 -1.4635637e+00
  4.8542749e-02
  1.8005608e-01
 -2.8771955e-01
  7.7978440e-02
 -3.9359698e-01
  6.6346072e-02
  2.1915838e-01
 -2.1196611e-01
  4.2141637e-01
 -4.2148608e-01
  2.5986809e-01
 -1.7371109e-01
 -2.7082181e-01
 -1.2151666e-01
 -2.9086566e-02
  1.1620221e+00
 -1.0262301e+00
 -7.3972061e-02
 -2.9453582e-01
 -2.1687976e-01
  2.4882749e-02
 -8.7425776e-02
 -3.4423915e-01
 -4.2647615e-01
  9.1954434e-01
  1.5165106e-02
  1.3909681e-02
 -2.0159367e-02
 -2.8344087e-02
 -1.9780448e-01
 -1.5042312e-01
  6.3533075e-02
  3.1443897e-01
  2.6827943e-01
 -9.3361819e-01
  9.0130493e-02
  1.7815275e-01
  2.6524395e-01
 -5.0836630e-02
 -7.2991413e-01
  4.7749257e-01
  8.8462174e-02
 -9.0730011e-02
 -2.3345280e-01
 -4.6130088e-01
 -9.4660424e-02
 -2.6712033e-01
  3.2736614e-01
  1.1392967e-02
 -1.7875928e-01
 -8.2577571e-02
  2.2609654e-01
 -3.6874691e-01
  1.7202156e-02
 -5.9001934e-02
 -4.7443759e-02
  2.9169834e-01
 -4.1811869e-01
  3.8135611e-02
 -2.7655992e-01
 -1.4137509e-01
  2.1998873e-01
 -1.5913561e-02
  5.5249470e-01
 -1.3673989e-01
 -5.3911507e-01
 -4.9236003e-01
  1.9329093e-02
  8.5869595e-02
 -1.2829088e-01
 -3.6196965e-01
 -1.2869018e-01
 -3.7606731e-01
 -4.2480698e-01
  3.3707595e-01
  2.4688105e-01
 -1.5816446e-01
  4.4898763e-02
  2.9237947e-01
  1.6021523e-01
  1.2679859e+00
 -1.3527185e-01
  3.0493996e-01
  1.4797311e-01
 -7.8993922e-01
