nep4_zbl 2 Te Ge 
zbl 0 0
cutoff 8 8 92 92
n_max 8 8
basis_size 12 12
l_max 8 2 1
ANN 70 0
 -5.7647246e-01
  5.0196987e-01
 -1.0466759e-02
 -6.1748886e-01
  1.6368285e+00
  1.7375004e-01
  4.4725594e-01
 -1.3756998e+00
 -1.1943818e+00
  1.0112745e-01
 -4.7649479e-01
  9.4528699e-01
 -4.6320862e-01
  4.3791300e-01
 -2.6429239e-01
 -5.0974059e-01
 -2.0552099e-01
 -1.8248820e+00
  3.3571869e-01
 -1.3770582e-01
  1.2896951e-01
  4.7089759e-01
 -6.8059140e-01
  1.7909908e-01
  5.5086635e-02
 -4.4613773e-01
 -1.5428403e-01
 -2.6177871e-01
 -4.0741026e-01
  1.8266650e-01
 -2.9247293e-01
  1.6952221e-01
  3.1716526e-01
  4.3767101e-01
 -2.4219005e-01
  5.2641970e-01
  3.0528757e-01
 -4.8654324e-01
  6.8105978e-01
 -3.6213619e-01
  1.9775417e-03
 -5.4362301e-02
  2.6869875e-01
 -7.1825095e-02
 -1.0070216e-01
  4.0326226e-01
 -2.6633695e-01
  2.2126369e+00
 -2.6028970e-02
  2.6628202e-01
 -1.1901494e-01
  3.1381782e-02
 -1.2204572e-01
 -4.0979490e-01
  7.9539609e-01
 -2.6511383e-01
 -2.6810667e-01
 -1.0894641e-01
  2.6234436e-01
  7.5384057e-01
 -1.8091860e-01
  1.3893216e-02
  1.6370922e-01
  2.5114918e-01
 -2.1876962e-01
  3.3043027e-01
 -4.9303141e-01
  7.1048665e-01
 -5.2810106e-02
 -2.2653526e-02
 -4.8302847e-01
  8.6519793e-02
  3.7321785e-01
 -4.4478464e-01
  6.1679518e-01
 -5.6142747e-01
  2.2091472e-01
 -4.0738073e-01
 -6.3137114e-02
 -7.1123379e-01
 -7.9025783e-02
  5.6531417e-01
 -3.5151437e-01
  1.7759304e-01
  3.5017900e-02
  6.0709661e-01
  9.3087399e-01
 -3.0415189e-01
  5.2736109e-01
 -7.0574248e-01
  2.5739322e+00
 -8.3240783e-01
  6.0758781e-01
 -1.4032187e-01
  5.1668221e-01
 -1.4237653e-01
  2.3859158e-01
 -1.8112345e+00
  3.6083075e-01
  4.9464017e-02
  3.5377279e-01
  5.8470625e-01
 -1.1433530e+00
  3.0774888e-01
 -3.5269824e-01
  2.4287429e-01
 -5.7626283e-01
 -2.3341268e-01
 -1.4493349e-01
  2.8000876e-01
 -4.5794550e-01
  4.4271266e-01
 -3.4817016e-01
 -2.2775285e-01
  1.4816877e-01
 -2.4723992e-01
 -5.6090271e-01
 -2.7521414e-01
  4.6922472e-01
 -5.7260352e-03
  2.1588551e-01
  3.0511916e-01
  3.9859095e-01
  6.4374697e-01
 -4.0250108e-02
  1.4635321e-01
  2.4200357e-01
  2.6051670e-01
 -2.8174810e-02
  1.1533215e-01
 -4.5578080e-01
 -1.6207542e-01
 -5.2263099e-01
 -7.6978594e-01
 -8.1448960e-01
  1.6204619e-01
  1.1511048e-02
  2.0673180e-03
 -1.0868622e+00
  2.3523495e-02
 -1.5866111e-01
 -1.4719118e-01
  1.0809135e+00
 -2.2199017e-03
 -1.1610399e+00
  1.7245904e-01
  4.1192618e-01
  6.5939039e-01
  2.3494512e-01
 -7.3331952e-01
  4.1598859e-01
 -9.0440117e-02
 -5.6305867e-01
 -1.6896445e-02
 -2.2507409e-02
 -3.8634732e-01
  6.9471784e-02
 -1.4994253e+00
 -1.1239079e-01
 -1.8337561e-01
  5.0923181e-01
  4.0157956e-01
 -4.9426924e-02
  1.8016921e-01
 -3.9011714e-01
  4.6785584e-01
  1.1751092e-02
 -4.8363969e-01
  2.9976737e-01
 -9.7608015e-02
 -2.3297997e-01
  7.4202037e-01
 -1.8873009e-01
  4.7408333e-01
  1.5784788e-01
 -5.3769743e-01
 -3.4253519e-02
 -2.7468339e-02
 -2.3331599e-01
  7.9620503e-02
  9.4201386e-02
  1.8390483e-01
  3.8255429e-01
  2.1582602e-01
 -4.6051362e-01
 -4.1596866e-01
  1.6860349e-01
  4.5863974e-01
  6.8657589e-01
  3.5207433e-01
 -1.4304563e-02
 -2.7722329e-01
  4.3398270e-01
  7.9863384e-02
  1.5354650e-01
  1.4880939e-01
  2.4159639e+00
  6.2973768e-01
  5.8794743e-01
  5.7988161e-01
 -6.9520813e-01
 -6.1472267e-01
 -6.2627232e-01
  2.0066167e-01
  1.3966666e-01
 -8.2190371e-01
  6.1923009e-01
 -2.1776535e-02
  1.3089897e-01
  7.2130269e-01
 -1.4756303e-01
 -4.6089831e-01
  2.6954004e-01
  1.5174365e-01
 -6.2834546e-02
  1.4170049e-01
 -3.9445385e-01
  3.7263941e-02
  4.5184752e-01
  2.9410639e-01
 -5.5641586e-01
 -2.0122030e-01
 -6.9353148e-02
  2.0581189e-01
  5.3876061e-02
 -1.5962362e-01
 -3.3078283e-01
  1.6136996e-01
 -1.0018456e+00
 -4.8263520e-01
 -4.8097220e-01
 -5.4932249e-01
  6.5682673e-01
 -3.8176555e-02
  2.1416074e-01
 -6.2181568e-01
 -2.5708026e-01
  6.2296055e-02
  6.6571534e-02
 -1.9439085e-01
  8.2476610e-01
 -1.9348696e-01
  3.8728721e-02
  1.8125552e-01
 -1.5377882e-02
  8.4413411e-03
  9.2574203e-01
  2.2227438e-01
  1.0771289e-01
 -3.6135647e-01
  3.4581950e-01
 -9.3867064e-02
 -3.9208815e-01
  4.4761352e-02
  1.2663041e+00
 -1.3086769e-01
  1.6163525e-01
 -7.6222583e-03
 -1.7190584e+00
 -1.2306554e-02
 -3.3886763e-01
  8.7422734e-01
  2.2782002e-01
  2.2458234e-01
 -4.3227082e-01
  1.4603901e-02
 -3.4567513e-02
 -1.0017833e-01
  2.8287995e-01
 -6.6078579e-01
 -3.8899308e-01
  3.2583362e-01
 -2.6800928e-03
  5.4298043e-01
  6.8516150e-02
  7.3041731e-01
 -9.5464164e-01
  8.4257221e-01
 -3.9436933e-01
  1.2045079e+00
 -3.8883069e-01
 -9.3375333e-02
 -3.8711444e-01
 -5.0384063e-01
 -1.2775348e-01
 -5.5481368e-01
  2.9547438e-01
  3.9882195e-01
  2.5586420e-01
  9.7197056e-02
  6.5223593e-01
  3.4250706e-01
  1.0186193e-01
  2.7752164e-01
  8.2283132e-02
 -3.8877967e-01
  5.5677772e-02
  1.5471528e+00
 -1.8731629e+00
 -6.9886220e-01
  1.8613967e+00
 -9.0582043e-01
 -1.7149599e+00
  1.4437734e-01
  1.8916986e+00
 -7.7615047e-01
 -2.4008081e+00
  2.6750567e+00
 -6.1294192e-01
 -7.6406366e-01
  6.0029972e-01
 -8.6074722e-01
 -2.8306661e+00
  4.5056692e-01
  5.0802881e-01
 -1.2395796e+00
 -9.9421017e-02
 -9.4829577e-01
  3.3824429e-02
 -4.9662837e-01
  5.2652174e-01
 -2.6224805e-02
  3.4974325e-02
 -3.6524436e-01
 -1.7445158e+00
 -3.3497667e-01
 -1.2910966e+00
 -3.0513749e-01
 -2.2684124e-01
 -1.7577540e+00
 -7.4453664e-01
  4.5180908e-01
  2.5305828e-01
 -6.5256846e-01
 -1.2767967e+00
 -2.2297328e+00
  6.8783045e-01
 -2.3003278e+00
 -2.9144284e-01
 -1.3180810e+00
  1.0761485e-01
  9.5737690e-01
 -7.2923881e-01
 -1.5666302e+00
 -1.6482365e+00
 -2.6695323e-01
 -3.0274127e+00
  1.2325209e+00
 -3.8878748e-01
  1.1574013e+00
 -4.7851396e-01
 -5.2365524e-01
  4.6322659e-01
 -1.9913096e+00
 -7.3521030e-01
 -2.5903206e+00
  8.0589962e-01
 -2.4141576e+00
  8.7724888e-01
  3.8065782e-01
 -1.3807644e+00
  1.6707442e+00
 -2.6581657e-01
 -4.9995479e-01
 -1.8596812e+00
  2.1538866e+00
 -1.7465268e+00
  9.3267125e-01
  2.1733958e-01
 -5.0928503e-01
  1.8358685e+00
 -1.5870266e-01
 -1.0204096e+00
 -1.4122794e+00
  1.2249035e+00
 -6.7449588e-01
  4.4491383e-01
 -2.2349447e-01
 -6.9142544e-01
  2.9848647e-01
  3.7079665e-01
 -7.0496911e-01
  2.7582011e-01
 -1.6954002e+00
 -7.0934451e-01
  7.1640506e-02
 -3.2998338e-01
  4.2465860e-01
  1.7783338e-01
 -2.9388478e-01
  3.5456753e-01
 -6.8260461e-01
  9.5482427e-01
  8.6412680e-01
  2.3996408e-01
  2.4313904e-01
 -3.8726819e-01
  1.0924528e+00
 -6.8459374e-01
  1.3514495e+00
  5.0256830e-01
 -7.4185699e-01
 -8.8560253e-01
 -6.3104945e-01
  3.0042158e-02
  4.6694273e-01
 -3.1121430e-01
 -1.3363506e+00
 -6.3718177e-02
  7.5474101e-01
 -4.9542737e-01
  8.7991282e-02
  6.0436380e-01
  3.9264548e-01
  4.9346566e-01
 -5.9781000e-02
 -7.2335988e-01
 -4.9591693e-01
 -2.7188829e-01
 -3.2225210e-02
 -9.9447794e-02
  1.9732071e-01
  1.5104799e-01
 -9.3029606e-01
 -1.2047019e+00
  8.9779735e-01
 -4.5014694e-01
  2.0598678e-01
 -5.4904675e-01
  2.3850304e-01
 -1.8912332e-01
  1.6099949e-01
  3.6618882e-01
  1.5453775e-01
  1.2168495e-01
  3.3891621e-01
  4.9455097e-01
  7.4307775e-01
  3.1369954e-01
 -1.5964042e-01
  1.3123423e-01
 -6.9268033e-02
  1.1429708e-01
 -3.9040810e-01
  6.4594135e-02
  4.8927015e-01
  1.5990102e-01
 -9.1968551e-02
 -3.0133422e-02
  3.0724371e-03
 -3.9115578e-01
  3.4966713e-01
  2.1490870e-01
 -4.9521419e-01
 -3.3289728e-01
  5.7826757e-01
  1.2497894e-01
  1.4425413e-01
  5.4024231e-01
  3.5009888e-01
 -2.2583061e-01
  1.3952719e-01
 -2.5761908e-01
 -2.3732030e-01
 -4.7143418e-02
 -3.2689536e-01
 -1.4157772e-02
 -2.0968050e-01
  6.3019365e-01
  6.7423142e-02
  3.3807111e-01
 -2.0835853e-01
  3.9174500e-01
  4.2741024e-01
 -1.9732845e-01
 -8.2823142e-02
 -4.9425295e-01
 -3.3122283e-01
 -2.8006741e-01
 -4.7108832e-01
 -1.6427381e-01
 -1.8204950e-01
  3.0834052e-01
  1.1024059e-01
 -3.2707632e-01
 -1.3451473e-01
  6.7349091e-02
 -1.0474323e-01
  2.9144186e-01
  7.6141074e-02
 -7.9378821e-02
 -3.0568835e-01
 -1.5336721e-01
  3.2948259e-01
 -3.4986249e-01
 -6.9137588e-02
 -1.2531335e+00
  3.6504438e+00
  1.0847702e+00
  2.3996161e-01
 -4.8602588e-02
 -1.2843937e+00
  5.9365970e-01
 -7.2898853e-01
 -6.2015796e-01
 -9.6089751e-01
  1.4697222e+00
 -4.9233282e-01
 -7.9568732e-01
 -2.4313025e-01
  2.7679387e-01
 -1.5877800e-01
 -6.6626839e-02
 -4.8542067e-01
 -3.3615729e-01
 -3.5368758e-01
 -1.1026735e+00
  6.3780546e-01
  8.0202669e-01
 -8.1393406e-02
 -3.5065356e-01
  5.8547735e-01
  4.3993804e-01
  5.0259046e-02
  7.9204255e-01
  1.5005748e-01
 -2.4807739e+00
  6.2638938e-01
 -4.9638626e-01
 -3.9888084e-01
  4.3496379e-01
  4.3686429e-01
 -7.8003985e-01
  2.7702662e-01
 -1.0121237e+00
  2.5535793e+00
  2.5235069e-01
  5.1606357e-01
  6.5565392e-02
  2.6983300e-01
  6.2991790e-02
 -3.6121437e-01
  6.1916625e-03
 -2.3722872e-01
 -9.0220660e-02
  4.0392357e-01
 -1.0916832e-01
 -3.8114005e-01
  6.1737025e-01
 -2.7362794e-01
 -1.4306724e-01
 -1.1447300e+00
  2.4898674e-01
  6.5098304e-01
  4.8454073e-01
  4.7444588e-01
  1.0243931e+00
 -1.7436114e-01
 -1.8269671e-01
 -7.5283843e-01
 -7.7247344e-02
  8.3137494e-01
 -1.0047703e+00
  1.8732040e-01
 -6.0088807e-01
  6.4866590e-01
  6.5010673e-01
  1.3370354e-01
 -5.9172168e-02
 -4.7091317e-01
 -7.5801736e-01
 -1.5695114e-01
 -1.2387551e-01
 -5.3352374e-01
  6.7376781e-01
  8.4805274e-01
  2.6499274e-01
  4.1754276e-02
 -5.4203820e-01
  1.1460205e+00
  1.3784053e-02
 -6.4191759e-02
  3.8992870e-01
 -1.3404456e+00
  7.8525680e-01
 -6.3877064e-01
 -3.6110374e-01
  3.7053177e-01
  2.7604863e-01
  2.0182393e-01
  1.1197428e-01
  2.4835792e-01
 -8.8277377e-02
  7.4015319e-02
 -3.4108272e-01
  8.2720876e-02
  1.0092291e+00
  6.3735984e-02
  3.0647844e-01
 -1.4825503e-02
 -4.3083662e-01
  3.1259310e-01
  4.3173206e-01
  2.0296232e-01
 -6.8096668e-01
 -1.7362404e-01
  1.7318566e-01
  5.9267718e-01
  3.8277951e-01
 -3.2998231e-01
 -8.5741811e-02
 -6.4008832e-01
  2.9415789e-01
 -4.2857103e-02
  3.5090452e-01
 -5.9683734e-01
  3.8444358e-01
  9.0920337e-02
  4.6070987e-01
  1.4735860e-01
  5.3985965e-01
  3.3695763e-01
  7.4829780e-02
  9.6563250e-01
  1.5405674e+00
  2.2632029e+00
 -1.9408090e-01
 -4.3829152e-01
  1.7161849e+00
  4.8221159e-01
  5.2943999e-01
  5.7277419e-02
 -7.7241671e-01
  4.2572144e-02
 -7.2280072e-02
  2.2247058e-01
  2.2038200e-01
 -5.7561815e-01
 -7.9452622e-01
  4.5127258e-02
 -8.1731211e-03
  6.1122781e-01
  1.0500381e+00
  5.8920730e-02
 -3.7683615e-01
  6.1977130e-01
  7.2707540e-01
  3.2084912e-01
  5.9712428e-01
  7.8280205e-01
  1.5027041e+00
 -6.3597113e-02
  7.3090154e-01
  2.3453468e-01
  5.0501144e-01
 -9.0375520e-02
 -4.5019910e-02
 -5.7120246e-01
 -7.9454677e-03
  7.1520156e-01
  2.5105283e-02
 -2.3367429e-01
 -5.4138351e-02
 -2.1916731e-01
  1.3886145e-01
 -6.2632310e-01
  3.2353938e-01
 -2.9821038e-01
  3.1758279e-01
  2.7150598e-01
 -2.3470514e-01
 -1.0907239e-01
 -5.7536238e-01
 -2.0970801e-01
 -2.0320162e-02
 -1.3018222e+00
 -1.0695919e-01
 -7.4981451e-02
  3.6149174e-01
 -6.4701366e-01
 -1.5126161e-01
  5.5561149e-01
 -2.4036014e-01
  6.6259861e-01
 -8.9472771e-02
  4.3223742e-03
  5.5125067e-03
 -1.6105177e-01
  8.9154132e-02
 -1.0308432e-01
  1.7176795e-01
  2.6591116e-01
 -4.9262595e-01
  4.7471201e-01
  4.5379764e-01
 -4.8506182e-01
  3.6575582e-02
 -3.8357008e-01
  9.7735688e-02
 -1.2621185e-01
 -2.6515299e-02
  4.5736220e-01
 -2.2741252e-01
 -1.3239214e-01
  1.8911736e-01
  3.6754566e-01
  1.4407955e-01
 -1.7080650e-01
 -2.7330071e-01
 -9.7645409e-02
 -4.8320356e-01
  6.3559622e-01
 -1.3995944e-01
  1.6808512e-02
  1.3629544e+00
 -1.7409559e-01
 -5.8704976e-02
  8.1900306e-02
 -1.0010087e+00
  2.4912538e-01
  3.4818646e-01
  2.6989204e-01
  1.4765371e-01
  3.0574638e-01
  2.2670169e-01
  3.0890250e-01
  1.8143173e-01
  2.1863018e-01
 -6.3684362e-01
  4.9735779e-01
  3.0453381e-01
  4.3177849e-01
  4.4667339e-01
 -1.0333528e-02
 -4.8920497e-01
 -1.5174545e-01
 -4.6690521e-01
 -6.4516194e-02
 -3.7620574e-02
  4.4092900e-01
  2.0750454e-01
  6.5770483e-01
  1.3879062e-01
 -6.1196506e-01
  7.3544657e-01
 -2.2874391e-01
  2.4401417e-02
  2.5744385e-01
 -4.1299682e-02
 -2.1880811e-01
  2.4717514e-01
 -6.7091227e-01
 -9.8696017e-01
  1.9248059e-01
 -7.1096051e-01
 -4.1584584e-01
 -1.7704990e-02
  4.5223027e-01
 -4.6344972e-01
 -1.4401381e-01
 -2.2659940e-01
  4.6565831e-02
  5.3088742e-01
  3.1401324e-01
 -8.5212165e-01
  3.2018352e-01
 -3.3118829e-01
 -4.5609319e-01
 -1.7786971e-01
  4.0739861e-01
 -3.1851670e-01
  3.7655156e-02
  2.1802600e-01
 -4.4533852e-01
  1.9233793e-02
  1.5221850e-02
 -4.4052345e-01
  2.6959047e-02
 -1.1099348e+00
 -1.2993622e-01
  1.1973970e-01
  1.4379542e-01
 -5.8268672e-01
 -1.2167279e+00
 -3.5164785e-01
  6.6422623e-01
 -2.4591209e-01
 -1.6811273e-01
 -1.7976404e+00
 -1.1675957e-01
  9.0862662e-02
 -2.8057721e-01
 -1.4625242e+00
 -1.7086874e+00
  2.2574348e-02
  2.1339285e+00
 -5.1450866e-01
  1.3982958e+00
 -1.4450569e+00
 -5.1570123e-01
 -1.2602653e-01
 -5.8802587e-01
 -6.8752944e-01
 -1.3671930e-01
  6.9056273e-01
  1.0692851e-01
  5.8514267e-01
 -8.2110304e-01
  4.5086670e-01
 -2.8799731e-01
 -1.0306491e+00
 -1.3034260e+00
  6.5296090e-01
  7.2754115e-01
  1.2487559e+00
  5.3947043e-01
 -6.4517021e-01
 -1.6469602e-01
 -1.0578149e-01
  2.7286518e-02
 -8.4521212e-02
  2.1872360e-01
 -6.9558722e-01
  4.3980911e-01
 -1.9553231e+00
  1.0531482e+00
  9.6274453e-01
 -1.9198185e-02
 -4.4877300e-01
 -5.4833573e-01
 -9.5655239e-01
 -1.8736075e-01
 -4.5133466e-01
 -1.0202270e+00
  1.1022301e-01
  1.5220121e+00
  9.3243706e-01
  3.0633125e-01
  7.3617125e-01
 -3.2218522e-01
 -8.7825947e-02
  5.2393860e-01
  7.7173126e-01
 -3.6771667e-01
  9.9705033e-02
 -2.3239382e-01
  7.1475774e-01
  9.2269123e-02
  6.2593877e-01
  5.1693344e-01
  9.2199308e-01
  5.7843977e-01
  5.5090648e-01
  2.9974714e-01
 -1.1389708e-01
  1.7997397e-01
 -4.7615010e-01
 -1.1266259e+00
 -2.3167068e-01
  1.1512771e+00
  3.2267472e-01
 -3.4925064e-01
  5.5873209e-01
 -2.2161581e-01
 -1.1719803e+00
 -3.1556693e-01
 -2.4465349e-01
  1.4708959e-01
  3.0709347e-01
  2.8594968e-01
  3.5072553e-01
  7.6351339e-01
  2.9038084e-01
 -1.1341916e+00
 -1.2179041e+00
 -3.4930834e-01
 -3.8190717e-01
  8.6922133e-01
  7.3736764e-02
  6.8020150e-02
  3.5444140e-01
  1.1599451e+00
 -3.8597381e-01
  2.6394688e-02
  1.6732691e-01
  7.3065710e-01
  9.6688408e-01
 -2.7602938e-01
 -6.0532343e-01
 -8.5486019e-01
  1.3343076e-01
 -9.5583117e-01
 -2.4954540e-01
 -5.0614876e-01
 -1.3355043e+00
  1.4414731e-01
 -3.6008496e-02
  3.3528158e-01
  3.1239739e-01
 -1.6028339e+00
  1.8423203e-01
 -8.6317927e-02
 -1.8645060e-01
  1.3758291e+00
  9.7406787e-01
 -2.7408844e-02
 -4.6220464e-01
  1.5030710e-01
  3.2783303e-01
 -1.1985706e+00
  2.4223402e-01
  1.9837688e-01
  8.0785376e-01
 -7.5840807e-01
 -1.1703100e-01
  2.1212356e-01
 -5.9320629e-02
  1.7176120e-01
  4.3693063e-01
  7.7808209e-02
 -1.9424090e-01
  1.9001995e-01
 -1.2016933e-01
  5.1551235e-01
  6.0740471e-01
  4.1084986e-02
 -4.8067994e-02
 -5.5109757e-01
  1.1686294e+00
  1.5764785e-01
 -2.1155584e-01
  2.4816012e-01
 -2.9162234e-01
 -2.8299487e-01
 -6.7806162e-02
  6.3717675e-01
  2.8318787e-01
  1.4692754e-01
  5.1127678e-01
 -3.4864673e-01
 -1.7176919e-01
  3.6911735e-01
  5.2631650e-02
  1.3164590e-01
  4.7458362e-02
  2.6616999e-03
  4.3124789e-01
  2.2288533e-01
 -1.0448254e-01
 -3.7194648e-01
 -5.4909062e-01
 -3.3285254e-01
  8.3425060e-02
  1.6017165e+00
  1.2794899e+00
  1.8310815e-01
 -4.3663683e+00
 -2.8448379e-01
  6.4653260e-01
 -9.6931443e-02
 -9.0636343e-02
  1.4538845e-01
  2.5933387e-02
 -6.8399435e-01
 -2.6441136e-01
 -4.0996829e-01
 -2.9701594e-01
 -2.6332477e-01
  6.6756898e-01
 -4.7461095e-01
 -5.3473711e-01
  6.5096188e-01
  2.0219694e-01
 -4.7633520e-01
  2.3497230e-01
 -1.2308134e+00
 -4.7291553e-01
  5.1020789e-01
  8.4901953e-01
 -3.6559418e-01
 -3.0535421e-01
  1.7918828e-01
  6.4099211e-01
  4.6895641e-01
  2.0358521e-01
  4.1395146e-01
  3.2665986e-01
 -7.4020609e-02
  4.0515903e-01
 -7.4555293e-02
  3.5481632e-02
 -1.9621554e-01
 -8.9611119e-01
 -9.5274156e-01
 -1.4801519e+00
 -9.0377368e-02
 -4.2922470e-01
 -2.4856937e-01
 -1.6196728e+00
 -2.4242665e-01
  4.8892051e-01
  2.5645161e-01
  4.2714089e-01
 -6.5870836e-02
 -7.2228670e-01
 -3.9680010e-01
 -5.1601177e-01
  6.4911407e-01
 -5.9288979e-01
 -1.7660964e-01
 -2.1155305e-01
 -1.9858707e-01
 -6.0681880e-01
 -6.7055500e-01
  1.3417872e+00
  9.5982355e-01
  5.4790413e-01
 -6.2137562e-01
  4.5018336e-01
  7.3046911e-01
  1.1201880e-01
  4.4652370e-01
 -1.4785355e-01
  1.5399082e-01
  2.8180823e+00
 -6.3164257e-02
 -6.8761371e-02
 -4.2466652e-01
  3.2914743e-01
  3.8475028e-01
 -5.4964399e-01
  1.0106360e+00
 -8.6426759e-01
  6.5001065e-01
  2.4460387e-01
  7.6874804e-01
  3.9784059e-02
 -1.3343345e-01
 -2.9520199e-01
 -6.5239757e-01
 -6.4507085e-01
  5.7103801e-01
 -1.9229802e-01
  4.9579576e-01
 -4.6992800e-01
 -1.2610978e-01
  3.8137057e-01
  5.3412014e-01
  9.6456605e-01
  4.4688883e-01
  3.6573091e-01
 -3.3409917e-01
  1.0436472e+00
 -6.8936624e-02
  3.7443992e-01
  5.0742161e-01
 -6.8161756e-02
 -4.6548173e-01
 -7.6054341e-01
 -3.0851215e-01
 -7.4331325e-01
  1.4748497e-01
  2.7765691e-01
 -7.3209232e-01
  3.0205017e-01
 -5.1659131e-01
  7.0051149e-02
  8.4529214e-02
  4.3215421e-01
 -8.5469685e-02
 -1.2752913e-01
  4.2333722e-01
 -1.1622906e-01
 -1.9662970e-01
  8.0329579e-01
 -5.3271598e-01
 -2.9424408e-01
 -6.0411990e-01
  6.3227445e-02
 -9.1375464e-01
  7.7687308e-02
  4.7026385e-02
  3.8541831e-02
 -6.4128721e-01
 -1.2363485e-01
  3.9268205e-01
  2.2528456e-01
  1.4388454e-01
 -6.0701770e-01
  5.2362776e-01
  6.9065249e-01
 -3.4028500e-01
 -2.8107926e-01
  8.7215787e-01
 -1.2779334e+00
  3.3800954e-01
  1.3141900e+00
  4.8210692e-01
  7.6833248e-02
  8.7968010e-01
 -8.7958530e-02
  1.8502027e+00
 -4.8290944e-01
 -7.0880759e-01
 -5.8083236e-01
 -5.2580965e-01
  6.6212302e-01
  9.8073587e-02
 -1.0094684e-01
 -8.2588392e-01
 -2.1042600e-02
 -1.0210909e+00
  4.5757234e-01
  9.2615142e-02
  4.1689846e-01
  2.1090856e-01
  4.7786129e-01
  4.3238109e-01
 -7.9141885e-01
 -2.8764462e-02
 -7.1963020e-02
 -8.0199939e-01
 -4.5453015e-01
 -3.1967270e-01
  4.3210045e-01
 -1.7293961e-01
 -3.4522444e-01
  1.6385210e-01
  9.0689456e-01
  4.8296228e-01
  6.3363427e-01
  2.2073169e-01
  5.6641203e-01
  4.7657150e-01
 -4.9664877e-02
 -5.4313991e-02
  4.7424987e-01
  4.4020095e-01
 -8.7698948e-01
 -7.6530904e-01
 -1.7453115e-01
  1.2812988e+00
 -1.2342700e-01
  3.3275226e-01
  3.7152380e-01
  1.2096325e+00
  4.2509562e-01
 -5.4175878e-01
 -7.6422131e-01
  1.5145056e-01
 -1.2011833e-01
 -1.2159127e-01
 -4.2362383e-01
  3.4112219e-02
  6.5965265e-01
 -6.8718183e-01
 -6.3048875e-01
 -5.5133319e-01
  5.4799050e-01
  6.0658789e-01
  5.3331953e-01
  8.4448272e-01
 -1.4210796e-01
 -7.3972100e-01
 -3.9568880e-01
  1.9186053e-01
  4.2111883e-01
 -1.1516837e-01
 -6.1798608e-01
  3.7164864e-01
  7.6908438e-04
  4.0491483e-01
 -2.5553161e-01
  2.0019086e-01
  3.7974876e-01
  4.2818278e-02
  7.0753622e-01
 -6.4330727e-01
 -4.0881905e-01
 -4.5828193e-01
 -4.3057007e-01
 -1.3542694e-01
 -3.5693696e-01
  2.2035930e-01
  3.3209884e-01
 -1.9166741e-01
  9.3483150e-01
 -5.0990194e-01
 -1.9665745e-01
 -1.7472361e-01
 -3.9339298e-01
 -2.3482731e-01
  9.5488811e-01
 -9.7660549e-02
  3.9997280e-01
  2.6589966e-01
 -2.0207638e-01
  3.7297344e-01
 -3.3189505e-01
 -1.0837687e-02
  4.5775652e-01
 -2.2959871e+00
 -6.0682946e-01
 -1.9998389e-01
  4.5756087e-01
  4.3881059e-01
 -3.2775751e-01
  7.3891258e-01
  3.8296428e-01
 -6.4198875e-01
  8.6375155e-02
 -3.6575627e-01
  1.4196286e-01
  6.4879313e-02
  1.1842623e-01
  1.1523746e+00
  8.5626990e-02
  4.4678253e-01
  5.0960079e-02
 -1.5922192e-01
 -3.8553560e-01
  3.3837038e-01
  8.7820105e-02
 -2.2081735e+00
 -4.2569730e-01
 -3.1765878e-01
 -1.4982712e-01
  1.9911763e-01
 -5.1982921e-01
  6.3898134e-01
  6.9030203e-02
  7.3714536e-01
 -1.5308626e-01
 -7.6662058e-01
  1.3107580e-01
  6.6321772e-01
 -5.4329324e-01
  4.5615464e-01
  2.3540637e-01
  1.0543936e-01
 -1.1087835e+00
 -2.4109925e-01
  4.0240100e-01
 -1.6880696e-01
  2.7977360e-02
  2.6718616e-01
 -8.7901425e-01
  9.5235044e-01
  3.0773944e-01
  4.1716474e-01
 -3.4289849e-01
  3.6262244e-01
  6.6443563e-02
  3.3707973e-01
 -1.1380584e+00
 -2.3912559e-01
  1.1875472e+00
 -3.1139627e-01
  2.0524307e-01
 -5.6123912e-01
  5.9644520e-01
 -8.3964521e-01
  1.4703527e-02
 -1.7917274e-01
  3.0631283e-01
  4.0200517e-02
  2.2473834e-01
 -3.2593690e-02
  2.4756028e-01
  1.4119472e-01
 -2.4186844e-01
 -4.4677719e-01
 -2.8451255e-02
 -5.4411002e-02
 -4.2272162e-02
  1.1154569e-02
 -1.6461613e-02
  1.2260938e-01
 -8.2002982e-02
 -2.7612540e-01
 -1.1842791e-01
 -4.4042316e-01
 -1.9740830e-01
  8.0090606e-01
 -3.9568016e-01
 -8.3838022e-01
  2.3790354e-01
  1.1197429e+00
  4.2302117e-01
 -1.5314834e+00
  1.0225973e+00
 -1.2944828e+00
  2.3352759e+00
 -4.0621421e-01
  1.2070929e+00
  3.2108560e+00
  1.9411147e-01
  5.4956406e-01
  2.2432213e-01
  6.4892256e-01
 -1.2119620e-01
  1.6673711e-01
 -1.5491458e+00
  3.1853780e-02
 -1.0113626e-01
  4.0674189e-01
 -2.4906921e-01
  6.5345943e-01
  9.4242328e-01
 -2.8083876e-01
 -2.3004074e-01
 -9.1105920e-01
  1.2499747e-01
 -2.5703546e-01
  2.1873820e+00
 -6.7749500e-01
 -4.5103425e-01
 -2.4901035e-01
  1.6574955e-01
 -9.1892537e-03
 -4.1055197e-01
 -1.9643041e-01
  4.9513024e-01
 -3.2300538e-01
 -4.7273949e-01
 -1.4786979e+00
 -7.0725131e-01
  4.2413232e-01
 -7.7019429e-01
  2.7828994e-01
  1.3145761e-01
  1.1140763e+00
 -3.4051111e-01
 -6.8235719e-01
 -1.9321288e-01
  1.3884749e-01
 -1.3902839e-01
  9.2398667e-01
 -4.1332263e-01
  2.0855819e-01
  1.1192418e-01
  2.6184607e-03
 -3.2604459e-01
 -1.9553052e+00
  2.1714582e-01
  3.9967006e-01
 -1.2136405e+00
 -9.4630115e-02
 -2.9433259e-01
  1.0391451e-01
 -5.3422287e-02
 -1.7892690e-01
  5.1724471e-02
  1.4218947e-01
 -7.5457120e-01
 -1.7163055e-01
 -6.1532623e-01
 -3.5785684e-01
  1.6872290e-01
 -3.3066767e-01
  4.3159050e-01
 -2.3028222e-01
 -5.8856320e-01
 -2.6694497e-01
 -4.0496200e-01
  3.3349073e-01
 -3.9454538e-02
 -5.4321992e-01
  2.3235233e+00
  2.2527590e-01
 -9.0025359e-01
 -1.5660577e-01
  1.0445991e-01
  9.4796944e-01
 -3.8920212e-01
 -6.7076017e-03
  5.6681162e-01
 -3.6812046e-01
  8.2543355e-01
  6.1435533e-01
  6.2176114e-01
 -6.8088460e-01
 -4.0181670e-01
  4.0103968e-02
 -6.2964487e-01
 -3.9284831e-01
  1.0031704e-01
 -4.0898088e-02
  2.0692602e-01
  1.2057626e-01
 -4.1969013e-01
  2.4225324e-01
 -2.9626584e-01
  4.1448197e-01
 -3.0587968e-01
  1.8742111e-01
 -3.7877679e-02
 -1.9833171e-01
  3.8768008e-02
  2.8677145e-01
 -2.2114211e-01
  5.7982224e-01
 -1.2317565e-01
  8.3230436e-01
  4.6775904e-01
  2.5871822e-01
  3.5147555e-02
 -3.3842391e-01
  4.7158822e-01
 -1.4519085e-01
  4.6069330e-01
 -3.8177002e-02
  2.9390040e-01
  7.1643656e-01
  5.6273019e-01
  2.3014591e+00
 -1.9323374e-01
 -9.5324606e-02
 -1.4237143e-01
 -5.8235358e-02
  4.5324126e-01
 -3.5346247e-02
 -1.5057412e-01
  5.7822704e-01
  7.7940588e-04
  6.2580705e-01
  4.0579043e-02
 -3.8808540e-02
 -8.6195439e-01
 -4.6394837e-01
 -8.0558527e-01
  3.0863768e-01
 -1.7978457e-01
 -3.1529665e-01
  9.4903037e-02
 -9.5609170e-01
  8.1478395e-03
  3.0283179e-02
 -4.2196080e-01
 -7.2613657e-01
 -2.1778078e-01
  2.8459707e-01
 -4.7682975e-03
  1.5489182e-01
  6.7714721e-01
  8.1869103e-02
  2.5049314e-01
  5.7231516e-01
 -5.6800568e-01
 -1.2976500e-01
  1.1789514e-01
 -1.7295541e-01
  1.4618769e-01
 -4.3719038e-01
 -2.0351002e-01
  1.7995064e+00
  2.1898746e-01
  2.9336980e-01
  1.3601913e+00
  3.1772798e-01
  3.0247888e-01
 -1.6498867e-01
 -4.7106546e-01
 -1.1901558e-01
 -2.7611423e-01
 -4.5742506e-01
  4.8054537e-01
 -2.2685586e-01
  9.7583055e-02
  3.3169985e-01
 -9.7514540e-02
 -3.5454921e-02
  8.0527008e-02
 -4.6523231e-01
 -1.3603281e-02
  5.5349666e-01
 -5.5594856e-01
 -3.7017113e-01
  4.3339843e-01
  3.0667251e-01
 -6.7725444e-01
  1.3779123e-01
  6.6252595e-01
  2.9537195e-01
  4.9410447e-01
 -3.9998198e-01
  1.6984483e+00
  6.0516822e-01
 -2.2596423e-01
  5.6117135e-01
  4.7623049e-03
  1.2078305e+00
 -4.5377627e-01
  2.0078532e-01
 -4.9607611e-01
  2.2911963e-01
 -5.9348369e-01
  3.6562586e-01
 -6.4737357e-02
  2.5575047e-02
  3.5648304e-01
  2.2897441e+00
  6.0515559e-01
 -2.8874436e-01
  1.5734220e-01
  1.3958423e-01
 -5.2438599e-01
 -7.1403164e-01
 -2.2577010e-01
 -1.2170331e+00
 -8.2426429e-02
  5.6470311e-01
  6.2790567e-01
  9.7511448e-02
 -2.3602888e-01
  1.0823790e+00
 -1.7227851e-01
  2.3950489e-01
 -1.3558813e+00
 -1.1421485e-01
 -1.8939434e-01
  3.9560062e-01
 -5.5029410e-01
 -1.1208478e-01
 -1.5948711e-02
 -1.2260336e+00
 -4.0762380e-01
 -1.3559946e-01
 -7.2209217e-02
 -7.4448115e-01
  3.5548356e-01
 -5.1422626e-01
 -3.0639949e-01
  4.2448473e-01
  3.8204372e-01
 -2.3588678e-01
 -2.6532492e-02
 -3.6777798e-02
  5.1543653e-01
  2.2740647e-01
 -4.7287127e-01
 -4.7096156e-02
 -8.7675542e-01
  6.0741431e-01
  4.1265464e-01
  8.4830141e-01
  9.8605663e-01
 -4.0730655e-01
  4.2433511e-02
  2.3701580e-01
  5.5005872e-01
  3.2584515e-01
  1.2452791e-01
 -1.2313025e-02
 -2.4836518e-01
  7.9253905e-02
  2.7200010e-01
  1.8029694e-02
  2.4502154e-02
 -1.0435912e-01
  6.7418283e-01
 -6.6455680e-01
  5.9459811e-01
  4.7405726e-01
  1.1137047e+00
 -8.8011257e-02
 -1.5357602e-01
  5.2867925e-01
  6.6466171e-01
  1.3661113e-01
  2.4263331e-01
  2.0330757e-01
  2.9806733e-02
  2.4272306e-01
  1.3375525e-01
  7.0307866e-02
  3.1307045e-01
 -9.7862732e-01
 -4.9981037e-01
 -1.5829290e+00
  4.1421658e-01
  5.6612736e-01
  6.5443897e-01
 -1.6498744e-01
  6.4182371e-01
  2.7108404e-01
  9.3531805e-01
 -6.8756777e-01
  4.8928446e-01
 -9.3562496e-01
  2.1170509e+00
  2.3436444e+00
  1.9432384e-01
 -2.8581744e-01
 -6.9140665e-02
 -1.3517576e-01
  9.4489194e-02
  7.3825739e-02
  1.8682106e-01
 -4.5516279e-01
 -1.7835233e+00
  1.3566592e+00
 -4.0364970e-02
 -7.7971017e-01
 -7.1857744e-01
 -2.3214377e-01
  1.0482553e+00
  8.6064570e-02
 -4.1958439e-01
  2.8328636e-01
 -4.2970681e-01
 -4.4433020e-02
 -1.1943673e-01
  2.3566800e-01
  8.0197370e-01
 -5.3660488e-01
  6.0169262e-01
 -9.3661033e-02
 -1.9378084e+00
  4.3701297e-01
  2.8496706e-01
  9.9079496e-01
  1.7590725e+00
 -1.5150997e-01
  9.8181534e-01
  5.8571714e-01
  7.5484729e-01
 -5.7147050e-01
 -1.2006934e-01
  1.2818246e-01
 -5.2658743e-01
  6.8973774e-01
 -5.0611001e-01
  6.5397877e-01
  5.5073720e-01
  7.6328099e-01
  4.6439599e-02
  3.6646673e-01
  4.2601922e-01
  1.3581376e-01
 -2.9253978e-01
  3.9350572e-01
 -5.0714624e-01
  1.2111353e+00
 -2.8705525e-01
 -1.7502350e-01
 -7.6804832e-02
 -1.4668249e-01
  4.0860835e-01
 -9.3314826e-01
 -1.9916601e-01
 -9.6534681e-01
 -6.4155668e-02
  3.4230193e-01
 -8.3511269e-01
  2.7578288e-01
 -6.2712842e-01
  7.1317232e-01
 -5.9107065e-01
  1.7297286e-01
  4.6439075e-01
  2.3979712e-01
  8.2882208e-01
  4.0526349e-02
  7.8973286e-02
  2.3874408e-01
 -7.1800458e-01
  2.7451402e-01
 -1.2051216e-01
  6.1831224e-01
  2.7692411e-02
 -3.1541219e-01
 -5.9188741e-01
  1.2566902e-01
  5.0435573e-01
  4.5926291e-02
 -7.2523884e-02
  2.6834682e-03
  1.6694434e-01
  1.0206596e-01
 -6.5641630e-01
 -1.9352558e-01
  8.7037820e-01
 -4.8180157e-01
  3.0928499e-01
 -1.0955685e-01
  2.3469999e-01
 -4.5320706e+00
 -2.5669101e-01
 -1.3532123e-01
 -9.9805164e-01
  1.2126283e-01
  3.2155100e-01
 -4.0018894e-02
  5.8379591e-01
  6.3067526e-01
 -2.7380410e-01
  1.5516039e+00
  1.8499048e-01
  9.7552486e-02
 -3.1675231e-01
  1.9677171e-01
  2.8687754e-01
 -1.1765858e-02
 -5.6215954e-01
 -1.7244290e-01
 -3.1076133e-01
  1.9704211e-01
  5.0198400e-01
  7.6235801e-01
  4.3201056e-01
  5.4964757e-01
  2.0991011e-01
  3.6303321e-01
 -5.5355811e-01
 -2.8509596e-01
  8.2824966e-03
 -2.3277180e-01
 -2.0110540e-01
  2.8558400e-01
  5.4443341e-01
  1.1823905e-01
  4.8279002e-01
  4.3121412e-02
 -7.1261831e-02
 -5.4203737e-01
 -1.7766351e-01
 -2.9836276e-01
  4.8047048e-01
  2.7417147e-01
 -7.7380401e-01
 -8.0721593e-01
  8.5203618e-02
  2.7872086e-01
 -2.4822317e-01
  2.7445421e-01
 -4.6495244e-01
  1.5108489e-02
  3.2326397e-01
  5.1350182e-01
  5.8431441e-01
 -7.2566205e-01
  8.8048106e-01
 -5.5408269e-01
  6.0885930e-01
 -1.3287860e-01
  7.7906179e-01
 -2.7138662e-01
  5.5054373e-01
  2.2676353e-01
  1.7198031e-01
  1.3962090e-01
 -1.1865776e-01
 -1.8296844e-01
  3.5609701e-01
  4.8087853e-01
  1.6630195e-01
  2.2637162e-01
 -4.9281850e-01
  2.5577343e-01
  9.6589945e-02
  6.5214686e-02
  2.4272415e-01
  2.7242205e-01
 -5.3970128e-01
  4.2180830e-01
 -2.1015286e+00
  2.1394645e-01
  1.0890672e-02
 -4.2859319e-01
 -8.8366345e-03
  3.2772911e-01
 -3.8101677e-02
  2.8730643e-01
 -6.0073638e-01
 -8.3763212e-02
  2.9076660e-01
  5.7034540e-01
 -2.6865441e-01
 -5.8157223e-01
  3.0881879e-01
 -1.2532644e-01
 -1.7855643e-01
  1.1117160e+00
  6.9815910e-01
  3.9533868e-01
 -1.2522066e+00
 -8.3241129e-01
 -1.8413421e+00
  6.9347298e-01
 -4.9289721e-01
  1.6193798e-01
  4.3789420e-02
  4.8306549e-01
 -4.6055046e-01
 -6.9378394e-01
  5.6791312e-01
  3.1936550e-01
  5.1265603e-01
 -2.8337336e-01
 -2.9453322e-01
  1.1550784e+00
  2.6523092e-01
 -1.3204518e-01
  7.9173708e-01
  1.1648529e+00
  5.7764184e-02
 -5.5684811e-01
  3.4059209e-01
  7.5470078e-01
 -2.2734223e-01
 -3.3602864e-01
 -8.7427273e-02
 -9.3823381e-02
 -2.5100378e-02
  6.7908049e-01
 -3.7448470e-02
 -3.3111107e-02
 -3.5117128e-01
  3.2423962e-02
  1.7517259e-02
 -1.7410059e+00
 -1.2529632e+00
 -1.7631865e-01
 -9.7312033e-01
  1.8809411e-01
 -1.3416894e-01
  5.5274218e-01
  7.0082821e-02
  4.1178131e-01
  5.3964555e-01
  7.3330182e-01
  2.8687009e-01
 -2.9221594e-03
 -3.1281692e-01
  4.1074398e-01
  8.5031595e-03
  1.2136956e+00
 -4.0941280e-01
  1.7563654e-01
  2.0314939e-01
  5.7479686e-01
 -4.7644535e-01
 -1.1795503e-01
 -1.7950754e-01
 -1.5337541e+00
 -7.3237520e-01
 -1.7345755e-01
 -5.0506093e-02
  1.8431802e-01
  7.1734607e-02
  1.5906227e-01
  2.6749936e-01
 -8.6832911e-01
  8.3142465e-01
  1.8021736e-01
  1.5823724e+00
  1.0928087e-01
  4.3766665e-01
  3.3075994e-01
  5.7618862e-01
 -4.6658751e-01
  4.6328571e-01
  3.0423883e-01
 -4.8707634e-02
 -3.6970764e-01
 -6.8515249e-02
 -2.8915623e-01
 -1.0854447e-01
  7.4265800e-02
 -4.5140031e-01
  4.3026692e-01
  1.1445378e-01
  4.4829151e-01
 -1.6592981e-01
 -2.6360142e-01
  1.6074451e-02
  6.1613667e-01
  6.4258474e-01
  2.2729751e-01
 -1.9492728e-01
  4.2231232e-01
 -1.2211448e-01
  5.7012711e-02
 -2.9684803e-01
  4.4575083e-01
 -5.5003405e-01
  9.5650010e-02
  5.8343917e-01
 -1.0373423e+00
  3.8307497e-01
  2.4338637e-01
  2.3216806e-01
  4.8664054e-01
  7.0726022e-02
 -5.8967561e-02
 -5.3413862e-01
 -3.7513316e-01
  1.8856959e-01
  1.0517910e-01
 -4.6638328e-01
  1.9387750e-01
 -1.4950703e-01
  7.7715844e-01
 -1.8130953e+00
 -2.5112200e-01
 -1.7360884e-01
 -4.0245494e-01
 -6.6192168e-01
 -7.4102841e-02
  7.4386108e-01
  3.6863196e-01
 -2.9423565e-02
  2.3071869e-01
  8.0215585e-01
 -1.2561199e-01
 -4.1526791e-01
  1.3858474e+00
 -1.0798586e-01
  1.2716585e+00
  2.6583549e-01
 -6.8293959e-01
 -2.9884204e-01
  4.6576744e-01
  3.5076806e-01
  6.4035839e-01
  1.6196254e+00
 -3.3074427e-01
  6.2711191e-01
  1.7158298e-01
 -3.2545277e-01
  3.1311330e-01
 -1.2683789e-01
 -3.5080725e-01
  5.3683281e-01
 -1.2968502e+00
  2.7203384e-01
  1.6132258e-01
  1.2559053e-02
  3.4316897e-01
  3.2278797e-01
 -3.9930150e-01
  7.6535934e-01
  6.4162803e-01
  2.4633403e-01
 -8.4621005e-02
 -3.1790426e-01
 -3.9860818e-01
  5.5067641e-01
 -1.7615050e-01
 -3.8037857e-01
  4.0358162e-01
  2.4438378e-01
  6.3187295e-01
 -1.3467851e-01
  1.6874556e-01
 -3.2627541e-01
  3.2040635e-01
 -1.0629140e-01
 -1.8332310e-01
  3.3398874e-02
  4.2143995e-01
  7.8616917e-01
 -5.5787551e-01
  7.2020851e-02
 -3.4442294e-01
 -2.8786254e-01
  1.7121942e-01
 -3.8196886e-01
  8.9169466e-01
  4.3873063e-01
  1.3287009e-01
  2.4824021e+00
 -6.2063766e-01
  2.5530425e-01
  1.3153847e-01
  4.2589816e-01
  1.5353531e-01
 -4.2070559e-01
  4.6809528e-02
  1.7886995e+00
  1.3494998e+00
 -1.0100093e+00
  2.4592764e+00
 -3.7223083e-01
 -9.8107827e-01
  1.6080350e+00
  1.2718386e-02
 -3.1130693e+00
 -1.2002347e+00
  3.8892907e-01
  1.4094132e-01
  9.1014975e-01
 -1.1125317e-02
 -1.2659155e-02
 -1.3473099e-02
  6.4496845e-01
 -9.0194601e-01
 -5.5995178e-01
 -5.3699052e-01
  2.1497217e-01
 -8.5827637e-01
 -4.4658998e-01
  8.6641574e-01
  7.3702544e-01
 -3.5202789e-01
 -1.0908369e+00
  3.1220952e-01
  4.3957803e-01
  4.8827258e-01
  5.1722031e-02
 -1.2689967e+00
  2.0209976e-01
 -5.3057611e-01
 -4.1489258e-01
 -3.2808632e-01
 -1.2016402e+00
  1.6331766e+00
 -1.1175102e+00
 -2.2870200e+00
 -1.8588461e+00
  8.4335083e-01
  1.3994884e+00
  9.3133283e-01
 -8.0391669e-01
 -6.4243233e-01
  3.4990147e-01
  7.7142817e-01
 -8.1774515e-01
  7.2029762e-02
 -3.7535128e-01
  5.6109953e-01
  4.6966851e-01
 -1.1913115e+00
 -2.3859259e-01
  4.0827847e-01
  6.9282472e-01
 -1.7101951e-01
 -1.3202219e+00
 -3.0837578e-01
  7.2574192e-01
  1.2380141e+00
 -7.2809923e-01
  4.4659007e-02
 -3.4548837e-01
 -5.2504915e-01
 -3.7029016e-01
 -9.0766720e-02
 -6.8708140e-01
 -6.1972451e-01
  1.1250538e-01
 -1.1688375e+00
  2.0694083e-01
  4.6807581e-01
  9.8561980e-02
 -6.6324800e-01
 -2.4411894e-01
 -5.7158399e-01
  2.0385420e-01
 -6.7411149e-01
 -1.2440780e+00
 -3.8583034e-01
 -7.8051955e-01
  1.4101282e+00
  4.2280622e+00
 -8.5967302e-02
  1.2114932e-02
  3.2401192e-01
 -1.6277041e-02
  6.0753596e-01
 -6.4587891e-03
 -2.3341686e-01
  3.0455363e-01
  1.1179645e-01
 -1.8234667e-01
  1.0265397e+00
 -1.9336140e-01
  1.1130818e+00
 -1.1370752e+00
  6.8726510e-01
  2.9185417e+00
  1.2883261e-01
 -1.1144114e+00
  2.5601572e-01
 -1.4659539e+00
  8.0918831e-01
  3.8459203e+00
 -4.4081572e-01
  8.0796397e-01
 -1.0560426e+00
 -4.1317126e-01
 -6.0558140e-01
  4.0734005e-01
  2.4007618e-01
  2.5522923e-01
  5.8632534e-02
 -1.3535926e-01
 -1.5042427e+00
 -7.8551374e-02
 -7.0508045e-01
 -2.8202033e-01
 -1.1482495e-02
  5.5349058e-01
  9.3126826e-02
  9.8572642e-01
  1.2699623e-01
  1.2752466e-01
 -1.3370763e+00
 -2.0573415e-01
 -8.5674387e-01
  1.9159937e-01
 -7.5049305e-01
 -9.3835616e-01
  8.1017536e-01
 -3.7267825e-01
 -1.1263266e+00
 -1.8813292e+00
 -1.2505525e-01
 -1.8026098e+00
 -1.5701865e+00
 -8.2417321e-01
  1.1624321e-01
  7.5366199e-01
  1.9193894e-01
 -8.8913047e-01
 -1.2826914e+00
 -6.2688431e-03
 -9.5967507e-01
 -1.4408060e+00
 -2.8784642e-01
 -5.4933715e-01
  1.7549800e+00
  8.6748654e-01
  1.4663855e-02
 -6.4471799e-01
  9.6760410e-01
 -1.5537968e+00
 -7.4027232e-03
  2.9348093e-01
 -1.4332099e-01
  8.9566922e-01
  1.2125658e+00
 -4.3270749e-01
 -2.2000475e-01
 -5.0718051e-01
 -1.8842685e+00
  1.0568209e+00
  4.4396070e-01
  2.9423618e-01
  1.0365193e+00
  1.7411691e-01
  3.7873837e-01
  1.0619205e+00
 -9.3194854e-01
 -5.9183985e-01
 -1.0837416e-01
  3.6802185e-01
  1.4504990e-01
  5.2603650e-01
  3.2721739e-02
  7.9723403e-02
  3.0839255e-01
 -1.5563273e-01
 -1.3027699e-01
 -1.4373448e-01
 -2.4454331e-02
  3.0250493e-01
  9.3843251e-02
  6.3056070e-01
  3.6609998e-01
  3.6871716e-01
  1.7611939e-01
 -6.5972388e-01
 -1.1247928e-01
  1.5733961e-02
  2.3144590e-02
 -3.3506262e-01
  6.1846435e-02
 -5.0137651e-01
  8.9086884e-01
 -5.8176056e-02
 -1.0829033e+00
 -7.9281187e-01
 -1.1599621e+00
 -5.7067084e-01
 -1.9962850e-01
 -3.7136853e-01
 -2.4419132e-01
 -3.3241796e-01
  1.2294102e-02
  4.1410085e-02
 -3.0845541e-01
  7.9027855e-01
  2.7760765e-01
  5.9032601e-01
  8.4987152e-01
  6.1009371e-01
 -2.4879231e+00
 -9.9278852e-02
 -3.4620416e-01
 -1.5584727e-01
 -3.1506929e-01
  3.1980321e-01
  4.9842900e-01
  9.7712284e-01
 -1.7478426e-01
 -2.2315174e-01
 -3.4208527e-01
  5.6373161e-01
 -8.6224771e-01
  1.3827404e-01
 -1.7060670e-01
 -1.2830514e-01
 -3.5188287e-01
 -4.7254312e-01
  3.5358489e-01
  3.4780458e-01
 -1.9554919e-01
  6.9815296e-01
 -1.4576545e-01
 -6.8723834e-01
 -4.8096675e-01
 -6.2385535e-01
  2.0493742e-02
 -2.6540819e-01
 -7.3709381e-01
 -2.0162360e-01
 -1.3415314e-01
  3.6329314e-01
 -6.9604868e-01
  3.6611700e-01
  1.0444989e+00
 -9.8529112e-01
  4.8436657e-02
 -3.1654754e-01
 -3.2152912e-01
  7.0344472e-01
  2.3994455e-01
 -4.0816101e-01
  4.7404554e-01
  2.8149992e-02
 -2.8867628e-03
 -4.2180502e-01
  1.8820336e-01
 -7.7090824e-01
  1.5890719e+00
 -4.1556790e-02
 -4.3316290e-01
 -9.1113530e-02
  7.0427006e-01
  1.7630512e-02
 -7.5395226e-02
 -2.9195926e-01
  1.7549768e-01
  2.4136315e-01
  4.2359710e-01
  2.9580364e-02
 -1.2528399e-01
  4.8493576e-01
 -2.6480660e-01
 -7.1734786e-01
  7.6380718e-01
  1.5421922e+00
  2.3831405e-01
  5.4640621e-01
  1.7933635e-01
  7.3961377e-01
  7.4567300e-01
  7.3350096e-01
 -2.4838732e-01
  4.3737817e-01
  1.4624518e-01
  7.0915961e-01
  2.0003319e-01
  1.1803589e+00
  1.4885333e-01
 -9.4162254e-03
  7.4203217e-01
  2.7746835e-01
  2.9845437e-01
 -1.9258595e-01
 -5.7461959e-01
 -1.5084948e-01
 -9.5141158e-03
  7.1610153e-01
  4.4557150e-02
 -4.9829653e-01
  3.3120501e-01
 -3.9121071e-01
 -5.5724794e-01
 -1.6831130e+00
 -4.3493482e-01
  4.8593227e-02
 -6.3182151e-01
  1.7444792e-01
  7.6516055e-02
 -1.3726459e-01
 -6.6790700e-01
  3.5769429e-02
 -2.3195282e-01
 -1.2806844e+00
  5.3013608e-02
  1.8205626e-02
  4.1171294e-01
 -2.6336119e-01
  3.0538207e-01
 -3.1271395e-01
 -4.9686104e-02
  2.8001446e-01
 -3.3380631e-02
 -3.6173919e-01
  4.9752364e-01
 -5.0325793e-01
  6.0113662e-01
  2.9625037e-01
  2.2530144e-01
 -4.7009090e-01
  7.5871682e-01
  1.5637581e-01
 -1.0566152e+00
  9.9454622e-04
 -1.4008786e-01
  9.5330194e-02
 -9.5922989e-01
 -4.1221586e-01
 -2.2724432e-01
 -1.2602384e+00
  1.0038109e+00
 -6.2137097e-01
  1.9475413e-02
 -6.6012955e-01
  1.5062326e-01
 -1.2703262e-01
  4.1042235e-02
 -1.6162196e-01
 -1.3657281e+00
 -3.6421034e-02
  6.0573167e-01
 -7.0751750e-01
  3.2885230e-01
  2.9335070e-01
  3.3659196e-01
 -2.5886786e-01
  8.0392861e-01
  5.7974339e-01
 -3.2338530e-01
  3.2535347e-01
  6.2143666e-01
 -7.3524737e-01
 -4.2593768e-01
 -5.7996529e-01
 -6.0859483e-01
  6.3936883e-01
 -8.5433975e-02
 -6.7136699e-01
  1.8517895e-01
 -2.9022023e-01
  4.2663649e-01
  8.3269604e-02
  7.3722243e-01
 -3.5232949e-01
  6.0641998e-01
  3.8339996e-01
  2.8204480e-01
  7.7698849e-02
 -2.9228985e-01
 -2.1775688e-01
  3.6840498e-02
  1.8224251e-01
 -4.6599481e-02
  1.7025688e-01
 -1.0801272e-01
  6.4283234e-01
 -3.5725299e-01
 -1.9989154e-01
  1.1861150e-01
  8.9710861e-02
  3.9846358e-01
  8.0454832e-01
  1.2282885e-01
 -1.9563505e-01
  1.8754667e-01
 -2.5955451e-01
 -3.1182899e+00
 -3.7282046e-02
 -2.1573411e-01
 -5.1916283e-01
  1.6011967e-01
 -1.1315233e+00
  3.7297595e-01
 -7.4074733e-01
  1.7711174e-01
  2.2881201e-01
  7.5308454e-01
  3.5374182e-01
 -3.2372259e-02
 -1.2596267e-01
  3.4957874e-01
  5.0103360e-01
 -2.7682289e-01
 -2.8678137e-01
 -1.8590519e-01
  3.2715282e-01
  8.6670578e-01
 -4.1072929e-01
  1.0931470e-01
  2.2600953e-01
 -6.9102907e-01
  7.2707564e-02
 -2.0839724e-01
 -2.4360506e-01
 -5.2976835e-01
  2.7847755e-01
 -4.3428424e-01
 -1.9330229e-01
 -5.2579477e-02
  1.0968789e-02
  4.5550078e-01
  4.7182590e-02
 -1.7520663e-01
  5.3777151e-02
  7.6361887e-02
  3.9720327e-02
 -1.5357643e-01
  1.6117752e-01
 -4.4881973e-01
 -3.1438214e-01
  1.9717902e-01
 -1.9064705e-01
 -4.9799553e-01
 -3.8121897e-01
  7.8775084e-01
 -4.1936707e-01
  8.2446821e-02
 -1.7067674e-01
 -1.2777251e-01
  2.3583820e-01
  3.1528196e-01
 -2.0124342e-01
 -2.5662535e-01
  5.0677400e-02
 -6.9585985e-01
 -3.9729697e-01
  4.0810460e-01
 -5.1456994e-01
 -4.9218327e-01
  6.0212601e-02
  2.4089134e-01
 -1.2060491e+00
 -4.6285072e-01
  5.4019713e-01
  4.4746545e-01
  2.1371961e-01
  8.6766891e-02
  7.2746607e-04
  1.5700227e-01
 -5.7192009e-02
 -6.0431576e-01
 -6.7527384e-02
 -1.5198337e-01
 -2.5714254e-01
 -1.0663255e+00
  1.1586168e-01
  2.8226230e-01
  2.9167479e-01
  1.9023778e-01
 -5.6693096e-02
 -1.4308634e-01
  2.3937730e-02
 -3.1617481e-01
  4.4972479e-01
 -1.6395652e-01
  2.4685009e-01
 -1.0569434e+00
  6.2464666e-01
 -1.3993948e+00
 -1.0213073e+00
 -4.3101326e-01
  3.5223266e-01
 -6.1664265e-01
  2.0397072e+00
  4.9198604e-01
 -2.3834620e+00
  5.0875610e-01
 -1.6801076e-01
 -1.2967825e+00
 -3.4852773e-01
 -1.8810144e-01
 -3.7220073e-01
 -1.6029401e-01
 -3.7584037e-01
 -3.1746241e-01
  5.0392145e-01
 -3.9434361e-01
 -6.4627981e-01
 -6.4404702e-01
  6.6302218e-02
 -5.4575789e-01
  1.0982376e-01
 -1.3082005e+00
  1.2482172e-01
 -5.5304623e-01
  4.9094391e-01
  5.7209283e-01
 -4.7031093e-02
  6.0590345e-01
  2.4831396e-01
 -4.5486757e-01
 -7.9558745e-02
  6.7188561e-01
 -1.4068249e-01
 -1.8354840e+00
  5.4703597e-03
 -2.3114116e+00
 -9.1419685e-01
 -1.8504150e+00
  5.5412638e-01
 -1.8218489e-02
 -1.4661035e-01
 -2.3100970e+00
  1.9007759e-01
 -3.9849052e-01
 -9.5149559e-01
 -5.9092349e-01
 -5.9100145e-01
 -7.3768747e-01
 -6.7357838e-01
  4.5063677e-01
 -3.9551839e-01
 -3.6280438e-01
  9.3169391e-02
 -8.3718884e-01
 -9.8197019e-01
 -4.0859354e-01
  3.9434314e-01
  1.3172953e-01
  4.1521478e-01
 -1.1315113e-01
 -6.1420668e-02
 -1.5591128e-01
  1.8490149e-01
 -4.7560028e-05
 -1.0967306e+00
 -2.7702627e-01
 -4.2801268e-02
 -2.5554028e-01
 -3.8788181e-02
  3.7025720e-02
 -1.4492285e-01
 -1.0355275e-01
 -1.0612994e+00
  3.1422979e-01
 -5.1263380e-01
 -3.2406926e-01
  3.7106371e-01
  6.6294169e-01
  6.6172495e-02
  4.9570459e-01
 -2.6165816e-01
 -4.8459169e-01
  1.4807653e+00
  5.7886428e-01
  4.8790734e-02
 -2.3215871e-01
 -3.8552892e-01
 -2.9269928e-01
  2.1880332e-01
 -3.3801895e-01
 -5.9929486e-02
  1.1837109e-01
 -3.0907774e-01
  5.4451525e-02
  3.9269719e-01
 -5.4200089e-01
  2.7037695e-01
 -8.4048279e-02
 -1.6511539e-01
 -2.2063410e-01
 -1.6422322e-01
  8.9122094e-02
 -4.6261288e-02
  1.9728149e-01
 -2.7027318e-01
 -4.7921377e-01
 -1.4440110e-01
  3.4241927e-01
 -9.3130976e-02
 -9.3015683e-01
 -5.7243872e-01
  4.7027671e-01
  2.2739875e-01
  4.7665501e-01
  4.1134208e-01
  1.2984908e-01
 -1.4831293e+00
  8.4426665e-01
 -9.4942763e-02
 -4.0790230e-01
  2.5260422e-01
  1.2328026e-01
 -6.2548590e-01
 -1.0775957e-01
  2.9338965e-01
 -8.8103318e-01
  4.5214573e-01
 -5.3220057e-01
  5.1571602e-01
 -2.1107493e-01
 -2.9270002e-01
  1.3539470e+00
  1.6320282e-01
  3.5900855e-01
 -5.1254934e-01
 -7.8594899e-01
  2.3864683e-02
  5.5789880e-02
  2.7990615e-01
 -5.8958882e-01
  3.3384085e-01
 -2.7920350e-01
 -6.2858604e-02
  3.5620760e-02
 -2.3412153e-01
  3.8766101e-01
 -4.2730314e-01
 -3.9650556e-02
 -4.3928292e-01
  3.5391542e-01
  3.4125912e-01
  3.2929149e-01
 -3.3295665e-02
  1.9139458e-01
  1.2652406e-01
 -3.4290218e-01
 -6.5314710e-02
 -1.9803184e-01
 -7.4346238e-01
 -1.6926111e-01
  6.5864980e-02
 -3.5215311e-02
 -6.3820797e-01
 -2.3043653e-01
 -1.4206593e-01
 -2.8779623e-01
  8.0857414e-01
 -5.3498503e-02
  5.1331007e-01
 -1.0021057e-01
  4.3434995e-01
 -2.1216707e-02
 -2.5534448e-01
  1.4643551e-01
 -5.8747935e-03
 -4.1067770e-01
 -5.4442775e-01
 -6.7781669e-01
  1.9397217e-01
 -6.1274457e-01
 -6.4486027e-01
 -5.8592820e-01
 -2.4296139e-01
 -2.9374677e-01
 -8.8781172e-01
 -3.9958194e-01
 -7.6494658e-01
  2.3532800e-02
 -3.0741918e-01
  6.3500941e-01
 -4.8421553e-01
  5.7630473e-01
  2.8254431e-01
  2.2618482e-01
  2.1031171e-01
 -2.8919687e-02
 -1.4432593e-01
 -4.2865105e-02
 -4.5947388e-01
  1.6925392e-01
  7.0259160e-01
 -1.9508984e-02
 -1.0709184e-01
  3.4581459e-01
 -3.1030044e-01
  3.8466388e-01
  6.2569439e-01
  3.9009139e-01
 -5.2278113e-01
 -8.6287522e-01
  3.2084793e-01
  3.1454870e-01
  1.4105673e-01
 -8.7345922e-01
  1.9128148e-01
 -2.0827539e-01
 -3.9466125e-01
  1.0392065e-01
 -2.4068609e-01
  1.9265601e-01
  5.8922261e-01
  1.7615996e-01
 -5.1879659e-03
  2.9571885e-01
  6.3228942e-02
 -3.0694555e-02
  8.9348495e-02
  9.1067094e-01
 -1.3005747e-01
 -3.1313124e-01
 -3.5017149e-03
 -9.8912567e-01
 -4.1553545e-01
  8.9208239e-01
  7.0034087e-01
  1.5415603e-01
  7.8776889e-02
 -8.3524972e-02
  2.8216627e-01
  2.1873364e-01
  2.5017169e-01
 -2.6952405e+00
  9.1768220e-02
  2.2283669e-01
  2.8664643e-01
  1.1537032e-02
 -1.0084799e-01
  2.2089766e-01
  4.6813495e-02
 -1.5211268e-01
 -2.0750253e-01
  4.5988206e-02
  1.5388013e-01
  1.0976146e-01
 -2.3555648e-01
 -7.3970544e-01
 -4.5616034e-01
 -5.0414532e-01
 -6.1277829e-02
  1.8687390e-02
  6.9844335e-01
  4.6574980e-01
  1.6609196e-01
 -3.2206985e-01
  2.7163613e-01
  3.2411793e-01
 -5.4824549e-01
  1.4435460e-01
 -1.3201390e-01
 -5.0794631e-01
 -3.0654570e-02
 -3.9054886e-02
  1.5374652e-01
  3.2013091e-01
 -1.9012442e-01
 -4.9939626e-01
 -7.1763092e-01
 -4.7685679e-02
 -6.1391973e-01
  2.3314429e-02
 -7.6036714e-02
  7.5915963e-03
 -6.9927223e-02
 -3.5856374e-02
  3.6031321e-01
 -2.5869945e-01
 -1.1408351e-01
 -5.0541218e-02
 -5.3983629e-03
 -7.6422518e-01
  1.8664157e-01
  1.6557992e-01
 -1.8798113e-01
  2.0765744e-02
  1.0843863e-01
 -3.8338548e-01
  9.7102582e-01
  1.0361094e+00
  2.8236339e-02
 -5.2763939e-01
  2.0024504e-01
 -7.7181315e-01
  4.9879092e-01
 -2.7144802e-01
 -2.3361899e-01
 -3.7093696e-01
 -5.3218651e-01
 -2.6657191e-01
  7.2384518e-01
 -1.1726136e+00
 -3.3650416e-01
  1.2582542e+00
 -5.9712476e-01
  6.9672352e-01
  8.6023414e-01
  2.7340049e-01
  1.0942263e-01
 -9.7669475e-02
 -3.0558479e-01
  5.1113602e-02
  2.4163557e-02
  1.3031223e-01
 -2.4642734e-01
  5.6374539e-02
  4.0585691e-01
 -8.7584871e-01
 -2.1349479e-01
 -4.1968545e-01
  8.7372881e-01
 -1.8650028e-01
  1.9895874e-01
  4.5860875e-01
  1.6280374e-02
 -3.1391713e-01
 -6.2979066e-01
  1.4732336e-01
  5.4531980e-01
  1.8639211e-01
 -6.3167042e-01
 -6.2932247e-01
  1.1236746e+00
  2.6576397e-01
  3.9142686e-01
 -6.1433321e-01
  4.2751160e-01
 -5.0696331e-01
  2.5885001e-01
  1.0497780e-01
 -3.7081696e-02
 -1.1382578e-01
  4.5473340e-01
 -5.0729328e-01
 -1.4647402e-01
 -2.7807191e-01
  7.5790256e-02
 -1.9019757e-01
  2.1304153e-01
 -7.0645392e-01
 -1.9491957e-01
  2.9528669e-01
  2.8238714e-01
 -9.5854014e-01
  9.4366863e-02
 -3.3703002e-01
  3.9626140e-02
 -3.8165238e-01
  5.5816662e-01
  2.4673371e-01
 -1.2512480e-01
 -5.4074883e-01
 -1.1710119e-01
 -2.4860698e-01
 -3.4508002e-01
  4.6430373e-01
 -8.1962965e-02
 -1.0619836e-01
 -8.0630231e-01
 -1.1098348e-01
  2.9700443e-01
 -8.9684170e-01
  4.9786714e-01
 -1.3143648e+00
 -2.6469257e-01
  2.1845953e-01
 -1.9123726e-01
 -4.2260379e-01
 -8.8771179e-02
 -6.7607498e-01
  1.4266194e+00
  2.7530921e-01
  5.3389007e-01
 -5.3973768e-02
  5.5737346e-01
 -1.6722496e-01
 -7.0639066e-02
  4.7470072e-01
  8.2114297e-01
 -5.6769770e-01
  2.6118360e-03
 -3.1158122e-01
 -3.7131386e+00
 -2.1762645e-02
 -2.7908480e-01
  4.9809441e-01
  1.6822212e+00
 -9.0294920e-02
  3.6007279e-01
 -2.1021256e-02
  1.5214388e+00
 -3.6503813e-01
 -2.0126063e-01
 -1.4610998e-01
 -2.6328218e-01
 -4.4208050e-01
 -3.3732942e-01
 -4.8275453e-01
 -2.3950136e+00
 -2.8459460e-01
  2.3964588e-01
 -7.0299178e-01
  1.3980410e+00
 -5.0992876e-01
 -3.3266571e-01
  7.5115347e-01
 -2.9797805e-02
 -2.1691839e-01
  1.5342278e+00
  4.4079944e-01
  4.7570071e-01
 -1.4625841e-01
  1.1510007e-01
  5.2796930e-01
  3.1916913e-01
 -1.1959055e-02
 -7.1601892e-01
  2.6877689e-01
 -3.2485425e-02
 -1.7421390e-01
 -1.4398363e-01
 -4.2865124e-02
  4.2195490e-01
  5.0568329e-03
  1.4181037e-01
 -4.7853607e-01
 -1.5157244e-01
  5.1542407e-01
 -2.2650731e-01
 -3.9548716e-01
 -8.8143021e-02
  1.3779885e-01
 -9.1994151e-02
  1.5012702e-01
  6.9263983e-01
  3.3876720e-01
 -5.2086365e-01
  8.8965893e-01
  1.7863008e-01
 -1.5928721e-01
  3.6766112e-04
 -4.1811860e-01
  5.8928952e-02
  7.7181771e-02
  5.8140963e-01
 -5.1838779e-01
  7.9489559e-01
  5.2986014e-01
  1.8290128e-01
 -3.0975798e-01
  1.4756788e-01
 -2.7804223e-01
 -6.0442492e-02
 -5.1817763e-01
 -5.4745185e-01
  1.7771004e-01
  3.5237786e-01
 -3.1937790e-01
  1.0509720e+00
 -4.5475375e-02
  1.0543571e-01
 -1.1766538e-03
  5.5443859e-01
 -2.0175390e-01
 -1.3027825e+00
 -4.1186714e-01
  6.1752692e-02
  5.2830875e-01
 -3.6380404e-01
 -3.0370441e-01
  3.3127531e-01
 -1.2386969e-01
 -6.5794252e-02
  2.2284432e-01
  5.1339149e-01
  7.6907784e-02
  4.4704822e-01
 -4.1901565e-01
  1.2312024e+00
 -6.3360047e-01
 -7.3556185e-01
 -8.7253201e-01
 -8.7922937e-01
 -7.6481938e-01
 -1.5826970e-01
 -5.8550143e-01
 -5.1202178e-01
  4.7421864e-01
  4.8764430e-02
 -5.5399567e-01
 -5.6975251e-01
 -2.3272605e-01
 -1.0471058e+00
  7.6945001e-01
 -6.9770682e-01
 -2.2595774e-02
 -3.0471724e-01
  7.0682222e-01
  1.3232892e+00
 -7.2401577e-01
  1.8854015e+00
  6.3058203e-01
 -5.1664703e-02
 -1.2750086e+00
 -1.3634028e+00
  6.3819773e-02
 -2.4801441e-02
  2.3576140e-01
  9.2992967e-01
  4.5113343e-01
 -1.0984346e+00
  3.5766718e-01
 -1.6021853e-02
  2.3172243e-02
 -6.5207356e-01
  1.1266412e-01
  4.4749790e-01
 -7.1059406e-02
  6.0945553e-01
 -5.6418162e-02
  7.0919353e-01
 -9.3088913e-01
 -4.8779538e-01
 -6.2147211e-02
  7.3909956e-01
  8.4679358e-02
  1.0199715e+00
  2.9753044e-01
  2.3130687e-01
 -8.1060362e-01
 -8.9007694e-01
 -9.0953863e-01
  2.6853612e-01
  5.5787802e-01
  2.1426113e-01
  8.3158189e-01
  8.9832515e-01
 -6.5933204e-01
  1.2043455e+00
 -2.7346316e-01
 -4.8937237e-01
 -8.2482666e-01
  5.1697803e-01
 -5.5754960e-02
  8.0036300e-01
 -4.7743326e-01
  2.1276700e-01
  3.6641151e-01
 -4.8235351e-01
 -2.9472002e-01
  3.2577433e-02
  8.2925439e-01
 -8.9637530e-01
  4.6052471e-01
 -4.5423090e-01
  3.6471042e-01
 -3.9568868e-02
  3.1296289e-01
  4.6251225e-01
 -1.3110118e-01
 -2.9654542e-02
 -1.4940155e+00
 -9.1004148e-02
  6.3066959e-01
  3.5176373e-01
 -3.2532918e-01
  5.0299889e-01
 -9.3205827e-01
 -2.3940407e-01
  3.5265490e-01
 -5.3245395e-01
  5.5203533e-01
 -2.4103485e-04
  3.5801187e-01
  6.4189339e-01
  9.6004069e-01
  7.1854407e-01
 -5.9090221e-01
  2.2806451e-01
 -1.2839383e+00
 -1.3513891e+00
  9.7081274e-01
 -2.0399827e-01
 -3.6574576e-02
 -2.8214875e-01
  8.9664638e-02
  3.8899831e-02
  9.9671535e-02
 -6.6123819e-01
 -7.2452672e-02
  2.1029766e-01
  1.6402392e-01
  1.7016692e-01
  1.4757268e-01
 -5.6633376e-02
  1.1228997e-01
  1.7116967e-01
  6.2299073e-01
  2.0893956e-02
  4.6466348e-01
 -1.0666087e-01
  8.3519685e-01
  1.3571611e-01
  1.7813931e+00
  2.5152537e-01
 -1.6252908e-01
  2.2902938e-02
  1.4310431e-01
 -3.2687744e-01
 -6.3777441e-01
  9.6482831e-01
  6.2149191e-01
 -7.3701775e-01
 -7.7805966e-01
 -1.3859624e+00
 -2.1013056e-01
  7.1291411e-01
  1.6277356e-01
  1.8772866e-01
 -1.4339916e-01
  3.3940226e-01
 -7.9298131e-02
 -3.2463655e-01
 -3.7173551e-01
 -1.5362559e-01
 -1.6524807e-01
 -2.8295612e-01
 -8.7486960e-02
  5.0858176e-01
  8.8007319e-01
 -2.5713992e-01
  9.2197758e-01
 -1.6499017e-01
 -5.2584106e-01
 -5.6681710e-01
  2.7027366e-01
 -2.3888104e-01
 -4.3741262e-01
  2.9396063e-01
  6.4232516e-01
 -5.0229222e-01
 -4.6024746e-01
 -2.5470901e-01
  1.1426485e-01
  8.1031364e-01
  9.3358763e-02
  1.3228659e-01
 -6.8550932e-01
  1.9080047e-01
 -1.2475797e+00
  2.0313281e-01
  9.8809823e-02
  4.4058375e-02
 -1.3577439e-01
  4.2097029e-01
 -8.8331096e-02
 -1.9081508e+00
 -5.4669654e-01
  1.6184308e-01
 -2.5816575e-01
  2.7044907e-01
  1.1206957e+00
  3.1235760e-01
 -1.6482383e-02
 -4.0741435e-01
  1.9236021e-01
 -5.6535161e-01
 -2.0078595e-01
 -5.5436891e-01
  1.5773167e-01
 -6.4250445e-03
 -2.7022563e-02
  6.3973093e-01
  7.9816538e-01
 -3.9103028e-01
  1.8614845e-01
  2.7493364e-01
 -3.0128548e-02
  1.2663282e+00
 -1.3020781e+00
 -6.0140628e-01
  3.8404435e-02
  3.7844706e-01
 -3.8498715e-01
  2.1578032e-01
  2.6386404e-01
  1.0227493e-01
  4.3285859e-01
  1.0464351e-02
  2.9869676e-01
 -1.6160099e-02
 -2.2248307e-01
  1.0648795e-01
 -4.4838083e-01
  1.1452772e-02
 -1.8818335e-01
 -5.9806401e-01
  2.5800431e+00
  2.3508854e-01
  8.1668191e-02
  6.8154141e-02
  2.3740466e-01
  1.5010773e-02
  1.0676140e-02
  1.2604044e-01
 -3.4594804e-01
  6.1745912e-01
  1.8501054e-01
 -2.0972632e-01
 -7.1446908e-01
 -1.8196939e-01
 -2.1500355e-01
  3.9300576e-01
 -4.2662200e-01
 -1.7639044e-01
 -5.0057255e-02
  2.3852153e-01
  3.2941431e-01
 -3.8512893e-02
 -1.2089651e+00
 -3.5105395e-04
  2.0515881e-01
 -1.5604483e-01
  4.3360460e-01
 -3.1746209e-01
 -3.5735977e-01
  4.8877329e-01
  2.4357207e-01
 -3.2817027e-01
  9.3707070e-02
 -6.6553855e-01
 -7.0873332e-01
  5.7907518e-02
 -2.5933295e-02
 -2.9251542e-02
  1.3397166e+00
  3.8695902e-01
  8.2835458e-02
 -1.4889956e+00
 -2.7111948e-01
  1.4987793e+00
 -4.4546127e-01
  1.7335285e-01
  1.7600076e-01
  6.4398974e-01
  2.2613689e-01
  2.5264758e-01
 -4.9480859e-02
 -4.4968758e-02
 -7.9848397e-01
  1.3807097e-01
  2.7049175e-01
 -1.8925064e+00
 -1.1077904e-01
  6.1927420e-01
  1.5451324e-01
 -4.0983698e-01
  1.3546015e-01
 -4.5585135e-01
 -4.9822908e-02
  1.3188719e-02
 -2.3014899e-01
  8.3259486e-02
 -5.3547662e-01
  2.8798413e-01
  2.7303916e-01
 -3.8335405e-03
 -5.3494704e-01
 -4.1692141e-01
 -1.2160075e-02
  2.7170879e-01
 -5.4222509e-02
  5.2407062e-01
 -5.3307056e-02
  8.7189317e-01
 -5.9257382e-01
 -1.0286119e+00
  1.0380676e+00
 -5.2173114e-01
 -1.8411117e-02
 -4.3413195e-01
  5.0967616e-01
  5.3489894e-01
 -7.0560090e-02
 -1.0453892e-01
 -4.6347033e-02
  1.4858015e-02
 -2.0252163e-02
  1.2905382e-02
  6.2075633e-01
 -4.4345544e-03
  3.3075154e+00
 -1.1614490e-01
 -3.9842868e-01
 -1.6563582e-01
 -5.2961808e-02
 -1.6749866e-01
 -2.9395878e-01
  6.5935023e-02
  9.8495096e-01
  6.3712329e-01
  1.9376919e-01
 -3.9293580e-02
  1.3333374e+00
 -4.1819018e-01
  1.9331607e-01
 -5.3922051e-01
 -5.9175915e-01
 -7.7590674e-02
 -7.1399248e-01
 -1.0465271e+00
  3.6104999e+00
  2.3477365e-01
 -1.9668688e-01
 -7.8487533e-01
 -1.4425245e-01
  4.4292298e-01
 -2.0284046e-01
  1.0228338e-01
 -3.8421926e-01
  3.3652842e-01
  2.1527453e-01
  4.1618052e-01
 -3.7412100e-02
  8.4870003e-02
  6.3985370e-02
 -4.8630197e-02
 -1.2639240e+00
 -9.7380745e-01
 -1.1795277e-01
 -7.5341232e-02
  3.8883635e-01
  9.9133477e-03
  6.5090582e-02
 -1.0530145e+00
 -1.1507304e-02
  7.8314178e-02
  2.5279397e-01
  2.0456102e-01
 -1.8704239e-01
 -5.0477690e-01
  1.1790952e-02
  2.7355465e-01
 -4.0516935e-02
 -1.9462509e-02
  1.6790323e-01
  6.5176451e-01
 -4.2353693e-01
 -2.8853621e-02
  6.5260947e-01
  4.6866170e-01
 -2.1409598e-01
 -8.0309778e-02
  4.1619591e-02
  8.5925049e-01
  1.5615350e-01
  3.0375740e-01
 -3.3015904e-01
  4.1300449e-01
  4.6622032e-01
 -7.4505255e-02
  3.5186633e-01
 -2.4364099e-01
 -4.8268059e-01
  5.0116289e-01
  2.1784487e-01
 -1.7227633e-02
 -3.6810979e-02
 -2.4296544e-01
  5.0144511e-01
  1.5219031e-01
 -1.9462025e+00
 -4.1616440e-01
  9.8234218e-01
 -1.8235514e+00
 -5.1801038e-01
 -3.3749187e-01
  1.2247661e-01
  5.4065681e-01
 -7.4124897e-01
 -5.1158160e-01
 -7.3854911e-01
  3.7533388e-02
  6.3601905e-01
 -1.0817901e-01
  7.0577085e-02
 -6.6669875e-01
 -4.0793076e-01
  5.6675375e-01
  1.1818521e+00
  5.8706194e-01
  5.1337832e-01
  1.1174887e+00
 -1.1076365e-01
  9.4266450e-01
 -1.1299104e-01
 -2.0163086e-01
  4.9862314e-02
 -2.0158528e-01
  9.0585345e-01
  1.2024001e-01
  2.2829522e-01
  1.8326975e-01
 -6.3620013e-01
 -1.3234045e-01
 -1.0847958e+00
 -3.1850320e-01
 -1.8784234e-01
 -9.7885638e-01
 -8.5952914e-01
  6.5725631e-01
 -6.1641735e-01
  1.6535549e-01
  8.0404738e-03
 -3.4622854e-01
  6.0734260e-01
 -3.2860824e-01
  1.7716412e-01
  5.1651013e-01
  4.6831456e-01
 -3.5503238e-01
  1.9584125e-01
 -9.7376138e-01
  3.6199972e-01
  3.3809492e-01
 -1.2265544e-01
  3.4731960e-01
  8.6265579e-02
 -1.2930447e-01
 -3.2107520e-01
 -1.7857450e-01
  3.5869992e-01
  2.7419513e-01
 -7.3967940e-01
  5.1985645e-01
 -3.0573942e-02
 -5.3126639e-01
  2.4564151e-02
  2.3705022e-01
  1.6619788e-01
  3.3607775e-01
 -7.0585537e-01
  3.0872449e-01
  2.1733044e-02
 -4.0768710e-01
 -1.1783752e-01
  3.5667536e-01
  1.0985942e-01
  7.6505251e-02
  3.8948235e-01
  7.0457774e-01
  3.3536321e-01
 -5.0733719e-02
 -4.2691790e-03
 -8.0007836e-02
  9.1837847e-01
 -3.5046777e-01
 -2.1254057e-01
 -1.6809329e-01
  1.0047274e-01
 -2.4049647e-01
 -8.7184079e-02
  7.2191024e-01
  7.3542380e-01
  5.3991807e-01
  4.7477931e-02
  2.6593739e-01
 -5.8004028e-01
 -3.9566967e-01
 -1.2045441e+00
 -8.4406799e-01
  2.1030061e+00
 -2.0286577e+00
 -6.0500461e-01
  5.9156053e-02
  3.5436958e-01
 -6.2940699e-01
 -1.1595931e+00
 -4.1091892e-01
 -8.6580193e-01
 -1.8214284e+00
  2.1525230e+00
 -4.8573545e-01
  3.1306654e-01
 -6.2197667e-01
 -7.5319642e-01
  1.7138135e+00
  3.4096739e-01
 -5.4446518e-01
  1.1272626e-01
 -7.3435652e-01
  5.2176821e-01
  8.7949872e-01
  1.2032150e+00
 -1.1550128e+00
 -1.0040624e+00
  3.9916891e-01
  1.0083492e+00
  2.9156765e-01
  2.1141829e+00
  1.3675516e-02
 -5.6886500e-01
  1.0638084e-01
 -7.1419495e-01
 -4.3940175e-01
  1.1643473e+00
  7.7097398e-01
  9.7262037e-01
 -6.5251982e-01
  1.2243322e+00
 -6.5154898e-01
  3.0012119e+00
 -1.6217225e+00
 -3.4955126e-01
  1.4255543e+00
  2.8067935e-01
  4.9929470e-01
  1.1411754e+00
  1.6823732e+00
 -3.8273130e-02
  2.8296450e-01
 -4.3192357e-01
  1.6454067e-02
  1.4340332e+00
 -4.7900328e-01
  1.7259150e+00
 -2.2687337e-01
  2.0749984e+00
  6.8930393e-01
  6.8349671e-01
 -1.0300633e+00
  3.0996677e-01
 -5.1242489e-01
 -6.8179911e-01
  4.5387474e-01
  1.1566333e+00
  1.1835318e+00
  7.8744119e-01
 -9.6519724e-02
  1.1938378e+00
 -1.3775986e+00
  1.4522542e+00
 -3.3544818e-01
  1.9727467e-01
  3.1510046e-01
  1.1779077e+00
 -1.1386360e+00
 -2.3942193e-02
  1.3818210e+00
 -1.2911195e-01
 -3.1867108e-01
  1.0444567e+00
  3.8871357e-01
  9.0934642e-02
  1.2772130e+00
  1.4805855e-02
 -2.3447303e-01
 -1.3136344e-01
 -1.6150911e-01
 -6.3899821e-01
 -2.3459537e-01
 -3.9173859e-01
 -1.1063899e+00
  4.9625176e-01
 -2.0493194e-01
 -5.9437674e-01
 -4.5983219e-01
 -4.2529743e-02
 -1.5647831e+00
 -7.4080867e-01
 -8.3670557e-02
  2.2916780e-01
  5.3390801e-02
  1.0648082e+00
 -9.6979171e-01
 -1.6657786e+00
 -9.7635025e-01
 -2.0770408e-02
  9.6601963e-01
  7.8515343e-02
 -8.0309093e-02
  1.4049129e+00
  1.1017433e+00
 -2.3371485e-01
  2.8464288e-01
  4.4266087e-01
  2.0343690e-01
  3.2972348e-01
 -1.8349787e+00
  3.7297711e-01
 -3.0275202e-01
 -1.7017910e-01
  7.6167125e-01
 -1.0609195e-01
  6.8268460e-01
  3.8217384e-01
 -6.2524281e-02
  1.1157362e+00
 -6.3731986e-01
  1.1458411e-01
  1.0017054e+00
  7.8073746e-01
 -2.7354771e-01
  1.1508430e-02
  2.4712752e-01
 -8.2129806e-02
  8.3149207e-01
  9.0570867e-02
  7.9521495e-01
 -2.1023104e+00
  1.1972809e+00
 -2.1077062e-01
  1.1048241e+00
 -1.6764458e+00
 -4.6340059e-03
 -8.4700637e-02
  1.4177676e+00
  1.2930955e+00
  1.7099392e-01
  1.0723392e+00
  1.2226106e+00
  2.5033867e-01
 -3.9703663e-02
 -1.4945349e-01
 -6.5863413e-01
  1.6757499e-01
  9.5448893e-01
  2.6027539e-01
  7.4582922e-01
  4.9335617e-01
  5.8880472e-01
 -7.9846971e-02
 -5.9332501e-02
 -1.8474725e-01
  1.7941203e+00
  3.8839582e-01
  4.8207882e-01
 -1.1519085e+00
  3.9776665e-01
  5.8606738e-01
 -3.2823107e-01
  5.4682851e-01
  3.1520965e+00
  1.9227418e-01
  1.5911677e+00
  6.8422604e-01
 -9.5758632e-02
 -2.8631018e-02
 -2.8998286e-01
  4.4445401e-01
 -6.6879474e-02
  2.9275370e-01
 -6.3907050e-02
  4.3730098e-01
  9.9214844e-02
 -2.3813394e-01
  4.6461067e-01
 -2.5340202e-01
  1.3970384e-01
  1.4580923e-01
 -1.3117003e+00
 -1.0179894e-01
  1.6253997e-01
  1.4083205e-01
 -5.2524339e-03
 -3.8904741e-01
 -5.0780839e-01
 -7.9975080e-01
  3.6849841e-01
  1.7733332e+00
 -7.7948555e-02
  2.6099601e-01
 -5.6191969e-01
 -8.6858630e-01
 -3.5204459e-02
  9.4332266e-01
  3.0474406e-01
 -5.5347253e-02
  2.0400980e-01
  6.7136616e-01
  5.2410644e-01
 -2.0884059e-01
 -7.0952392e-01
  1.3624670e-01
 -2.7941170e-01
  5.8256751e-01
  1.8981929e-01
  8.8060051e-02
 -9.4066210e-02
 -2.7867112e-01
 -3.5872740e-01
  2.9348731e-01
  7.1165878e-01
  1.8441964e-02
  1.0542201e-01
 -1.8232056e-01
  5.6235874e-01
 -7.8411394e-01
 -4.4157651e-01
 -3.4996125e-01
 -5.7880026e-01
  7.9644780e-04
  2.8115878e-01
  9.5098364e-01
 -3.1215686e-01
 -2.8455645e-01
  4.7798321e-01
  8.8566720e-01
 -1.0897785e+00
 -1.7500556e-01
  2.5997967e-01
 -2.6058403e-01
  1.1025086e-01
  1.3337739e-01
 -6.6301972e-02
  2.7516384e-02
 -1.1132385e-02
  5.5641215e-02
  5.7450515e-01
 -6.3298279e-01
 -4.5865315e-01
 -2.5847080e-01
  2.5033501e-01
 -4.1444355e-01
  3.8980764e-01
  4.6986976e-01
  6.6212428e-01
 -4.1617095e-01
  9.9711046e-03
 -1.8089511e-01
  4.6578482e-01
  1.5462625e-01
 -6.7730427e-01
  3.6905172e-01
  2.7031779e-01
  2.8197026e-01
  1.7572749e-02
 -1.9589119e-01
  1.2706196e-01
  4.3005097e-01
 -2.0848452e-01
  2.0719310e-02
  4.3782398e-01
  5.5098754e-01
  1.8371414e-01
  4.4322032e-02
  1.0837301e+00
 -8.8496363e-01
  7.0660979e-01
  2.6135933e-01
  4.0018743e-01
  5.2574486e-01
 -6.1541717e-02
 -1.4450268e-02
 -4.3941575e-01
 -2.5497612e-01
 -8.8489795e-01
 -1.3012289e-01
 -8.0303244e-02
  5.6326073e-02
 -9.6406750e-02
 -6.7263782e-02
 -1.2105444e-01
 -6.0300231e-01
  1.2521301e-01
  3.5811356e-01
  5.1469153e-01
 -4.4107890e-01
 -1.3387125e+00
 -1.6448367e-01
 -8.5893542e-02
 -2.1910278e-01
  9.5080447e-01
 -8.3978379e-01
 -6.1117005e-01
 -8.2988948e-01
 -1.7555380e+00
 -1.9942071e-01
 -5.3087234e-01
 -2.4088745e-01
 -4.2454454e-01
  2.0011465e-01
 -4.9008223e-01
 -6.5313488e-02
  4.8184678e-01
  4.5253137e-01
 -7.3267490e-01
  8.8715893e-01
  2.3017486e-03
 -4.5381659e-01
  3.4581032e-01
 -3.3645901e-01
  1.1719040e+00
  7.1433359e-01
 -4.2864677e-01
 -8.0828273e-01
 -9.6525919e-01
  6.1426169e-01
  1.9198197e-01
  8.4893566e-01
  9.9152319e-02
  3.2639763e-01
  5.8487636e-01
 -5.3998518e-01
  2.2173940e-01
 -8.0313987e-01
  8.4196442e-01
  3.7238848e-01
  8.8072628e-01
  6.5571463e-01
 -1.7650250e-02
  4.3780425e-01
  2.5463441e-01
 -3.6931232e-01
  3.4352964e-01
  4.9773273e-01
  3.2218847e-01
 -3.4248272e-01
 -9.4528961e-01
  6.5622859e-02
 -1.5476289e-01
  2.0212056e-02
  8.0422953e-02
  2.1269787e-02
  7.2691202e-01
  1.2913682e+00
 -3.2938141e-01
  2.7399185e-01
  8.6676884e-01
 -7.3036587e-01
  2.1802671e-01
  6.8834063e-04
 -1.5157494e-01
  6.1767101e-01
  8.6342561e-01
  2.5711948e-01
 -3.4018034e-01
  2.6134437e-01
  2.3598939e-01
  1.0308998e-02
  2.2524844e-01
 -1.0033976e+00
  4.2733216e-01
  5.9930515e-01
  2.9341400e-01
  3.1688437e-01
  2.9921150e-01
 -9.2789851e-02
 -4.7152302e-01
  1.4968075e+00
  6.6718411e-01
  4.7215234e-04
 -6.8310514e-02
 -2.1064873e-01
 -2.2584002e-01
  2.3958230e-01
  4.9004498e-01
 -2.7479866e-01
  3.1094560e-01
 -2.0477560e-01
 -5.0460041e-01
  5.6829330e-02
  5.1885299e-02
 -8.3184548e-02
  1.3598627e-01
 -1.0762013e-01
 -3.0884178e-02
 -1.8160203e-01
  2.6429680e-01
  3.6346194e-01
 -4.9292216e-01
 -2.6365924e-01
 -9.4129932e-01
 -4.1695535e-01
  3.0318970e-02
  8.0660909e-01
  4.2324269e-01
 -4.5909655e-01
  7.3771529e-02
  1.9793628e-01
  6.7886241e-02
  5.0518248e-02
  3.1817496e-01
 -7.4615854e-01
  7.1554416e-01
  3.6305475e-01
  5.9137572e-02
 -1.5907787e-01
  3.5326272e-01
  3.8740382e-02
  1.0451546e-01
  4.2285350e-01
 -6.9272643e-01
  7.2240096e-01
  3.4648964e-01
  2.5046405e-01
 -2.2449286e+00
  1.9366924e-01
 -2.1919721e-01
 -6.8306136e-01
  2.3382720e-01
  4.8943809e-01
 -9.5169038e-01
 -1.2359157e+00
  5.8053613e-01
  3.6003757e-01
 -2.4070631e-01
 -2.7441338e-01
 -2.1932545e-01
  6.1419261e-01
  1.2729588e-01
  5.4049797e-02
  3.4872755e-01
  9.2662849e-02
 -3.8314205e-01
  7.5938396e-02
  3.7775487e-03
 -6.2745944e-02
 -1.8459319e-01
 -2.9229686e-01
 -7.9507798e-01
  2.0369025e-01
  4.5330054e-01
 -1.0262756e-01
  5.4827072e-02
  1.4541179e-01
  1.0765450e+00
 -9.5106244e-01
 -1.5278970e-01
  2.4642617e-01
  3.1925730e-02
  2.9613507e-01
 -3.2038540e-01
 -5.0128639e-01
  5.4712947e-02
  5.5597389e-01
  3.8469848e-01
  8.6973518e-01
 -7.2386637e-02
  1.9492527e+00
 -1.8239028e+00
 -1.9360349e-01
 -1.2465551e-01
  5.6198776e-02
 -3.5009144e-03
 -1.3012765e-01
 -2.0181659e-01
  4.4924702e-02
 -1.6217625e-02
 -3.7126702e-01
  4.8202264e-01
 -6.2057024e-01
  3.3195594e-01
  3.4599662e-02
 -3.1614129e-02
 -2.6273003e-01
 -1.2801689e-01
  1.1946853e-01
  8.2249962e-02
  1.7281877e-01
 -8.3837384e-01
 -1.2512936e-01
 -2.2598130e-01
 -8.3739415e-02
  5.4960817e-01
  5.7904631e-01
  1.3810453e-01
 -5.4938883e-01
 -1.2052809e+00
 -7.0466399e-01
  8.1319880e-01
 -5.9069729e-01
  5.1830981e-02
 -1.1814762e-01
 -7.5412509e-03
  4.4373962e-01
  1.2581019e+00
  2.2906128e-01
 -3.9988902e-01
  9.8161727e-01
  3.5025563e-02
  8.7458962e-01
  5.9851348e-01
  1.3399915e-01
 -2.1982269e-01
 -6.2764949e-01
  7.1818322e-01
  3.7978297e-01
 -3.2346693e-01
 -5.8458114e-01
  1.6357902e-01
 -6.8494916e-01
 -5.0547785e-01
 -8.6466324e-01
  3.2283103e-01
  4.3426841e-01
 -8.0619872e-01
 -3.2778431e-02
  1.5021451e-01
  1.3365901e+00
 -3.6896415e-02
  5.2566981e-01
 -1.0504970e-01
 -4.5060068e-01
  1.0754099e+00
 -1.5699199e-01
 -5.1210839e-01
 -3.1357324e-01
  6.9479907e-01
  8.2046372e-01
  4.5447577e-02
 -1.1847512e-01
 -6.3085330e-01
  7.5819612e-01
 -2.5781247e-01
 -2.5702831e-01
  4.3255490e-01
  2.2201376e-01
  5.1010984e-01
  2.1414387e+00
 -2.3790237e-01
 -6.8393350e-02
 -3.9759499e-01
  7.4182528e-01
  7.3793180e-02
 -5.9242654e-03
  1.0426947e+00
  8.5772894e-02
 -1.7465281e-01
  1.8615647e-01
 -3.3997807e-01
 -8.7227941e-02
 -2.3079772e-01
  1.6465747e+00
 -1.1933786e+00
  5.7562852e-01
 -1.5111582e-01
  1.7731503e-01
  5.5044729e-01
 -2.2452739e-01
 -1.0950683e-01
 -4.0149638e-01
  7.1886730e-01
 -4.0401408e-01
  2.9012302e-01
  7.3143488e-01
  2.4654424e-02
  9.8877549e-02
  4.3517330e-01
  5.2342061e-02
 -3.7951949e-01
 -4.4269565e-01
  5.7701636e-02
  1.3120355e-01
  2.0042165e-01
  8.8787131e-02
  7.4685849e-02
 -8.0262023e-01
 -9.0584844e-02
 -2.0837752e-02
  1.2359853e-01
 -3.5381451e-01
 -1.2665480e-02
 -1.1338258e-01
  1.0916471e-01
  6.7562455e-01
 -1.4719368e+00
  3.8132825e-01
 -6.0907698e-01
 -9.8227777e-02
 -2.9401788e-01
 -2.0095259e-02
 -5.3782105e-01
  3.1069252e-01
 -1.7097656e-01
 -4.8523188e-02
 -4.3278047e-01
 -1.1812717e+00
  3.0114448e-01
 -6.1850756e-01
 -5.6238955e-01
 -1.0302577e-01
  9.2464823e-01
 -9.5089483e-01
 -1.2293178e-01
 -7.3592842e-02
  1.1898718e+00
  2.6413634e-01
 -4.0182051e-01
  1.4792685e-01
  2.0823482e-01
  7.1802402e-01
 -5.8515364e-01
 -5.2894443e-01
 -9.8981643e-01
  2.8841934e-01
  6.7097867e-01
 -4.9663335e-01
  2.8422475e-02
 -4.1576618e-01
  3.7299791e-01
  6.6034538e-01
  2.9592460e-01
  1.0282755e-01
 -6.4378816e-01
  3.0721298e-01
  1.1603014e-01
 -2.8243613e+00
 -4.0933701e-01
  1.5140940e-01
 -8.0194491e-01
 -4.3533108e-01
 -1.0974482e-01
  3.8362572e-01
  2.2049002e-01
 -1.0400607e-01
 -6.2886578e-01
  1.6652581e-01
 -2.9214722e-01
 -6.8850428e-01
 -2.9955104e-01
 -6.1136758e-01
  3.5998666e-01
 -1.7409305e-01
  1.1920460e-01
 -4.8038206e-01
  1.3527155e-01
 -6.4776605e-01
 -9.1247714e-01
 -3.3289945e-01
 -1.1345115e-01
 -1.4197531e+00
 -3.8687325e-01
 -7.8935005e-02
 -2.5497028e-03
  5.4892212e-01
 -4.8287204e-01
  2.6851296e-01
  1.8781008e-01
 -2.8338107e-01
  1.6609128e-01
  7.0180023e-01
 -2.2118090e-01
  4.1844991e-01
  1.6999602e-01
 -1.5516863e-02
  1.8958236e-01
 -1.3208707e-01
 -8.6572105e-01
 -5.6029326e-01
 -4.0093952e-01
  1.0668746e-01
 -4.1963890e-01
 -3.5799915e-01
  8.5600168e-02
 -1.9705990e-01
  1.6569639e+00
  4.1928840e-01
 -1.1928923e-01
  2.4368246e-01
  5.1311497e-02
  8.2111454e-01
  1.5019207e-01
 -5.1947325e-01
  4.7103950e-01
  8.6998232e-02
  3.8988832e-01
 -6.3052505e-01
  9.0288931e-01
  5.0536746e-01
  6.9828099e-01
  5.4657388e-01
  1.2693626e+00
 -3.5807726e-01
 -1.2232345e-01
  5.4807657e-01
  5.7654783e-02
 -2.4647865e-02
 -8.0558784e-02
 -8.6531603e-01
 -2.3239337e-01
  3.1162262e-01
 -2.7626747e-02
  1.6556905e-01
  2.5101900e-01
  3.9784396e-01
  2.6931619e-02
 -3.1255573e-01
  4.9153441e-01
 -4.8005942e-01
  1.0053715e+00
 -1.0809091e+00
 -8.2415247e-01
 -3.2732401e-02
 -4.0977138e-01
 -2.0109174e-01
  3.4883962e+00
  1.9845439e-01
  3.7055916e-01
 -1.5226237e-01
  2.8739515e-01
  1.7638159e-01
 -7.9049480e-01
  3.3877054e-01
 -2.0728803e-01
  3.4164888e-01
 -1.2140616e+00
  1.9351216e-01
  6.3312635e-02
  3.8834980e-01
  6.1709370e-02
 -3.5841149e-01
 -2.9653299e-01
  1.4096465e+00
 -1.7501420e-01
  3.5775116e-01
  6.1788952e-01
  2.3844160e-02
 -3.8383254e-01
 -3.6822960e-01
  9.8179287e-01
 -2.0052859e-01
  3.6316296e-01
 -6.2740013e-02
  7.7298284e-01
  3.4092245e-01
 -3.3775251e-02
  1.5003729e-01
 -2.8662309e-01
 -4.8751238e-01
  1.0135304e-01
 -9.9536532e-01
  9.3305391e-01
 -2.8092185e-01
 -2.4413623e-01
 -6.6623437e-01
  1.6392452e-01
 -3.3002454e-01
  3.2822419e-02
  1.4897102e-01
 -2.8710000e-02
  3.8833994e-02
 -4.3193358e-03
 -4.6534428e-01
  9.2944860e-02
 -4.3208334e-01
 -1.1670164e-02
  3.3696055e-01
 -2.7896187e-01
 -3.1350946e-01
 -4.7760966e-01
 -5.3417063e-01
 -1.2429792e+00
 -1.4087707e-01
  2.0131214e-01
  1.8027341e-01
  1.8496802e-01
 -1.7740542e-02
 -1.1388530e-01
  9.3661331e-02
  1.3821270e-01
 -3.8238278e-01
 -4.7589749e-01
  4.3996799e-01
  3.7812099e-01
 -4.4157526e-01
  1.1558093e+00
 -2.3042387e-01
  1.5009181e-01
  6.5138906e-01
  1.2255955e-01
 -7.4060148e-01
  5.1118737e-01
 -2.2545485e-01
 -1.3629642e-01
  1.7821275e-01
  2.0761979e-01
 -1.4240928e-02
 -4.7161674e-01
  3.2773048e-01
  8.5032180e-02
 -1.0838423e-01
  3.4681019e-01
 -2.4345569e-01
 -4.7918946e-01
  5.2526373e-01
  1.3172586e-01
  5.9089527e-02
  4.4781843e-01
  1.5345904e+00
 -6.5266572e-02
 -2.2403125e-01
 -2.7793339e-01
 -4.9377289e-01
 -8.7240994e-01
  6.6758299e-01
 -1.8621834e-01
  1.6354351e-01
  3.5521440e-02
  6.6983181e-01
  2.8855222e-01
  6.4688742e-01
  3.6745584e-01
  8.3560631e-02
 -4.1983041e-01
 -8.0068916e-01
 -1.0845052e+00
  1.0329193e+00
  1.5151545e-01
  3.1282771e-01
  4.3083352e-01
 -2.8938130e-01
  7.4784881e-01
  8.8942623e-01
 -2.3117244e-01
 -5.4169047e-01
  2.7792922e-01
  5.3466195e-01
  2.3313034e-01
  1.4247726e-01
  2.0532271e-02
 -1.6679949e-01
  5.9451193e-01
 -3.0274287e-01
 -3.6723498e-01
 -1.0954373e+00
 -1.9192040e-02
 -1.6574761e-01
  6.5142709e-01
  2.9195762e-01
 -5.4403520e-03
  3.5839710e-01
  6.0266469e-02
  3.2429159e-01
 -5.1233941e-01
 -3.2250082e-01
 -7.2250015e-01
  4.9876004e-01
 -1.9382547e-01
 -5.6682128e-02
  1.5780516e-02
  6.4272188e-02
  5.1434183e-01
  1.3367814e-01
  4.1599831e-01
  2.3385370e-01
  1.8951321e-01
 -1.2658162e-01
 -1.1835277e+00
 -2.1967688e-01
 -3.8360479e-01
 -1.5236296e-01
  1.4179049e-02
  3.7055922e+00
  5.2450430e-01
  6.8779761e-01
 -2.0191120e-01
  5.4066527e-01
  1.8534157e-01
 -5.1841281e-02
 -2.7227542e-01
 -8.3602256e-01
 -1.1770791e+00
  8.6743695e-01
 -1.3416449e+00
 -5.2276556e-03
  2.0194484e-01
 -1.6987184e-01
 -3.4021866e-01
  7.0347309e-01
  7.5361079e-01
  3.3102301e-01
 -2.8421633e+00
  3.9235076e-01
 -4.5605175e-02
 -3.2986172e-02
  5.4991251e-01
 -2.2733995e-01
  9.1045253e-02
  9.1537982e-02
 -1.7237280e-01
  3.1388667e-01
  8.6065166e-02
  3.1934065e-01
  2.6582423e-01
  2.6583603e-01
 -2.0404325e-01
 -4.2990020e-01
 -3.2095119e-01
 -2.6388448e-01
 -9.6763313e-02
  4.4248497e-01
 -1.6369422e-01
  9.9061763e-01
  1.0457586e-01
 -6.5654472e-02
  9.4032788e-01
 -3.1768528e-01
 -2.5443506e-01
  9.7855516e-02
 -2.0074685e-01
 -1.4457788e-01
  2.7738553e-01
 -2.0019375e-01
  8.8644467e-02
  1.7312187e-01
  4.8901451e-01
 -2.8610706e-01
 -1.3938189e-01
 -1.8894976e-02
  3.4486178e-01
 -1.4046232e-01
 -1.6086592e-01
  5.2119118e-01
  1.5452521e-01
 -4.4251654e-01
 -4.6764654e-03
  3.6254898e-01
  9.5763040e-01
 -1.2557724e-01
  3.0688086e-01
 -2.4255903e-01
  4.1714752e-01
  6.4661533e-01
  2.7851844e-01
  2.0409995e-01
  7.0823744e-02
 -1.9374131e-01
 -3.7312204e-01
  3.5744300e-01
  3.3944124e-01
  1.9789340e-01
 -4.9984547e-01
 -4.1464968e-03
  2.1066007e-01
 -2.1762946e-01
  3.3163717e-01
 -3.2096930e+00
 -1.8390818e-02
 -2.3063660e-01
  6.5870899e-01
 -3.1143528e-01
  1.3626332e+00
  3.7655953e-01
  5.1493078e-01
  2.5080609e-01
 -3.6383244e-01
 -1.1573946e-01
 -1.6099752e-01
 -1.1663585e-01
 -1.6883701e-01
  1.2719636e-01
  7.2899902e-01
  1.5114695e-01
  4.1632295e-02
 -8.6043668e-01
 -7.5601965e-01
  3.1554064e-01
 -5.9187800e-01
  3.7763497e-01
  4.0349880e-01
 -5.2479982e-01
 -5.4904109e-01
 -1.0789164e+00
 -1.6026781e+00
 -8.2257867e-01
  7.1945137e-01
 -5.1819641e-02
 -6.7476690e-02
  1.1620784e+00
  5.9325212e-01
 -1.6554774e-01
 -1.2276553e-01
  2.6447298e-02
 -9.4719625e-01
 -3.0906674e-02
 -2.2840290e-01
  7.3102757e-02
  1.9499468e+00
 -2.1673979e-01
 -1.6553904e-01
  9.2241019e-02
  8.4317498e-02
 -3.1696768e+00
  5.2838486e-01
  5.8730793e-01
 -2.1445868e+00
 -1.6960398e+00
  9.2711352e-02
 -1.1215652e+00
 -6.6544163e-01
  5.0814557e-01
 -4.1262937e-01
  1.1590441e+00
  2.5102651e-01
 -3.2607213e-01
 -7.2612882e-01
  2.1980394e-01
 -1.2723231e+00
 -1.2083690e+00
 -2.9999655e-01
 -8.0933642e-01
  2.8726020e-01
  6.7589700e-01
 -2.5835922e-01
 -5.4399312e-02
 -1.1658128e-01
 -2.8867764e+00
 -2.5650856e-01
 -2.8620076e-01
 -2.8962120e-01
  5.6552899e-01
 -8.7609339e-01
  5.8547819e-01
 -2.7779174e-01
 -9.5670491e-01
 -8.3222449e-01
 -4.3251052e-01
 -1.4199580e-01
 -1.1134950e+00
  6.1527026e-01
 -4.4720969e-01
  1.0702349e-01
 -3.0004781e-01
 -7.1311958e-02
 -5.1056415e-01
 -1.3773644e-01
  1.2914877e-01
  7.4528433e-02
  4.5364544e-01
 -2.8916290e-01
 -8.9372657e-02
 -5.8207798e-01
 -4.2348287e-01
 -1.6966125e-01
  1.6581877e-01
  7.5163591e-01
  1.2111747e-01
 -1.4915774e-02
  7.0355523e-01
  6.8053216e-01
 -6.3484430e-02
 -4.5938677e-01
  1.5411127e-01
  3.7890044e-01
  5.6870866e-01
  5.4848868e-01
 -5.6578648e-01
 -5.9329137e-02
  3.7201372e-01
  7.5256690e-02
  4.0559793e-01
 -3.0349752e-01
  4.2507224e-02
  1.6202873e+00
 -1.8075523e-01
 -1.0327119e-01
 -9.6893239e-01
 -8.1264174e-01
  8.6394572e-01
  1.8272804e-01
  8.9740658e-01
 -7.6871234e-01
  1.4715320e+00
  1.6596307e+00
 -3.3187568e-02
 -1.0439554e-01
  5.2178130e-02
  1.8092692e-01
  2.0812196e-01
  1.1452361e-01
  1.1014817e+00
 -4.0126029e-01
  1.0675306e+00
 -4.9884334e-02
 -1.3287558e-01
  1.1675780e-01
  7.1806788e-01
 -6.8171388e-01
  4.3106459e-02
  1.7019866e-01
  2.5660273e-01
  5.1835679e-02
  2.0934516e-01
  5.6203479e-01
  5.6000229e-02
 -1.0809495e+00
  1.0800693e-01
 -7.2667527e-01
  2.7813509e+00
  4.1872624e-01
  1.2671775e-01
  9.8434046e-02
  4.0281293e-01
 -1.1218799e-01
  1.1495151e-01
 -1.0265480e+00
  3.7692732e-01
  1.6957176e-01
 -3.1791508e-01
  6.9064796e-01
  3.9158875e-01
  8.5489891e-02
 -4.1774818e-01
 -5.8655965e-01
 -4.1770238e-02
 -6.1684692e-01
  3.0319083e-01
  6.7000948e-02
  1.7649059e-01
 -5.1593469e-03
  3.1042671e-01
  3.8649447e-02
  5.7712879e-02
  1.9493821e-01
  1.3639762e-01
  2.2218189e-01
  1.5679239e-01
  4.5241934e-01
 -4.5345369e-01
  5.0102723e-01
 -1.3129540e-01
  1.5348539e-01
  8.3914608e-01
  2.8404367e-01
  3.3939061e-01
  1.3684422e-01
 -7.2725111e-01
  9.5649844e-01
 -1.1900583e-01
 -2.1459872e-01
 -5.8628917e-02
  3.6929867e-01
  3.5576135e-01
  7.6208547e-02
  1.7774579e-01
  4.6219203e-01
  6.3581318e-02
 -1.8613164e-01
  2.8262103e-01
 -2.4419150e-01
 -4.0323812e-01
 -2.7590448e-01
  3.9954388e-01
  4.3346778e-02
 -2.1493989e-01
  3.7783772e-01
  3.5264379e-01
 -2.6748177e-01
 -5.9471506e-01
  2.3613231e-01
  1.9961499e-01
  1.6863087e+00
  1.2002636e-01
 -3.0180958e-01
  1.6513868e-03
 -3.0746651e-01
 -4.9752697e-01
 -1.4943479e+00
 -5.3454447e-01
 -2.2503914e-01
  4.8175588e-01
 -1.2058248e-01
  9.1817215e-02
  1.8253611e-01
  5.1686764e-01
 -4.3961844e-01
  4.0351495e-02
  7.5701132e-02
  4.6694808e-02
  7.9748237e-01
  1.9842212e-01
  2.6996034e-01
  2.1667054e+00
  3.1802300e-01
  1.0308356e-01
 -3.5068619e-03
  1.1842928e-01
 -4.5340824e-01
 -2.6397401e-01
  6.4292304e-02
 -2.1143863e-02
 -1.3465005e-01
  1.8954886e-01
  3.8395867e-01
 -2.2596197e-01
 -1.1999469e-01
 -1.2781563e-01
 -1.7883359e-01
  7.7799994e-01
 -2.6507089e-01
 -5.5571747e-01
  2.9663733e-01
  2.7095231e-01
 -3.5277086e-01
  2.1200384e-01
 -2.6116657e-01
 -4.1070789e-01
 -3.5523146e-02
 -3.8281602e-01
 -2.0839015e-01
  3.8505297e-03
 -2.5118950e-01
  2.3310454e-01
 -1.2874076e-01
 -2.1552469e-01
 -2.8695470e-01
  2.3646381e-01
  1.4887109e+00
 -2.8750426e-01
 -2.0435295e-01
 -7.4667609e-01
  1.0360999e-01
  3.6670575e-01
 -8.4075332e-02
  4.0799093e-01
  7.6390612e-03
 -9.6781544e-02
  2.2398070e-02
 -3.9615158e-02
  7.0913523e-02
 -2.8105292e-01
  5.0375331e-02
 -6.6150838e-01
  3.3753109e-01
 -1.2162226e-01
 -1.6943522e-01
  3.5299265e-01
  7.7128047e-01
  1.9990261e-01
 -6.3034821e-01
  6.5504521e-02
  8.8103867e-01
 -4.2774878e-02
  1.5095933e-01
 -5.9401047e-01
 -9.2092544e-02
 -2.2480191e-01
 -2.2958714e-01
 -1.5931883e-01
 -5.8514941e-01
 -1.1749437e-01
  2.1785004e-02
 -2.1909021e-02
  5.4969888e-02
 -5.2486801e-01
 -1.9308946e+00
  4.2924774e-01
  2.0291077e-02
  1.7565201e-01
  5.5039674e-01
  5.8734950e-02
 -5.1037914e-01
 -2.3866047e-01
  6.6391341e-02
  5.6393445e-01
 -1.0614246e-01
  9.2460173e-01
  3.6989218e-01
 -1.2664525e-01
  4.4015074e-01
 -1.0541896e+00
 -7.6264358e-01
 -6.0800993e-01
 -3.1108880e-01
  1.9122945e+00
  1.5118343e-01
 -9.2384383e-02
  2.9740000e-01
 -1.1261832e+00
 -3.0735895e-01
 -1.5658563e-01
  3.2236777e-02
 -2.3830256e-01
 -1.4442272e-01
 -6.0023177e-01
  7.8333884e-01
  6.9626004e-01
  4.2955646e-01
 -2.3581843e-01
  1.0530517e+00
  1.9493040e-01
  9.8050326e-01
  2.5978434e-01
 -3.8551590e-01
 -3.5754737e-02
 -1.5983380e-02
 -1.2810798e+00
 -2.3880816e-01
  2.6031120e-03
 -1.7030910e+00
  6.2125528e-01
 -1.1291681e-01
 -2.1681981e-01
 -2.0894015e-01
  3.3406994e-01
 -9.6170813e-02
 -2.2618283e-01
  3.2151657e-01
  5.9916556e-01
  4.1745982e-01
  3.6740815e-03
  5.9559280e-01
 -2.0845133e-01
  5.1098442e-01
 -1.7904048e-01
 -1.5558597e-01
  2.2393903e-02
 -9.1086304e-01
  2.2588684e-01
 -3.7108487e-01
 -3.4094295e-01
 -8.0778889e-02
 -2.6300231e-01
 -1.7112209e-01
 -5.6069303e-01
 -3.8633442e-01
 -5.2412993e-01
 -5.5144787e-01
 -2.6861668e-01
 -1.5357587e-01
  5.3065467e-01
  3.4334585e-01
  3.3011970e-01
  3.7264481e-01
  4.9352744e-01
  5.5668259e-01
  3.9603341e-02
  7.0606148e-01
  3.8778076e-01
 -3.1598994e-01
  4.2346075e-01
 -1.6746940e-01
  1.4684336e-02
  3.0608031e-01
 -5.2615469e-03
 -2.3754446e-03
 -2.6244435e-01
 -5.2137744e-01
 -1.5678634e-01
  2.0898910e-02
 -4.2509202e-02
 -5.4032063e-01
 -6.9845235e-03
 -3.1267950e-01
 -1.0222144e-01
 -2.1419011e-01
 -2.9227862e-01
 -6.1499530e-01
  5.4456097e-01
  1.0826465e-01
  4.7460556e-01
 -8.1190741e-01
 -2.9026839e-01
  6.8657130e-01
  1.8046054e+00
  1.5074773e+00
 -3.0334172e-01
  3.6681789e-01
 -4.5374745e-01
 -1.9317205e-01
  1.4578884e+00
  1.4407759e+00
  1.2683551e-01
 -6.3595533e-01
  3.3916146e-01
 -4.0964377e-01
 -2.4463356e-01
  2.7863896e-01
 -4.7305483e-01
 -1.1134554e+00
 -4.7576353e-01
 -2.6298001e-01
  3.8103664e-01
 -5.0167423e-01
 -6.5668547e-01
  1.8314976e-01
 -2.3613097e-01
  6.1756140e-01
  2.7116823e-01
 -4.4472143e-01
 -4.3408915e-01
  2.0484018e-01
  3.2360622e-01
  1.5527502e-01
 -4.4466302e-01
 -1.0148165e+00
 -2.7848193e-01
  7.1865135e-01
 -8.3149004e-01
  5.0371908e-02
  4.0775117e-01
  3.5451880e-01
  8.9404684e-01
 -2.6487947e+00
 -4.1931239e-01
 -6.7698890e-01
  4.6053076e-01
 -2.6215446e-01
 -7.2863585e-01
 -6.2006354e-01
 -5.0850904e-01
 -7.5240848e-03
 -3.1605521e-01
 -5.3640348e-01
 -1.3566625e+00
  1.6850215e-01
 -6.7531574e-01
  2.5124180e-01
  5.3691518e-01
  4.7986749e-01
  3.1730652e-01
  7.0153630e-01
 -1.9934984e-01
  1.8218896e-01
 -3.3444530e-01
 -1.0206629e-01
 -1.5228270e+00
  6.7536753e-01
  4.5646507e-01
  6.5847754e-02
 -3.1349435e-01
  7.3723355e-03
 -1.8041805e+00
  8.1802823e-02
 -2.0703334e-02
 -8.6447671e-02
 -2.3857260e-01
  2.1163419e-01
  4.3836331e-01
 -1.7978974e-01
  4.4967449e-01
  4.0264404e-01
  7.3712796e-01
  8.6989623e-01
 -2.2623998e-01
 -2.1744983e-01
 -7.1120638e-01
  1.8214481e-01
 -5.6775630e-01
  2.3052983e-01
 -5.9676361e-01
  6.7374396e-01
 -2.1171543e-01
  1.6497044e-01
 -4.4766006e-01
  7.3407590e-02
 -3.7697470e-01
 -1.9608854e-01
 -3.1602362e-01
 -2.4077607e-02
  1.6293107e-02
  5.4362357e-02
 -3.5327700e-01
  6.0459143e-01
 -2.4486539e-01
  1.7957686e-02
  2.0539157e-01
 -5.1928860e-01
 -1.5867689e-01
  3.4364119e-01
 -2.3179720e-01
  3.1401184e-01
 -7.2272278e-02
  3.8692009e-01
 -2.8053600e-01
 -3.1981659e-01
 -3.2408559e-01
 -6.3673240e-01
  8.0979094e-02
 -3.2559952e-01
 -1.9071525e-01
  3.4335437e-01
  3.4835862e-03
 -2.4192744e-01
  2.1687013e-01
  6.7691557e-02
  4.1414437e-01
 -2.2638121e-01
  2.5923428e-01
 -4.1353175e-01
 -3.2516652e-01
  3.4126428e-01
 -3.2340115e-01
 -3.7035924e-01
 -9.7953659e-01
 -1.0355743e+00
  2.5096375e-01
  3.4514436e-01
 -8.5860348e-01
  2.9393059e-01
 -8.6348885e-01
  3.3247274e-01
  1.2163847e-01
  1.7951392e-01
 -1.1266342e-01
 -2.0537689e-01
 -2.9470259e-01
  3.6387235e-01
  3.3451512e-01
 -1.0774650e-02
  6.3600433e-01
 -4.2050339e-02
 -7.6005793e-01
  1.1645061e-02
 -4.9465634e-02
 -1.5806937e-01
  5.1481581e-01
 -1.5521611e-01
  6.2083232e-01
 -4.4702774e-01
  3.4578180e-01
  8.6973026e-02
 -4.6605885e-01
 -4.0028182e-01
  3.0222353e-01
  4.0851030e-02
  4.0773642e-01
  3.6676219e-01
  5.9533358e-01
 -9.3187338e-01
 -3.0571619e-01
 -2.4447204e-01
 -6.2894714e-01
  4.3884408e-01
  5.0710136e-01
  1.1034360e-01
  3.4807634e-01
  1.0775730e-02
  1.1861391e-01
  4.7264397e-01
  5.7967293e-01
 -1.7176074e-01
 -4.2308757e-01
  4.1637208e-02
 -4.2202622e-01
 -2.9375064e+00
 -1.5229733e-02
 -1.2065744e-01
  6.8926722e-02
 -3.5429272e-01
 -1.5038644e-01
 -7.0715994e-02
 -1.3133924e-01
  6.0254503e-02
 -1.6345014e-01
 -1.8442579e-01
  4.4283727e-01
  1.0578436e-01
 -1.4084077e-01
 -3.1449610e-01
  8.7278597e-02
 -9.7686335e-02
 -1.1507154e-01
  8.5095042e-01
 -1.4223154e-01
 -3.2780483e-01
 -5.6167489e-01
 -3.5327980e-01
  4.5001170e-01
 -2.1822149e-01
 -6.0114652e-01
 -4.3990590e-02
 -7.9198205e-01
  8.1495948e-02
 -1.5249613e-01
 -2.1024860e-02
  2.9501611e-01
 -8.9734900e-01
 -1.6425946e-01
  2.4604151e-01
 -2.7276316e-01
 -3.9811251e+00
  2.1746951e-01
 -2.2608460e-01
  1.3799423e-01
 -3.8879329e-01
 -1.3953748e-01
 -2.8471485e-01
 -3.4135652e-01
 -3.5713542e-01
  1.9864422e-01
 -1.5532579e-01
  1.8889405e-01
 -4.9291596e-02
 -3.2896855e-01
  1.0946268e+00
  7.0143782e-02
  1.8092099e-01
  2.8701456e-02
  9.1380417e-02
 -1.8405344e-01
  6.5802038e-01
  9.5215333e-01
 -1.0127696e-01
 -4.7082675e-01
  2.0795170e-02
 -8.7708756e-02
  1.2465484e-01
 -2.0871755e-01
  1.1156510e-01
  2.3404759e-01
 -6.6756713e-01
  8.8225704e-01
  9.9741578e-02
 -2.9714104e-02
  2.3091392e-01
  3.6603612e-01
 -1.3961642e+00
  7.7875882e-01
  5.4689342e-01
 -3.5959758e-02
 -4.0700015e-01
 -2.7033871e-02
  4.0422192e+00
 -3.4215987e-01
 -4.0452212e-01
  3.6830440e-01
 -1.0058650e-01
 -1.5501185e-01
 -1.1091177e+00
  3.3767214e-01
  9.7239387e-01
  2.2583619e-02
 -1.7187612e-01
  8.1068039e-02
  6.4405970e-02
  2.1749979e-01
 -1.3100807e-01
  4.1260037e-01
 -4.2392850e-01
  9.8694645e-02
  2.2019647e-01
  4.6683261e-01
  4.8659781e-01
 -1.5116107e-01
 -3.6276779e-01
  4.2603517e-01
 -3.3445570e-01
 -4.1032049e-01
 -1.5606311e-01
  3.7702505e-02
 -2.4853949e-01
  4.0545115e-01
 -1.0256025e-01
 -3.3595276e-01
 -2.9433268e-01
 -3.7257850e-01
 -1.0892877e-01
 -1.4945361e-01
  3.2497156e-01
 -1.1242788e-01
 -8.9205337e-01
  1.4705788e+00
 -1.2336464e+00
 -8.7609164e-02
  1.0228990e-01
  5.6082201e-01
 -1.3258731e+00
  1.8361534e+00
  3.8633077e+00
  1.1839890e+00
  1.0461967e+00
  8.2204854e-01
 -4.8945412e-01
  2.4136704e-01
 -8.8669932e-01
  1.2144821e-03
  5.3207493e-01
 -1.9119535e-02
  6.7793094e-02
 -1.3446522e-01
 -1.2148514e+00
 -1.5660151e+00
 -7.5776172e-01
 -1.3704545e+00
 -5.5174941e-01
 -1.8141323e-01
 -6.2287831e-01
 -7.4847627e-01
  8.7153509e-02
  1.7990433e-01
  6.5624714e-01
 -8.0895657e-03
 -5.6593496e-01
 -1.6131316e+00
  3.9198202e-01
 -5.2129075e-02
 -6.9967723e-01
 -9.2367351e-01
  4.0814061e+00
  6.7504281e-01
 -2.0349908e+00
  8.5488302e-01
 -7.7301383e-01
 -1.9079882e+00
  9.1578656e-01
 -3.4149671e-01
 -4.5281342e-01
  1.0274078e+00
  5.7647055e-01
  1.6393650e+00
 -2.6481605e-01
 -1.8925956e-01
 -3.8599259e-01
 -1.0456989e-01
 -6.6633689e-01
  1.9987490e-02
  6.6381991e-01
 -1.7308767e-01
 -4.1162223e-01
 -7.2662544e-01
  1.6369137e-01
 -5.9724119e-02
  6.3698217e-02
  3.1197158e-01
  8.9089066e-01
  6.9311678e-01
 -2.4002269e-02
  1.3043229e-02
 -1.9134106e-02
  1.3363951e-01
 -4.5682344e-01
 -1.0877055e+00
  1.8249143e-02
 -6.9452381e-01
 -9.5156717e-01
 -4.2880714e-01
  5.6272525e-01
  1.2835723e+00
 -2.1593782e-01
 -1.4030628e-01
  5.9019625e-01
 -2.5797945e-01
  4.0736228e-01
 -5.9781986e-01
  3.6967620e-01
  1.4255734e-01
 -6.0153931e-01
  5.4654986e-01
  2.7198592e-01
 -3.7226373e-01
 -4.6793446e-01
  4.8645418e-02
 -3.8359568e-01
 -5.5728310e-01
  5.0531363e-01
  2.0357813e-01
 -4.2635971e-01
  2.4718385e-02
 -5.3788429e-01
 -7.8771792e-02
 -4.2473182e-01
 -1.6361570e+00
  2.7233524e-02
  7.8157403e-02
  9.3430400e-02
  6.3010877e-01
 -2.2047563e-01
 -4.9870685e-01
 -3.7919575e-01
 -6.1478559e-02
  1.4742538e-01
 -3.6885816e-01
  4.9806976e-01
 -6.7024969e-02
  3.1334788e-01
 -3.5587242e-01
 -4.3508908e-01
  1.8656027e-01
 -3.5646585e-01
  5.0579405e-01
 -3.5769194e-01
  2.4371853e-01
 -4.2300826e-01
 -6.4174718e-01
  7.3840626e-02
 -7.7365649e-01
 -3.2530630e-01
 -9.1575570e-02
 -3.2351318e-01
  2.0918024e-01
 -1.2311816e+00
  3.4874764e-01
 -1.7721663e-01
 -7.1692568e-01
 -3.8790590e-01
 -1.4205971e-01
 -1.0955500e-01
  1.1526151e-01
  1.4824504e-02
 -6.5558247e-02
 -3.7030645e-02
 -1.3497448e-01
  7.6716296e-02
 -6.0362976e-02
  1.1043084e+00
  3.7284020e-01
 -1.5715113e-02
  1.6565612e-01
  1.2756270e-01
 -1.4082386e-01
 -9.0240194e-03
 -7.9841733e-01
 -2.2956887e-03
 -2.1015545e-02
  3.2764140e-01
  2.3682071e-01
 -3.1733799e-01
  4.2802215e-02
 -1.6443576e-01
  1.8343301e-01
  1.6687210e-01
 -4.9206540e-01
  2.1875240e-01
  4.3854454e-01
  2.6217121e-01
 -4.1210181e-01
  1.2718581e-01
  2.3231831e-01
 -2.1543015e-02
  2.5297055e-01
  1.0456425e-01
 -5.1494855e-01
  3.5728377e-01
  9.7657681e-02
 -6.9326854e-01
  8.9342371e-02
 -1.1274686e+00
  9.4774795e-01
 -2.8764769e-01
 -1.4745562e-01
  1.4189783e+00
  1.7818101e-01
  9.5574141e-02
  3.0923763e-01
  2.2469708e-01
  2.1321036e-02
 -1.4694859e-01
  2.3155245e-01
  1.3225158e-01
 -2.3593655e-01
  2.7273682e-01
  1.2552483e-01
  3.0456856e-01
  1.6435312e-01
  1.0109026e+00
 -7.6732956e-02
 -9.8395698e-02
  8.9805029e-02
 -3.5391530e-01
  6.6359282e-01
 -2.3767509e+00
  6.0517275e-01
  5.3452951e-01
  2.1246293e-01
 -2.4029511e-01
  1.8037651e-01
 -4.9452376e-01
  6.4685446e-01
 -6.2184185e-01
  3.9757870e-02
 -4.6100575e-01
 -1.0604515e-01
 -4.6066317e-01
 -5.1600343e-01
  2.2752142e-01
 -3.9685851e-01
  1.2246889e-02
 -2.6321650e-01
 -2.1534650e-01
  3.8412876e-02
  4.3329483e-01
  2.4715364e+00
 -5.0972950e-01
  2.4201296e-01
 -1.0037835e-01
 -3.8892847e-01
 -2.0273030e+00
 -8.2293704e-02
 -1.1304963e-01
 -7.2746772e-01
 -5.5953842e-01
  7.7447647e-01
  3.1913719e-01
  3.1838900e-01
 -5.5323136e-01
  1.2334489e+00
  5.9557114e-02
 -1.9636650e-01
 -4.9006477e-01
  1.1264324e-01
  6.5922588e-01
 -1.5235710e-01
  4.0942851e-01
  5.3624805e-02
  4.1668528e-01
  2.0473127e-01
  5.2333064e-02
 -2.7391428e-01
  5.6462154e-02
 -1.1033753e+00
 -5.4814285e-01
 -4.2769361e-01
 -4.4224486e-01
 -5.3655797e-01
  3.1963331e-01
 -1.6008736e-01
 -2.9879326e-01
 -3.5477343e-01
 -6.6816851e-02
 -3.9354679e-01
  1.2401389e-01
 -6.5719128e-01
 -2.1389538e-01
 -5.0138521e-01
 -4.0587550e-01
 -5.1753938e-01
  4.2898911e-01
  9.3358582e-01
 -1.9903088e-01
 -2.3772134e-03
  4.2476186e-01
  3.2466331e-01
 -8.9947782e-02
 -2.3460704e-01
  3.6183592e-02
  4.1397050e-01
  4.3694818e-01
  8.5403875e-02
 -1.2220864e-01
  1.2528402e-01
  1.8020169e-01
 -2.4365468e-02
 -5.1815724e-01
  1.2020434e-01
  1.0341524e-01
 -1.1842658e-01
  1.8326592e-01
 -1.5248978e-01
  1.0143252e-01
 -3.0614583e-02
  5.0689036e-01
  3.3437887e-01
 -3.8269547e-01
  5.1550597e-01
 -6.4945206e-02
  3.3374302e-02
  8.3387427e-02
 -4.0953571e-01
  1.2329563e-01
 -6.7783368e-01
 -4.5607242e-01
  1.9891718e-01
 -1.7645521e-01
  5.9757274e-01
 -1.4809619e-01
 -1.4120094e-01
  3.1671742e-01
  5.1402420e-01
  5.3666532e-01
  2.6961443e-01
  7.9724811e-02
  2.7509001e-01
 -1.5245101e-01
 -3.9885637e-01
  3.8346580e-01
 -1.2186469e-01
 -1.7253295e-01
 -4.0829444e-01
 -1.5028653e-01
 -4.1004536e-01
 -8.9403844e-01
 -7.8549176e-02
 -5.2214056e-01
  6.5378524e-02
 -2.3020828e-01
  7.4793398e-01
 -3.2214820e-01
 -5.1957846e-01
 -1.5256637e-01
  2.0055982e-01
 -4.1178724e-01
 -1.0015522e+00
 -1.1698687e-01
  3.2648742e-01
 -2.5647432e-02
 -1.6306975e+00
  3.9162740e-01
  5.7348780e-02
  4.2507030e-02
  1.1271969e+00
  1.6968058e-01
  1.9185795e-01
 -4.3948829e-01
 -2.1098419e-01
  3.1387171e-01
  4.6445316e-01
  1.0636410e+00
  3.4152454e-01
  1.8058982e+00
 -6.9136566e-01
 -6.2071228e-01
 -4.2669393e-02
  6.0456071e-02
 -9.4438106e-02
 -3.5020193e-01
 -1.3063046e-01
  3.9113063e-01
 -2.3522153e+00
  3.6959618e-02
  5.8735639e-01
 -4.3041497e-01
 -5.2451771e-01
  4.5444459e-01
  1.2142196e-01
  2.1193993e-01
  1.5646568e-01
 -4.4996867e-01
  8.3212689e-02
 -1.0729721e-02
  4.1075096e-02
  4.7817934e-01
 -3.6196597e-02
  1.8121733e-01
 -2.5262967e-01
  2.4829136e-01
  2.4423687e-01
  2.2054069e-01
  2.3994827e-01
  5.6230664e-01
  5.7430083e-01
 -7.2758162e-01
  2.7754128e-01
  3.7521040e-01
 -4.0998966e-01
 -5.6894779e-01
 -3.7361914e-01
 -6.0396576e-01
 -4.5671549e-01
  2.3789704e+00
  2.5608385e-01
  3.9122507e-01
  8.0515480e-01
 -1.8800835e-01
 -9.0611571e-01
  1.8194109e-02
 -7.9759496e-01
 -6.8277508e-01
  6.9307452e-01
 -8.6950344e-01
 -3.1173712e-01
 -4.8845962e-01
  1.3643184e-01
  1.8625740e+00
 -7.3919791e-01
  7.4221921e-01
 -2.3594685e-04
 -6.9349611e-01
 -3.6256708e-02
 -1.2546375e-01
  5.9503898e-02
  1.5717094e-01
 -1.0422118e+00
  7.6778442e-02
  5.9682857e-02
  1.0376567e-01
  4.0471953e-01
 -2.9059463e+00
  4.1334391e-01
  3.9249879e-01
 -2.2269844e-01
  2.1423389e-01
  3.2178676e-01
  6.3210711e-02
 -7.1428841e-01
 -3.7257892e-01
 -2.1628951e-01
  1.5378131e-01
 -3.2202247e-01
 -8.1811801e-02
  1.1149114e-01
  4.2219096e-01
 -4.6306452e-01
 -4.5690700e-01
  8.3667934e-01
  3.1115735e-01
  3.2154348e+00
 -7.8587614e-02
  3.3200595e-01
  1.0669895e-01
 -7.4029058e-01
  3.7705764e-01
 -5.9389973e-01
 -4.3156439e-01
  4.8311013e-01
 -1.8610230e-01
 -4.8429194e-01
 -3.0676547e-01
 -2.4482782e-01
  6.6317445e-01
  2.7021804e-01
  1.9099426e-01
 -3.8513061e-01
 -1.0387205e-01
  6.4849392e-02
  3.2680969e+00
 -1.6413225e-01
 -8.2466900e-02
 -1.2552881e-01
 -5.4926854e-01
  6.7884839e-01
 -1.3108447e-02
  2.7767077e-01
 -4.8031825e-01
 -4.2022809e-01
 -2.6036549e-01
  6.0598552e-01
  3.2780373e-01
  1.6661371e-01
 -3.5144916e-01
 -3.9961126e-02
  5.2418125e-01
 -3.6247149e-01
  2.4289852e-01
  2.4325040e-01
 -3.7103710e-03
  2.6410797e-01
 -3.1522119e-01
 -5.0055552e-02
  8.3065301e-02
  1.5413284e-01
  5.3607190e-01
  3.0622043e-02
  3.6980620e-01
 -4.9409121e-01
 -6.0544246e-01
  1.5394156e-01
  3.3662826e-01
  2.2932722e-01
  9.1291362e-01
  1.7609501e-01
 -2.3195380e-01
  7.4682340e-02
 -3.5399577e-01
 -7.8499335e-01
  3.0876848e-01
  6.0733348e-01
  4.8729026e-01
  9.6443552e-01
  1.1339871e+00
  1.8822023e-01
  2.5635088e-02
  1.0692002e-01
  2.5951728e-01
  1.4439635e-01
  2.0530529e-01
  7.7147335e-02
  8.2966939e-02
  8.7627165e-02
 -4.8346281e-02
  1.7809018e-01
 -3.7776235e-01
 -6.7863710e-02
  1.0789679e-01
 -7.6183063e-01
  1.3334876e-01
  5.9826557e-02
  1.7358452e-01
  1.5523128e-01
 -5.3635108e-01
  4.2767131e-01
  1.7402968e-01
 -2.5374046e-01
  1.3217175e-01
 -1.5569261e+00
  4.9376351e-01
  1.5993102e-01
 -8.1099182e-02
  8.7558782e-01
  6.4015496e-01
  8.1707639e-01
 -4.7621664e-01
 -1.2636797e-01
 -1.8327680e-01
  6.9168591e-01
 -1.8676764e-01
 -4.3439350e-01
 -1.0636878e-01
 -8.1226134e-01
  1.7617804e-01
  5.2290443e-02
  4.1610432e-01
  3.1528842e-01
 -1.6018184e-01
 -7.1630284e-02
  2.1482746e-01
  4.6911627e-02
  9.7941883e-02
  3.0533278e-01
  1.7877322e-01
 -2.8175181e-01
 -1.1028339e+00
  7.7273840e-01
 -6.2291455e-01
 -2.9300073e-01
 -6.1003800e-02
  5.2819932e-01
 -5.1466519e-01
 -9.0363324e-02
  3.1664574e-01
  1.4832230e-01
  9.6798712e-01
  1.7819508e+00
 -6.0821122e-01
 -1.1611228e-01
  1.9888124e-01
 -4.5377693e-01
  3.5268679e-01
 -7.0151758e-01
  9.2287660e-02
  6.9358897e-01
 -7.6852489e-01
 -4.9966037e-01
 -9.2361212e-02
  6.0626578e-01
 -3.6889040e-01
 -1.6246812e-02
  2.3411034e-01
  2.2469622e-01
  6.0471272e-01
  4.1222826e-01
 -3.0278295e-01
  5.8829263e-02
 -6.0878575e-02
  4.4912767e-01
  7.9481685e-01
 -4.5632027e-02
  4.6824548e-01
  8.2868868e-01
  4.2819459e-02
  7.4610174e-02
 -6.0872203e-01
 -3.3048490e-01
  7.2052106e-03
  9.8603845e-02
  1.1420692e+00
 -2.9220598e-02
 -5.4809988e-01
  1.9554697e+00
  1.1456219e+00
  3.6613023e-01
  1.0821422e+00
 -3.9540949e-01
  1.0143369e-01
  3.0381069e-01
  1.4431186e+00
  6.3955450e-01
 -5.2149194e-01
 -1.1504439e+00
 -3.4074509e-01
 -3.0115813e-01
 -8.9224190e-01
 -6.7406273e-01
  8.9286730e-02
 -1.6632821e-02
  4.2161989e-01
 -5.5984235e-01
  3.0670097e-01
 -1.6017989e+00
 -1.2293619e+00
  3.7298143e-02
  2.6307553e-01
  2.0369613e-01
  1.4767467e+00
 -6.4901924e-01
  4.7510520e-01
 -1.8073701e+00
  1.6197516e-01
 -4.9026385e-01
  1.1787393e-01
  6.1829902e-02
 -7.5325972e-01
 -2.2459631e+00
  6.7651194e-01
  2.7232435e-01
 -1.5530044e-01
 -2.2543983e-01
  1.9349611e-01
  5.3711903e-01
 -5.3336497e-02
 -5.7598937e-01
  5.1708758e-01
 -8.8250679e-01
 -3.0192354e-01
 -1.9651259e-01
  7.7090693e-01
  3.3382529e-01
 -1.6029196e-02
  1.0151961e-01
 -5.1757061e-01
 -1.4383134e-01
 -3.5899520e-01
 -3.5157213e-03
  2.2517690e-02
  7.8779981e-02
  2.7865976e-01
 -1.9587129e-01
  3.7884143e-01
  2.0795926e-01
  3.1673148e-01
 -1.1181603e-01
  4.1744384e-01
 -3.5592392e-01
 -5.0856594e-02
 -7.0466353e-03
 -2.1522310e+00
 -1.3319042e-01
 -5.8308359e-02
 -1.5033731e-01
  1.1987027e-01
  4.6587309e-01
  4.9418187e-01
  5.6089497e-01
 -1.6540813e-01
 -1.8679417e+00
 -9.1881698e-01
  1.0080410e-02
 -3.0908641e-01
  5.9790198e-02
 -9.2771709e-01
  3.0730096e-01
  6.0929809e-02
 -1.6540799e-01
 -5.6659752e-01
 -1.1326508e-01
  3.1086955e-02
 -5.3248633e-02
  3.4907532e-01
 -1.3564195e-01
  9.5996648e-02
  1.8173741e-01
 -8.8650510e-02
 -2.8447770e-02
 -2.1273023e-01
  2.1778445e+00
  3.7018782e-01
 -7.4321300e-01
  7.8753114e-01
 -2.8793770e-01
 -1.5395634e-01
  2.2537187e-01
 -1.1057881e-01
 -3.7213299e-01
  8.1797737e-01
 -1.5127671e-01
  2.9355749e-01
  1.1011005e-01
  1.5427372e-01
 -3.6909929e-01
 -5.2856397e-02
 -3.9756441e-01
 -7.9821575e-01
 -4.2545316e-01
 -5.0477803e-01
 -8.7938562e-02
 -3.9177564e-01
  1.9040464e-01
  1.6261324e+00
  3.9680806e-01
  6.7862475e-01
  1.0321712e-01
 -1.6981612e-01
  8.6236906e-01
  2.4866241e-01
  2.6505399e-01
 -1.1832482e-01
 -7.1640670e-02
  2.6523897e-01
  2.1307863e-02
  4.0034193e-01
  2.0191781e-01
  2.0785551e-01
 -5.8369851e-01
  5.2331299e-01
  3.2688683e-01
  6.8287843e-01
 -2.6609048e-01
  4.0483255e-02
 -2.9259670e-01
 -8.8207233e-01
 -3.7416178e-01
  6.4228341e-02
  3.3369836e-01
  2.5180650e-01
 -1.0109363e-01
 -1.8641892e-01
  2.4530368e-01
 -2.2718640e-01
 -1.8938884e-02
 -1.1004980e+00
 -1.8875656e-01
  9.9039987e-02
 -1.0924386e-01
  7.2392635e-02
 -4.0098190e-01
  4.3530682e-01
 -2.2500512e-01
  3.9920673e-01
 -2.9948148e-01
 -6.0968912e-01
  2.1374147e-01
 -8.0441304e-02
 -4.3044323e-01
  1.5923861e+00
  7.4418545e-02
 -8.9135003e-01
 -6.1695457e-01
  5.9859496e-02
  3.2813165e-01
  2.3325473e-01
  5.6299365e-01
 -5.4146725e-01
 -1.1886314e-03
  6.8171972e-01
 -4.3552616e-01
 -3.8365617e-01
 -1.0833666e-01
  1.6052493e-01
  5.2184172e-02
 -3.0004597e-01
 -8.3974594e-01
  1.7198989e-01
 -3.3493817e-01
 -7.6428264e-01
 -7.8178251e-01
 -1.4965250e-01
 -1.7342068e-01
  6.0196060e-01
  7.1131222e-02
 -8.4787488e-01
  1.4625806e-02
 -9.6633695e-02
 -1.3801600e-01
 -2.7909437e-01
 -1.9790414e-03
 -1.6192921e+00
 -6.8508971e-01
  5.1758564e-01
 -4.8160130e-01
 -4.0823221e-01
 -6.1762679e-01
 -5.7878202e-01
  2.6463321e-01
  2.7321565e+00
  1.8142135e-01
 -2.2188036e-01
  2.1719299e-01
  6.8120301e-02
  6.7035478e-01
  3.6896795e-01
  2.4515937e-01
 -4.3289089e-01
 -1.0925540e-01
 -7.3976600e-01
  2.3797536e-01
  7.0899135e-01
  6.4630878e-01
  5.0342453e-01
 -9.1068663e-02
 -1.4923188e-01
  2.9943706e-02
  1.3015777e-01
  2.2782469e-01
 -6.2957227e-01
  4.4342619e-01
  3.8605300e-01
  5.3163034e-01
  3.7867990e-01
 -4.9111357e-01
 -3.8676117e-02
 -4.0989894e-01
 -2.8707281e-01
 -2.6231892e+00
  1.0101694e-02
  3.5593736e-01
 -4.1803351e-01
 -1.1748672e-01
  4.9010745e-01
 -2.4831398e-01
 -6.7085135e-01
 -8.1151567e-02
  3.7539771e-01
  3.0072358e-02
  5.6536168e-01
 -8.1528819e-01
 -1.2662295e-01
 -5.5981964e-02
  3.6130837e-01
  1.0762703e-01
  8.4512442e-02
  3.9550260e-01
 -5.6196219e-01
 -4.1444942e-01
 -1.9729690e-01
  9.8879933e-02
  2.2851177e-01
 -1.2493365e-01
  1.1690273e-01
 -3.2378149e-01
 -5.8235139e-01
  1.4163493e-01
 -1.3356979e-01
 -5.1523232e-01
  7.5419970e-02
 -2.9993016e-01
 -1.2163346e+00
  3.6614421e-01
 -2.3972155e-01
  7.7768219e-01
 -3.9984062e-01
  5.4407924e-01
 -3.0834508e-01
 -5.9588782e-02
  3.5858560e-02
  1.8709099e-01
  8.3487984e-03
  2.6927482e-02
  3.7222424e-01
 -1.6960855e-01
 -2.0884271e-01
 -1.6317172e-01
  1.6510151e-01
  5.2367383e-01
  2.3421119e-01
 -2.2847560e-01
 -1.6559985e-01
 -8.6935019e-01
 -1.1586477e+00
 -6.2854731e-01
  2.6194317e-02
  2.3942034e-01
 -2.2437783e-02
  3.0202155e+00
  2.7068144e-01
  1.1347338e-01
 -7.8947522e-02
  1.6920993e-01
 -7.4297197e-02
  6.8642527e-01
 -1.9525406e+00
  4.4974157e-01
 -1.2522017e+00
 -7.5996077e-01
 -2.2406849e-01
 -1.0446792e-01
 -5.0696415e-01
 -1.2616572e+00
 -3.8032410e+00
  1.0334285e+00
 -3.6125216e-01
  4.0624326e-01
 -2.1089239e-01
 -1.6919442e-02
  2.8715831e-01
 -5.0456929e-01
 -4.2139225e-02
  4.6871871e-01
 -9.1419399e-01
  1.4331995e-01
  3.8399208e-01
  1.8034765e-01
  4.8801622e-01
 -2.7571824e-01
  2.6405364e-01
  3.9452127e-01
  6.5298831e-01
  3.7468889e-01
 -7.7580690e-01
  6.7795336e-02
 -4.2254493e-01
  5.9394115e-01
 -1.4229527e-01
  9.3807220e-02
 -1.0749164e-01
 -2.8005141e-01
 -2.6517692e-01
 -2.3272991e-01
  4.4975959e-02
 -3.1121629e-01
 -3.8712990e-01
 -1.9655850e+00
  2.3126164e-01
  1.8322362e-02
 -4.7675735e-01
  5.3749166e-02
  2.4773879e-02
 -1.6187303e-02
 -6.4705944e-01
 -8.0482021e-02
 -4.6108078e-02
  1.0144531e-01
  4.3500894e-01
  4.3573821e-01
  6.3736516e-01
 -4.7707126e-01
 -7.4868381e-02
 -2.3069593e-01
 -1.5458069e-02
 -2.7067971e-01
 -5.2673709e-01
 -1.6575217e-01
  5.4617237e-02
  4.1465837e-01
 -2.9727820e-01
 -5.8156889e-02
  5.3099787e-01
 -3.8406187e-01
 -5.1911473e-01
 -1.1982023e-01
  1.0768682e+00
 -1.0516783e+00
  2.3155313e+00
 -1.3011105e-01
  4.9891901e-01
  1.8905208e-01
  3.7090006e-01
 -1.9632301e-01
  3.8724184e-01
 -8.8959026e-01
 -8.9004282e-03
  3.5677147e-01
 -5.8314961e-01
 -1.1411843e-01
  3.9158705e-01
 -6.5822988e-03
  1.1605837e+00
  3.5681123e-01
  9.7781964e-02
  3.6960059e-01
 -4.3687731e-01
 -3.8541543e-01
  6.3622564e-01
 -9.0402746e-01
  3.0299344e+00
  1.5228206e+00
 -3.8348272e-01
 -9.4117534e-01
 -9.7053701e-01
  9.9637341e-01
 -6.6172940e-01
 -5.0174171e-01
  3.0992511e-01
  1.9724411e-01
  3.3361554e-01
 -1.5879588e-01
 -1.3103473e-01
 -7.9429513e-01
 -1.3322496e-01
 -1.6176119e-01
  7.9078847e-01
  3.4241533e-01
 -4.4578109e-03
  4.1975006e-01
 -2.6239446e-01
 -1.8724211e-02
  8.3055860e-01
  4.9077138e-02
  3.5995138e-01
 -7.3797607e-01
 -5.4309100e-01
 -3.7716419e-01
 -8.8139075e-01
  1.4517364e-01
  6.4482355e-01
 -1.8479790e-01
 -3.9744833e-01
 -7.4070042e-01
  5.3295100e-01
 -6.2278628e-01
 -7.5828856e-01
  4.9753433e-01
 -1.7251888e-01
  7.8335893e-01
  4.1268876e-01
  6.1960334e-01
 -4.9665403e-01
  1.4007318e-01
  2.7323690e-01
  2.4360049e-01
 -1.2405606e-01
  3.4962201e-01
 -5.3141153e-01
 -8.2379651e-01
  4.1178888e-01
  7.9111844e-02
  3.9777595e-01
  4.0585473e-01
 -3.9264932e-01
 -4.7192967e-01
 -2.4879974e-01
 -2.8788596e-01
 -4.9102375e-01
 -1.0952251e-01
 -7.3001981e-01
  4.0595561e-01
  6.7498988e-01
  3.6365140e-02
 -4.6350785e-02
  9.0619975e-01
  1.8948953e-01
 -3.2989112e-01
  1.9545543e-01
 -7.0769906e-01
 -1.2368827e-01
  7.6827146e-02
 -1.5016158e+00
 -8.0762625e-02
 -3.9412209e-01
  1.2107541e-01
 -1.4021921e-01
 -8.2284778e-01
 -2.4027213e-01
 -6.3693002e-02
  7.7420223e-01
 -2.1750078e-02
  7.0022650e-02
 -3.3478004e-01
  1.0135884e-01
  5.3808320e-01
 -1.9302060e-01
 -2.3529026e-01
  2.4985969e-01
  4.6490932e-01
  4.7203949e-01
 -1.0343844e-01
 -7.4756610e-01
  1.9395863e-01
 -5.6676203e-01
  2.1617740e-01
 -4.2661589e-01
  6.8941396e-01
  1.3393222e+00
  6.4204919e-01
 -1.3467672e+00
  1.4509809e-02
 -9.0393603e-01
 -9.4987333e-01
