nep4_zbl 2 Te Ge 
zbl 0 0
cutoff 8 8 92 92
n_max 8 8
basis_size 12 12
l_max 8 2 1
ANN 70 0
 -3.4888229e-01
  6.4632350e-01
  1.0689557e+00
  1.5651734e+00
 -2.2666163e+00
  1.0601470e+00
  3.9679956e-01
 -1.1142361e+00
  2.3486067e-01
 -8.4026717e-02
 -6.9037360e-01
 -2.6319000e-01
 -1.6367476e-01
 -3.4866485e-01
 -2.6737329e-01
  1.3792233e-01
  5.4265231e-01
  9.7585917e-01
  2.4424104e-01
 -4.0607530e-01
  6.4533252e-01
 -6.1371398e-01
 -7.4397272e-01
 -1.5131506e-01
 -4.1257405e-01
  1.9276704e-01
 -6.8525308e-01
  1.9093433e-01
  1.2230705e+00
  3.4124309e-01
  2.1634810e+00
  4.4011477e-01
 -2.5900283e-01
  6.7546785e-02
  1.6280071e-01
  5.0129944e-01
  2.3614314e-01
  2.6660067e-01
  1.0195104e-01
  2.8685263e-01
  7.5265658e-01
 -1.4810319e-01
  7.5710416e-01
 -8.6136609e-01
 -6.0677147e-01
 -1.3263371e+00
 -1.0884173e+00
 -3.1377292e-01
 -4.2575967e-01
  6.8057388e-01
 -1.3538061e-01
 -4.3612531e-01
 -8.4779546e-02
  7.9172242e-01
  1.2182997e-02
 -4.0008399e-01
  2.7191100e-01
  1.0148181e-01
  1.2809917e-01
 -3.6740160e-01
  9.9312626e-03
  6.1996895e-01
 -1.4753643e+00
  3.0689913e-01
 -1.0315042e+00
  2.0250085e-01
  1.2954505e-01
 -1.4585898e-02
 -2.5866953e-01
  6.5969026e-01
 -2.1995896e-01
 -1.6083325e-01
  7.5317037e-01
  1.7549250e-01
 -1.7729196e-01
  2.3854177e-01
  1.4965782e-01
 -3.7764719e-01
 -7.9565257e-02
 -1.9501954e-01
 -5.8638167e-01
 -2.6114634e-01
 -3.6356732e-01
  1.4512964e-01
 -4.4418100e-02
 -2.4550217e-01
  3.2770324e-01
 -6.6120124e-01
 -1.8069309e-01
  2.1440794e-01
 -8.4376669e-01
 -8.9970398e-01
 -1.2467665e-01
 -4.8289201e-01
  3.8818911e-01
  1.7393084e-01
 -7.9089075e-02
 -2.7344644e-01
 -1.2791127e+00
 -4.9800518e-01
  6.5102309e-01
 -9.9673644e-02
  1.0287902e+00
  3.7626696e-01
  7.0539236e-01
  2.6794297e-01
  7.0940143e-01
  3.3107959e-02
 -2.9755527e-01
  3.8308823e-01
 -1.4904216e-01
  6.7886341e-01
 -2.9866663e-01
  1.7527822e-01
 -5.3030902e-01
  2.9457241e-01
  1.3870297e-01
  2.1786018e-01
  1.7854375e-01
 -4.0460989e-02
 -6.1770481e-01
 -6.5902263e-01
 -5.8432621e-01
  6.0572404e-01
 -3.6296523e-01
 -8.4102482e-01
 -4.4507530e-01
  5.4235381e-01
 -4.5915800e-01
  7.3248118e-01
 -7.5001174e-01
 -5.4063324e-02
  1.4112514e+00
 -2.0505288e-01
 -2.6285654e-01
 -3.3794871e-01
 -2.4247025e-01
  3.5007742e-01
 -1.4982882e-01
 -5.7273763e-01
 -6.5857828e-01
 -2.4669245e-01
 -5.0686890e-01
 -1.2218915e+00
 -3.6920577e-01
 -1.0990748e+00
 -5.4375476e-01
 -1.9340673e-02
  1.1912773e-01
  6.1963093e-02
 -4.4095352e-01
 -3.4409863e-01
 -3.5884470e-01
  3.4704562e-02
 -8.1449813e-01
 -3.2251321e-02
 -5.3760606e-01
 -3.3384688e-02
  1.0860187e+00
  1.1902162e-02
 -1.4399999e-02
 -5.7589728e-01
 -8.2636580e-02
  4.4005963e-01
  4.1022721e-01
 -1.3932915e+00
 -2.1562666e-02
 -5.4093891e-01
 -4.4107699e-01
  1.8602780e-01
 -4.0938181e-01
 -4.5141491e-01
  4.1285175e-01
 -2.5492167e-01
 -2.1611248e-01
 -4.4365746e-01
  3.5652599e-01
  5.5805665e-01
  3.2873747e-01
  9.3922950e-02
  2.4903649e-01
 -1.8482086e-01
 -1.2401702e-01
  3.7302426e-01
  3.4649414e-01
  1.0230999e-01
 -2.9405954e-01
 -9.8573484e-02
  5.0356549e-01
  2.1297693e-01
  7.0104033e-01
 -2.0599184e+00
  3.0244388e-02
  4.7288278e-01
 -3.1156281e-01
  6.4619631e-01
  4.3091008e-01
  6.2521285e-01
 -1.1137140e+00
  8.9651716e-01
 -1.0235813e+00
  4.3213093e-01
  4.4031199e-02
 -9.3935090e-01
  5.9686834e-01
 -1.2158432e+00
  5.4543495e-01
 -4.8323344e-02
 -2.2822356e-01
  2.1603917e-01
 -1.8432786e-01
  3.4118176e-01
 -3.5167724e-01
  1.9962838e-01
  4.4555900e-01
 -2.7272236e-01
 -4.9444488e-01
 -1.3554218e+00
 -2.9958171e-01
  8.1963855e-01
  6.7262745e-01
  1.9752675e-01
 -5.9913003e-01
 -3.6662871e-01
  1.1251316e+00
 -4.3711424e-02
  4.3192637e-01
  5.7738012e-01
  3.1664807e-01
  4.2547455e-01
  5.1964764e-02
 -1.6956283e-01
 -2.2001815e+00
 -5.0787091e-02
 -3.7089580e-01
  4.8702806e-01
 -2.2520531e-02
  5.2142709e-01
 -3.4906814e-01
  1.1453268e-02
 -4.5875460e-01
 -2.1072407e-01
 -1.4117222e-02
 -8.5379905e-01
 -6.1933672e-01
 -1.1045720e-01
 -2.9349837e-02
  1.0979589e+00
 -1.0410103e+00
 -5.1732212e-01
 -3.4653962e-01
  1.2616305e-01
  5.2994680e-01
  1.3512090e-01
 -4.9750704e-01
  4.5422482e-01
  5.6914139e-01
 -5.9083599e-01
  6.4531408e-02
  1.6015615e-01
  1.2124863e+00
 -6.4205652e-01
 -3.2772431e-01
 -2.4550499e-01
 -3.5541847e-01
  2.3107804e-02
  1.0609436e-01
 -8.1043862e-02
  1.1522129e-01
  4.1519451e-01
 -5.0335187e-01
  5.4276294e-01
  3.4679288e-01
  2.0560034e-02
 -2.5953537e-01
  2.1025833e-01
 -5.8261621e-01
  2.1483538e-01
  2.1170282e-01
 -7.9972632e-02
 -2.0816173e-02
 -3.2701239e-01
  8.8457644e-01
  2.8595794e-02
 -1.5230258e-01
 -6.0573146e-02
 -4.1155625e-02
 -1.4060821e-01
 -4.3302026e-01
  6.6312987e-01
 -6.8557352e-02
  6.0639977e-01
 -5.6240086e-02
  1.3896088e-01
 -4.2411914e-01
  1.3440855e-01
 -5.5118340e-01
  7.4231470e-01
  7.8894198e-01
 -3.3288339e-01
  1.8169738e-01
 -2.7782372e-01
 -7.0034009e-01
  3.8330877e-01
  4.0575743e-01
 -8.7069154e-02
  1.1833026e-01
 -1.0196383e-01
  6.2904376e-01
  9.3734080e-01
 -4.4490606e-02
  2.6105082e-01
 -5.7196490e-02
  8.4404036e-02
  2.8974417e-01
 -9.0753365e-01
 -6.3049209e-01
  1.9775295e-01
  1.9139767e-01
 -2.2810352e+00
 -1.3093256e+00
  4.8552841e-01
  3.5852930e-01
  8.0576414e-01
 -2.9031252e-02
  2.3136413e-01
 -7.4089026e-01
  5.8975112e-01
  3.5691485e-01
  2.6709512e-01
 -5.1479441e-01
  6.3315028e-01
 -1.5003197e-01
  1.3494486e-01
 -8.8274944e-01
  6.7985791e-01
 -7.5502282e-01
  1.9418155e-01
 -1.5895249e-01
  5.2138811e-01
  8.2446113e-02
 -7.6321292e-01
  2.7811104e-01
 -5.4585791e-01
 -4.0615952e-01
 -1.3597789e-01
  2.0188929e-01
 -5.7018310e-01
 -1.9172268e-01
  9.3446976e-01
  6.4756423e-01
 -1.4879788e-01
 -3.2022190e-01
 -4.9803293e-01
 -3.8208568e-01
  7.0185673e-01
 -6.0953170e-02
  1.4249733e-01
  3.1364292e-01
  4.5459265e-01
 -1.4553206e-01
 -8.1251079e-01
  4.6172109e-01
 -2.1578503e-01
  7.3043324e-02
  8.5910633e-02
  2.4714588e-01
 -1.1806162e-01
  2.6874056e-01
 -5.0112432e-01
 -8.4283046e-02
  1.2328350e-02
  3.2664829e-01
 -6.8174887e-01
  2.6634276e-01
 -1.6760762e-01
  3.5259938e-01
 -2.6394385e-01
 -2.2344367e-01
  6.8449162e-02
  2.8153962e-01
  8.5165554e-01
  8.5604167e-01
 -1.6199645e-01
 -1.0125673e-01
 -7.4743754e-01
  2.0101388e-01
 -1.4127185e+00
  1.7950302e-01
 -4.8445004e-01
  1.5495053e-01
 -1.9976895e-01
  2.2840424e-01
 -3.4144637e-01
 -1.6088815e-01
 -4.8813030e-02
  1.4042665e+00
  2.2627979e-03
  2.3505272e-01
  1.1370968e+00
 -2.3454902e+00
  3.0161235e+00
  1.2900421e-01
 -9.5674151e-01
 -1.6503805e-01
  3.9405039e-01
 -1.6863652e-01
 -8.1242716e-01
  6.5825289e-01
  1.4411090e-01
  1.5030504e+00
 -2.1235412e-01
  6.5892106e-01
  5.8851320e-01
 -1.6024647e+00
 -1.3860016e-01
  1.1410930e-01
 -3.6256051e-01
 -1.3296885e+00
 -7.7065420e-01
 -1.1430907e+00
 -1.1382908e+00
 -9.0685356e-01
  1.6483146e+00
 -4.8669264e-01
 -2.8510001e-01
  4.2264187e-01
  1.1295456e-01
  1.2221279e-01
 -1.4801574e+00
  1.1870785e+00
 -9.1332513e-01
  2.1454127e+00
  4.3429896e-02
 -3.1037939e-01
 -9.4436848e-01
 -1.4842243e+00
 -1.2129313e-01
  5.3686124e-01
  1.1216389e+00
 -6.8387079e-01
  9.9260241e-01
 -4.7688821e-01
 -4.9803567e-01
  5.0453894e-02
 -4.0990973e-01
 -4.3445233e-01
  6.3357735e-01
  1.8930331e-01
  4.8161483e-01
 -5.4522806e-01
 -9.3370068e-01
 -7.6257980e-01
 -3.1703413e-01
 -5.6324047e-01
 -6.8997473e-01
 -1.4938624e-01
 -5.3328507e-02
 -5.2660096e-01
 -5.6863350e-01
  4.3450087e-01
  2.9506138e-01
  8.4540546e-02
  1.6950311e-01
 -3.0537638e-01
 -5.5135906e-01
  5.7375491e-01
 -4.5829633e-01
 -7.6152080e-01
 -9.2743509e-02
 -7.7988148e-02
 -7.1452159e-01
 -3.3939275e-01
 -3.8481781e-01
  3.2708210e-01
 -4.5417368e-01
  1.0319924e-01
  4.8013359e-01
  7.4770570e-01
 -1.2734489e-01
  3.1734768e-01
 -4.7777915e-01
 -1.5637359e-01
  1.1746971e-02
  3.4301177e-01
 -1.0005133e+00
 -6.5802479e-01
 -8.9766574e-01
 -5.5508536e-01
  6.8768424e-01
 -1.1666096e-03
 -6.1985880e-01
 -1.0727328e-02
 -4.4344851e-01
  1.9432040e-01
  2.5218406e-01
 -7.9912074e-02
 -4.6896842e-01
 -2.7012300e-01
  6.9862735e-01
 -3.7284255e-01
 -1.2909156e-01
 -2.4719558e+00
  6.0425293e-01
  2.1654348e-01
  4.2876583e-01
 -1.2352134e-01
 -1.8930872e-01
 -3.9458930e-01
 -5.2882236e-01
  1.3045141e-01
  7.0564342e-01
 -6.8024051e-01
  3.2343829e-01
 -1.1874206e+00
 -4.1479284e-01
 -1.1467411e-01
  3.4292004e-01
 -5.8718973e-01
 -1.2261529e-01
 -7.5465322e-02
  1.0893544e-01
  2.9754609e-01
  4.2868185e-01
  7.8013599e-02
 -3.2666728e-01
  2.2690487e-01
 -6.6446215e-01
  6.1619706e-02
  1.6659568e-01
 -6.0258895e-01
  2.4136987e-01
 -3.4301907e-01
 -1.2838079e-01
  7.4887201e-02
  5.7301778e-01
 -3.5421297e-02
 -4.3685305e-01
  1.4201459e-01
  3.7316832e-01
  1.1953532e-03
 -9.9097289e-02
  1.0944936e+00
 -9.1526568e-02
  3.1392974e-01
 -1.5134435e+00
  4.5716423e-01
 -5.1591218e-02
 -5.6763273e-01
 -4.0154800e-01
  3.3325127e-01
 -2.4123544e-01
  3.6739808e-01
 -4.2052829e-01
 -3.8241006e-02
  7.8135043e-01
  1.0320426e-01
  8.8268471e-01
 -4.0170401e-01
 -2.8938422e-01
  2.6465729e-01
 -6.6087723e-01
 -5.0934935e-01
  1.6535282e-01
  4.2415375e-01
 -1.5797894e-01
  3.6407858e-02
  3.4922633e-01
 -6.1161524e-01
 -1.5090957e+00
 -9.8364979e-02
 -5.4316133e-01
 -4.1099712e-01
  4.2520723e-01
 -1.6549784e-01
  2.6691151e-01
 -1.7258464e+00
  4.4737270e-01
 -1.8735315e-01
 -2.0035869e-02
 -4.9093610e-01
  4.5760277e-01
  1.8019076e-01
 -1.0709033e-01
  1.8946403e-01
  1.1759817e-01
 -2.0675904e-01
  2.6598245e-01
 -2.0683603e-01
  2.6590723e-01
  1.8046483e-01
 -1.0752218e+00
 -4.2683133e-01
 -7.6891154e-02
  7.5080830e-01
  6.2198222e-01
 -5.5265689e-01
 -1.5391666e-01
 -2.9346651e-01
 -1.0892062e+00
 -6.7190218e-01
  5.7765536e-02
  2.4940209e-01
  1.1261851e-01
 -3.5447344e-01
 -2.4602260e-01
 -4.9193673e-02
  2.6062477e-01
 -4.7919869e-02
 -2.6007062e-01
 -3.5222331e-01
  2.0999387e-01
  2.8077024e-01
 -2.8452599e-01
 -5.7488203e-01
 -2.7143371e-01
 -7.8277573e-02
  5.0960326e-01
  4.9087432e-01
  2.9595855e-01
  1.4579648e-01
  2.4206832e-01
  3.7532461e-01
  3.2183193e-03
 -5.9654820e-01
  5.9957349e-01
 -4.8565510e-01
 -8.5618272e-02
 -1.5115154e-01
  1.1914649e-01
  4.9381480e-01
 -4.8875040e-01
 -2.9929829e-01
 -4.5612460e-01
  4.9519780e-01
  7.9705822e-01
 -8.4446770e-01
 -2.1073160e-01
  6.8115115e-01
 -4.4179942e-02
  3.8732520e-01
  1.6182931e-02
 -6.8045154e-02
 -3.9049587e-01
  8.2392558e-02
 -1.7050838e-01
 -2.7735034e-01
  5.6498188e-01
  3.6593282e-01
  2.0806740e-01
 -4.7748417e-01
 -4.1277912e-01
 -4.5915093e-02
  2.5441813e-01
 -1.7056131e-01
  2.8831324e-02
 -1.6993299e-01
  2.2231107e+00
 -7.1284425e-01
 -4.6222270e-02
  1.9950880e-01
  1.2871859e+00
 -2.3083940e-01
 -5.9175313e-01
 -4.6166739e-01
 -4.1048646e-01
  2.7886751e-01
  3.7263775e-01
 -1.8251920e-01
  3.8346380e-01
 -4.9716684e-01
  3.2042965e-01
  6.0127944e-01
 -4.9223343e-01
 -3.5679743e-01
  1.4206098e+00
  3.2854295e-01
 -6.2173003e-01
 -4.3926615e-01
 -2.0613003e-01
 -7.1742430e-02
 -7.0641547e-02
 -3.2360813e-01
  4.4456758e-02
  5.1087290e-01
 -2.5452402e-01
 -2.7010930e-01
  1.1926468e-01
 -4.3070647e-01
  2.0825192e-01
  3.9219105e-01
  7.3344558e-01
 -1.3211337e-01
 -9.8325425e-01
 -7.3968178e-01
  1.3835065e+00
 -2.2304688e+00
  1.2573718e-01
 -1.1116581e+00
 -3.2101142e-01
  6.5768450e-01
 -2.6792791e-01
 -1.4737046e-04
 -1.1629528e+00
  2.6060364e+00
 -5.0567740e-01
  9.4030946e-01
  1.5758390e+00
  7.1257192e-01
  9.8336327e-01
  6.8377477e-01
 -9.0331756e-02
  8.9811605e-01
  7.0344144e-01
 -3.1370962e-01
 -2.6757500e-01
 -1.3656029e+00
  1.4406252e+00
  3.3973348e-01
  8.0160940e-01
  2.8141031e+00
 -3.3477682e-01
  2.2114873e+00
  8.7459993e-01
 -1.8212269e-01
  5.6374365e-01
 -4.1705284e-02
  2.3267372e-01
 -2.4862555e-01
  3.0520556e+00
  1.8237567e+00
 -2.1996620e+00
 -1.5154990e+00
  7.2970724e-01
 -1.6064333e+00
  7.8629589e-01
  2.8326693e-01
  2.6005143e-01
  2.2334449e+00
  1.4103780e+00
 -1.3285550e-01
  1.4938406e+00
  1.1336467e+00
 -5.2167290e-01
  1.7094638e+00
 -8.7981474e-01
 -6.2094337e-01
  1.0396035e+00
  9.0041417e-01
 -8.4287608e-01
  8.1128734e-01
  1.2552682e+00
  9.3881786e-02
  2.1496630e+00
 -7.4394429e-01
  1.2777271e+00
  1.6529427e+00
 -4.7776255e-01
 -4.3730816e-01
  3.1818298e-01
 -8.1643879e-01
  7.3947984e-01
 -1.6151631e-01
  1.0569245e+00
 -1.9857511e-01
  9.4231404e-02
 -4.3238857e-01
 -6.8334244e-02
 -5.8819497e-01
 -6.9303578e-01
 -2.8176606e-01
  6.8461889e-01
  6.7614585e-01
  1.8839900e-01
  5.5542493e-01
 -9.9289483e-01
  1.8774408e-01
  6.8915683e-01
 -6.1236966e-01
 -2.6226020e-01
  1.7419495e-01
  1.1460523e-01
 -1.7797025e-01
 -1.8269999e-01
  8.9970589e-02
 -3.4912461e-01
  6.4764097e-02
 -5.4573232e-01
  8.4343947e-02
  1.6648164e-01
 -5.4435456e-01
  7.4900591e-01
 -2.4630470e+00
  8.0608857e-01
 -1.3932130e+00
 -2.0140958e+00
 -9.7863889e-01
 -1.8177992e+00
 -3.0492228e-01
 -2.2905252e+00
  4.4649616e-02
  6.6397232e-01
  3.1733590e-01
 -1.0775566e-01
  9.9358976e-01
 -1.4393641e-02
 -1.7825648e-01
 -3.7433299e-01
  2.0252051e+00
 -2.8012800e-01
  9.7695196e-01
 -8.3041084e-01
  1.2019297e+00
  7.9708004e-01
  2.4117012e-01
  2.7916363e-01
  6.2076610e-02
 -3.2196635e-01
  9.7489637e-01
  1.4595869e+00
  3.2731634e-01
  8.0206776e-01
 -3.5520098e-01
  1.7367465e-02
  1.2905789e-02
  2.4896183e+00
  5.1715899e-01
  5.0050586e-01
  2.5430400e+00
  3.3151562e+00
 -1.1959803e+00
 -2.8503421e-01
  1.1349641e+00
 -6.7349827e-01
  1.1528444e+00
  1.1460356e-01
  1.1747634e+00
  1.5033143e+00
  1.6876758e+00
  1.9233708e-01
 -5.6852221e-01
  9.9277514e-01
  3.8776144e-01
  6.3852638e-01
  1.0064507e-01
  1.4983013e-01
  5.3490746e-01
  5.1115996e-01
  3.2387426e-01
  6.4472532e-01
  1.2107465e-01
 -3.1385154e-01
  4.4115382e-01
  9.6742076e-01
  7.6806921e-01
  6.5010780e-01
 -7.4871534e-01
  1.2965590e-01
  1.9702898e-01
  2.6484913e-01
 -2.3452324e-01
  2.0603299e+00
 -2.9394847e-01
  8.1299774e-02
  3.6608854e-01
 -1.0217280e+00
 -2.4890392e-01
 -5.6753421e-01
 -3.5679063e-01
 -9.4248551e-01
 -3.9547514e-02
  8.1129742e-01
  2.8537816e-01
 -3.5318655e-01
  7.2256291e-01
  6.9816113e-01
 -7.4032080e-01
  3.1960961e-01
  5.7169747e-01
  3.1188330e-01
  4.4350719e-01
 -2.2006264e-02
  2.5807064e-02
  2.4901101e-01
 -1.5725161e-01
 -1.1793438e-01
  1.7290419e-01
  3.4906086e-01
  2.8362384e-01
 -2.1353768e-01
  4.0696301e-02
 -3.1688983e+00
 -1.6494414e+00
 -2.6327674e+00
 -2.8666584e+00
 -2.9124069e-01
 -1.5862132e+00
  4.6917221e-01
 -1.8695476e+00
  4.1511315e-01
  1.8247165e-01
 -5.5600226e-02
 -1.0766698e-02
  2.9243922e-02
  1.6402046e-04
 -1.5866704e-01
 -1.9588690e-01
  1.6522193e-01
  7.7078903e-01
 -3.4883952e-01
 -7.4071728e-02
 -1.7660706e-01
 -2.3192102e-01
 -5.7844970e-02
 -2.9553738e-01
 -7.9106206e-01
 -5.0522828e-01
 -3.3157215e-01
 -7.5929463e-01
 -1.5088123e-01
  2.1902321e-01
 -2.6967916e-01
 -1.7372208e-02
 -2.0932876e-01
 -1.5301673e+00
  2.5081670e-01
 -1.9246407e-01
 -7.2685301e-01
  9.0708125e-01
  8.5144418e-01
 -5.4106213e-02
 -1.2248071e-01
 -4.7520357e-01
 -6.1043793e-01
  5.6451839e-01
 -2.4608912e-01
 -5.2404678e-01
  5.2104745e-02
 -6.4252153e-02
  7.0576459e-01
  2.2705713e-01
 -4.2862707e-01
 -5.8725107e-01
  2.7083397e-01
  2.2413757e-01
 -6.3048542e-01
  2.3131804e-01
  1.3403159e-01
  1.7023723e-01
 -5.0696331e-01
  1.3466892e-01
  2.5004148e-01
 -8.4091455e-02
 -1.3891200e+00
 -1.3321486e-01
 -2.1884017e-02
 -1.6349033e-01
  4.7131601e-01
  4.8064506e-01
  1.8987273e-01
  1.6877623e-01
 -1.3803709e-01
 -3.7968820e-01
 -2.8752819e-01
 -6.7482197e-01
 -2.7999800e-01
  7.5576246e-02
  1.2414356e-01
  1.0119574e-01
 -2.0424673e-01
  1.6879074e-01
  1.9738158e-02
 -1.1373048e-01
  1.9812271e-01
 -1.6948220e-01
 -6.1637545e-01
  3.4755751e-02
 -7.5814056e-01
  2.8306112e-01
  3.7958771e-01
  2.4084353e-01
 -4.4625002e-01
  1.3287704e-01
 -2.5912300e-01
  2.4284931e-01
 -1.1355580e+00
 -1.1335530e+00
 -1.4368066e-01
  4.1231036e-01
 -2.4216017e-01
 -3.6220405e-01
 -2.4337604e+00
  9.5282125e-01
 -5.2533394e-01
  1.4548608e+00
 -2.3874164e+00
 -1.0497746e+00
  1.8216643e+00
 -1.6777265e-01
 -9.3064867e-02
  3.7106398e-01
  5.4649341e-01
 -3.9409325e-01
  1.9921772e-01
 -9.8536509e-01
 -1.7780688e-01
  1.3409790e-01
  2.4865241e-01
  8.7063706e-01
  9.5600225e-02
 -1.4337850e-01
  1.2659602e-01
  4.5371494e-01
  8.4750354e-01
 -4.4425699e-01
 -1.4839258e+00
 -1.7017078e-01
 -5.7805717e-01
  7.8214085e-01
  4.8719764e-01
 -3.5438746e-01
  8.0059052e-01
  1.3516346e-01
 -4.3703166e-01
  2.3907833e-02
  7.6167738e-01
 -8.9687335e-01
 -1.4874979e+00
 -1.8576825e-01
  7.2731334e-01
 -5.4400539e-01
 -1.6410391e-01
 -1.4078339e+00
 -1.3453315e+00
  7.6448554e-01
  2.7556917e-01
  6.6262662e-01
 -2.2259460e-01
 -5.6602174e-01
  9.3336600e-01
 -1.0745025e+00
  6.9100869e-01
  1.3842338e-01
  5.7583529e-01
 -1.9377336e-01
  6.5833348e-01
  1.1023826e-01
  5.9747607e-01
 -2.4381062e-01
  1.3552567e-01
 -3.5315531e-01
 -4.0639219e-01
 -2.8734738e-01
 -1.6298003e+00
  1.0105948e+00
  1.6747986e-01
  2.2810420e-01
 -2.5166559e-01
  2.8105342e-01
 -1.1316546e+00
 -1.0931852e+00
  3.7081876e-01
  8.6117589e-01
 -8.6894709e-01
  1.0555420e+00
  3.1848244e-02
  2.3201510e-01
  1.0500172e+00
  9.7562557e-01
 -3.0906406e-01
 -1.1827693e+00
 -5.1242602e-01
  5.0158191e-01
 -5.7298124e-01
  3.8480628e-02
  3.8408303e-01
  1.8487558e-02
  1.6243868e-01
  1.9007992e-02
 -9.2721796e-01
 -9.8550296e-01
  4.2131227e-01
  1.8023320e-01
  1.9083500e-01
 -2.6389902e-02
  3.4694147e-01
  2.5476891e-01
 -4.2312436e-02
 -6.1954886e-01
  8.4601694e-01
 -1.7267330e-01
  3.6062714e-02
  4.0178519e-01
  7.4404202e-02
  1.0823254e-01
 -1.6006850e-01
 -1.0344143e+00
  1.5737636e-02
  8.7808287e-01
 -1.5487257e-01
  7.4451351e-01
  2.1851163e-02
 -8.7418908e-01
  5.6326885e-02
  2.2748177e-01
  1.1606482e+00
 -5.9581769e-01
  1.0521941e+00
  6.5505081e-01
 -1.9213238e-01
  3.2288000e-01
  2.6138312e-01
  4.5516297e-01
 -1.8744086e-01
  1.9273797e-01
  4.5748299e-01
  1.6117650e+00
 -5.3145325e-01
 -1.2730108e-01
 -1.0853110e-01
  1.7188750e-01
  1.4448117e-01
 -7.1507387e-02
  7.7069712e-01
 -5.5588847e-01
 -7.0011216e-01
 -5.3727585e-01
  4.9780598e-01
 -3.0275619e-01
 -4.7420430e-01
 -2.6763445e-01
 -5.7918286e-01
 -1.4942950e-01
 -4.7595352e-01
 -1.3328333e-01
  2.2086328e-02
 -3.6825496e-01
 -1.6457874e-01
 -1.3897320e+00
 -4.2620236e-01
 -4.8640952e-01
  1.8295978e-01
 -2.4296112e-01
 -5.6131780e-02
 -2.2003852e-01
 -7.5711934e-03
  4.4268906e-01
 -2.9120451e-01
 -4.3570310e-01
  4.8707297e-01
 -6.1014324e-01
  3.3747312e-01
 -9.9582815e-01
 -5.5736047e-01
  5.4624051e-01
  3.6160603e-01
 -5.6292224e-01
  2.2923067e-01
  2.0399962e-01
 -2.2001490e-02
  8.8279406e-03
 -1.4354888e-01
 -7.0404208e-01
 -7.1772367e-02
 -3.0165878e-01
 -5.5699128e-01
 -4.1238517e-01
 -2.5396168e-01
  6.3480809e-02
 -9.5572668e-01
 -5.2346265e-01
 -3.6998329e-01
 -6.3049537e-01
 -6.6797143e-01
 -1.3374913e-01
  8.5844198e-04
 -5.5367130e-01
 -2.2761877e-01
 -3.2311875e-01
  3.3367756e-01
 -7.7414703e-01
 -3.6166169e-02
 -5.0262678e-01
  2.0003648e-01
 -2.5715128e-01
  3.6292395e-01
  1.9322962e-01
  3.1695092e-01
 -1.2712164e+00
  2.5338215e-01
  4.5246649e+00
  1.1616702e+00
  2.9235903e-02
  1.0251263e+00
  9.5118076e-01
  4.1748464e-01
  1.3653028e+00
  3.1407011e-01
 -4.8341808e-01
  4.7975290e-01
  1.2686568e-01
  1.2812482e-01
 -3.7881374e-01
  4.4341016e-01
  5.6186849e-01
  2.0387810e-01
  3.9611187e-02
  4.1857681e-01
  3.1936854e-01
 -4.4395164e-01
  2.4530537e-01
 -8.7924671e-01
  4.4937588e-02
  2.8417742e-01
 -1.5897241e-01
  1.9307107e-01
  4.9016792e-01
 -3.6935577e-01
 -4.5490764e-02
 -1.2135936e-01
  2.3983000e-01
  4.7304371e-01
  1.1037397e-01
 -2.0594096e-01
  9.7859955e-01
 -4.8141532e-02
  8.0993402e-01
 -7.1084499e-01
  3.7162668e-01
 -1.1564467e-01
 -6.2325698e-01
 -6.3913673e-01
  3.6641991e-01
 -5.4133916e-01
 -1.8373092e+00
  2.2312489e-01
 -5.7452011e-01
  3.4866583e-01
  5.4126400e-01
 -2.8578648e-01
  3.5479799e-01
 -1.9104319e-03
 -3.8704023e-01
 -4.4070315e-02
  6.9508791e-01
  4.3337649e-01
  3.6875197e-01
 -1.1701765e-01
  3.1780098e-02
  2.8531530e-01
  1.0020372e-02
 -2.5839907e-01
  2.0094399e-01
  6.2928438e-01
 -7.3323160e-01
  2.9296759e-01
 -1.9266039e+00
 -4.5416713e-01
  1.0190762e-02
 -2.2193536e-01
 -3.5067827e-01
 -3.7682670e-01
 -2.0540510e-01
  1.2348949e-01
 -6.2209463e-01
 -5.1637869e-02
  4.7648013e-01
 -1.0255983e-01
  5.6497687e-01
 -1.5968885e-01
 -8.1620693e-02
  9.5935516e-02
  1.7275520e-01
  2.3232651e+00
 -1.4786924e-01
 -4.6112004e-01
  9.6949987e-02
  6.6357017e-02
  6.6941313e-02
  8.5543394e-02
 -1.9240010e-01
  1.0967264e+00
 -2.5515625e-02
 -5.3291422e-01
 -1.5109324e-01
 -2.3767407e-01
  7.9729497e-01
 -1.6879432e-01
  2.7737306e-02
 -1.8449533e-01
 -6.6831744e-01
  1.6422975e-01
  1.2579204e+00
 -5.7328677e-01
 -1.7965087e-01
  6.3851601e-01
  4.7032818e-01
  1.8995415e-01
 -8.1236310e-02
  3.0919275e-01
 -8.1601486e-02
  1.2377358e-01
 -5.3550804e-01
  1.9771983e-01
  1.4192660e-01
  3.3996269e-01
  3.8726148e-03
 -6.2124316e-02
 -1.8033974e+00
  2.4767832e-01
 -3.6105520e-01
  2.5940305e-01
  2.3405463e-01
 -2.8522906e-01
 -5.7420321e-02
 -6.2636602e-01
 -3.6004183e-01
  1.7277156e-01
 -2.7122101e-01
 -2.2581011e-01
  2.9949356e-02
  1.7398576e-01
 -6.4230114e-01
  1.8563675e+00
 -2.8670114e-01
  1.9282769e-01
 -6.9774434e-02
  4.6780538e-02
  2.0360005e-01
  3.6909381e-01
 -7.2184336e-01
  4.5246679e-02
  3.2402462e-01
  1.8950778e-01
 -3.9685833e-01
 -2.9305309e-01
 -5.1925212e-01
  3.7190740e+00
 -9.4087720e-02
 -5.4811722e-01
 -4.2021638e-01
  1.0888940e-01
  1.3874038e-01
  1.5628837e-01
 -1.0209543e+00
 -4.2404795e-01
  2.6179168e-02
  6.0101241e-01
 -7.2418928e-02
  2.2515722e-01
  1.0492665e+00
  4.0913302e-01
 -4.1955453e-01
 -7.6639766e-01
 -2.7066225e-01
 -1.1173085e-01
 -8.7455457e-01
  3.5666043e-01
 -2.7864754e-01
  1.7569207e-01
  1.1136802e+00
  3.3869880e-01
  1.6356468e-02
 -2.7707547e-01
  3.3966067e-01
  5.0697133e-02
  6.2482834e-01
  3.0485311e-01
  2.7672393e-02
  1.8166685e-01
  1.1845993e-01
  3.2412295e+00
 -2.6563448e-01
 -4.3570372e-01
 -7.9420400e-01
 -6.4668013e-03
  1.3888785e-01
  7.8753859e-01
  3.6435959e-01
 -4.1864669e-01
  4.4440773e-01
  1.7500566e-01
 -5.7177359e-01
  2.5808519e-02
 -1.4985038e-01
 -4.2194340e-02
  7.1186447e-03
  1.2870620e+00
 -2.7098572e+00
 -7.3579228e-03
 -1.4140284e-01
  8.7964666e-01
 -2.4288578e-01
  7.5765826e-02
  5.3384118e-02
 -4.2573982e-01
 -4.0463710e-01
 -5.3517896e-01
  4.5247752e-02
  9.7638257e-02
 -5.7531714e-01
  1.9385818e-01
  1.3735180e-01
  5.1371366e-01
 -1.4718960e-01
 -3.6728704e-01
  2.4618971e-01
  7.6921940e-02
  2.4580052e-01
  3.1169370e-01
 -3.5883501e-01
  4.7054353e-01
 -4.8870176e-01
  5.1680291e-01
 -1.6468231e-01
 -5.3455389e-01
 -3.0769125e-02
  1.0043658e-01
  1.1321293e+00
 -2.2886105e-01
 -3.6959255e-01
  2.2891043e-01
 -5.5630106e-01
  1.2976609e-01
  1.7669612e-01
 -6.1166931e-02
 -1.6314530e-01
 -4.5291328e-01
 -1.3935323e-01
 -5.9815794e-01
  1.0981454e+00
 -1.1171613e-01
 -1.1553697e-03
 -4.4121280e-01
 -6.2221193e-01
  2.0436729e-01
 -1.5593684e-01
 -1.6692795e-01
 -4.2869493e-01
  2.4247749e-02
  7.0857072e-01
  1.9489646e-01
 -5.9444445e-01
  4.3289962e-01
  6.8433022e-01
  5.3964633e-02
 -2.0642956e-01
  6.5164435e-01
 -3.7395391e-01
 -8.3267468e-01
 -1.0379675e-01
 -1.5622596e-01
 -2.4615362e-01
  2.8260326e-01
 -5.3013307e-01
 -4.6146533e-01
  1.1767022e-03
  2.1778026e-01
 -3.4296703e-01
 -3.1271175e-02
 -5.3487659e-01
  4.8183689e-01
  2.3471896e-01
 -3.1532090e-02
 -5.2162951e-01
 -4.1763839e-01
 -1.2848105e-01
 -1.6424504e-01
  2.7513131e-01
  3.2873306e-01
 -6.3147044e-01
  7.1091160e-02
 -2.4836097e+00
 -2.7643576e-01
 -4.0847126e-01
 -3.1279379e-01
 -9.7057171e-02
 -4.6691996e-01
 -8.8662319e-02
 -6.2309676e-01
 -1.0188437e-03
 -3.9154246e-01
 -5.6332076e-01
 -3.2857364e-01
 -5.5008864e-01
 -1.1005505e-01
  1.5083432e-01
  2.0199187e+00
  5.2146250e-01
 -2.1052389e+00
  1.4076526e+00
 -9.6311492e-01
 -2.4027379e+00
  2.5762832e-01
 -8.4197432e-01
  5.1391233e-02
  2.2877412e+00
 -4.9908105e-01
 -6.7261353e-02
 -5.1832032e-01
 -3.5848614e-02
  7.3255366e-01
  1.1602615e-01
  1.3142584e-01
 -8.5807300e-01
 -9.0123701e-01
  2.8763661e-01
  5.8520722e-01
  1.4075837e-01
  4.3001674e-02
  7.8941220e-01
  8.8516378e-01
  4.5257720e-01
  2.9657149e-01
  1.0536562e+00
 -6.3242912e-01
  5.1263022e-01
 -7.6229161e-01
  5.9513223e-01
 -3.2173309e-01
  1.4651246e-01
  3.3479254e+00
 -5.7418841e-01
 -2.8288528e-01
  8.8466221e-01
  5.0356048e-01
  6.0859931e-01
  1.6571622e+00
  2.4854105e+00
  1.9864750e+00
 -9.8867792e-01
  6.1146313e-01
  9.2535198e-01
  4.0206611e-02
  5.2615511e-01
  7.2476304e-01
  1.2624890e+00
  8.6579877e-01
  6.2837529e-01
  7.5402629e-01
 -3.8056684e-01
  1.5535599e+00
  1.1900797e+00
 -3.2250202e-01
 -2.1445900e-01
  1.8164448e+00
  5.0571695e-02
  9.5626789e-01
 -7.5915980e-01
  8.2013309e-03
  4.1305134e-01
  7.4047005e-01
 -1.5193486e-02
 -5.2130711e-01
 -3.7917179e-01
 -8.2045096e-01
  6.5194499e-01
  3.1468487e-01
 -2.9535224e+00
 -6.0566443e-01
 -8.2889694e-01
  6.8788123e-01
  3.0921289e-01
  3.0993885e-01
  2.8595811e-01
  4.2773330e-01
  6.4274043e-01
  1.4445475e+00
 -2.0606057e-01
 -1.3046058e-01
 -2.4173810e-01
 -4.0076876e-01
 -3.2471099e-01
 -2.6973811e-01
 -5.5685943e-01
 -3.2137036e-01
  1.1523888e-01
 -5.3767973e-01
  2.1667082e-02
  8.3388001e-02
  3.9284983e+00
  5.4031390e-01
  2.4721749e-01
  4.9631009e-01
 -3.7642649e-01
 -7.7676885e-02
  2.9387906e-01
 -4.8435256e-01
  9.2739731e-02
  1.1808345e-02
 -4.0323940e-01
 -9.6371299e-01
 -1.4883724e-01
  1.1548734e-01
 -2.9739720e-01
 -5.5587596e-01
 -4.5164663e-01
 -7.6869380e-01
 -3.9670420e-01
 -1.2277642e-01
 -7.1649767e-02
 -1.1515773e-01
 -3.4953564e-01
 -1.3264750e-01
 -3.0199343e-02
 -3.6792681e-01
 -2.2892436e-01
  1.6092208e-01
 -2.6222503e-01
 -1.5293306e-01
  4.1379908e-01
 -1.5158564e-01
 -7.3397070e-02
 -2.2673076e-01
  3.4849617e-01
  1.8581487e-01
  4.4919573e-02
 -1.5786888e-01
  8.8673282e-01
  6.1468899e-02
 -1.6696028e-01
 -1.6781373e-01
  6.1566893e-02
 -4.6213403e-01
 -3.4109280e-01
 -6.3682914e-02
  2.4729572e-02
  5.4321915e-01
  3.8292772e-01
 -5.5807561e-01
 -1.9383565e-01
  4.8697481e-01
 -9.1525131e-01
 -2.2216523e-01
 -1.0572106e-01
 -6.6171515e-01
 -7.2846854e-01
  1.7722145e-01
  1.9267234e-01
  1.3351487e+00
 -2.6462552e-01
 -4.5837689e-02
  2.1763456e-01
  4.5093596e-01
 -3.9729804e-01
 -5.7651097e-01
 -6.5688026e-01
  3.4793162e-01
  9.5975913e-02
  3.1605047e-01
  2.4565253e-01
 -6.3034743e-01
  1.3822210e-01
  3.2614946e-01
 -3.6696970e-01
  1.4332722e+00
 -4.6712115e-02
  1.6846606e-01
 -4.6683538e-01
  4.3159762e-01
 -4.8508503e-02
  1.3867895e-01
  3.3264408e-01
 -5.8494773e-02
  4.0066794e-01
  1.7596886e-01
  6.3950628e-02
  7.5315133e-02
  1.1594247e+00
  1.6517456e-01
 -3.8070905e-01
 -4.5268977e-01
 -7.4421920e-02
 -1.7234822e-01
  1.9919999e+00
 -5.5812389e-01
 -6.2373418e-01
 -1.6797778e-01
 -5.0692451e-01
 -1.9019692e-01
 -3.6073652e-01
  4.9927434e-01
 -4.9888515e-01
  1.4247416e+00
  1.4407016e+00
 -9.7296767e-02
 -8.9411938e-01
  1.4018218e-01
 -1.1513119e+00
  9.1990761e-02
 -3.9348900e-01
  1.7676353e-01
 -5.1011354e-01
 -7.0110094e-03
 -7.2397286e-01
  2.5875786e-01
 -6.1743063e-01
 -8.5408807e-02
  3.6606845e-01
 -1.5261929e-01
 -5.5679792e-01
 -1.2435403e-01
  1.7153619e-01
  3.4487471e-01
 -6.6114432e-01
 -5.7283175e-01
  1.1900526e-01
 -6.7418784e-01
 -4.6511725e-01
 -1.4143357e+00
  9.2758965e-01
 -9.4310117e-01
 -2.4203351e+00
 -3.6717120e-01
 -6.6589940e-01
  1.1060567e-01
  7.3192948e-01
 -5.1296073e-01
 -3.8497162e-01
 -3.8308907e-01
  5.8219987e-01
 -9.6669251e-01
 -1.6663332e+00
 -1.1130286e+00
  5.6186759e-01
 -8.7267905e-01
 -9.9699175e-01
 -6.6402042e-01
 -1.5632993e-01
 -3.6984217e-01
 -7.6871437e-01
 -1.0292450e+00
 -9.5083934e-01
 -4.9166632e-01
 -8.8721752e-01
 -1.8306540e-01
 -9.7100013e-01
 -1.1681541e+00
 -1.4509605e-01
 -9.9270326e-01
  5.0003850e-01
 -1.2621367e+00
 -4.2678654e-01
  8.8205284e-01
 -6.7665333e-01
 -4.8208636e-01
  5.1864284e-01
  9.3582019e-02
 -1.1700567e+00
  1.0941299e-01
 -6.0209721e-01
  4.7413447e-01
 -1.9910151e-02
 -6.8898863e-01
 -5.7149798e-01
 -5.7690203e-01
 -2.0470879e+00
 -2.2391213e-01
  4.6665224e-01
 -4.7966003e-01
  3.1816608e-01
 -1.9126711e-02
  6.0927056e-02
 -9.1318631e-01
  5.7090020e-01
  2.9464757e-01
 -1.9105323e-01
 -2.2116680e-01
  2.7616543e-01
  3.8507056e-01
  5.3369039e-01
  8.2755744e-01
  1.5491593e-01
  2.3830315e-01
 -4.9600750e-01
 -2.9759964e-01
 -4.5848361e-01
  4.5356937e-02
 -5.6196576e-01
 -6.2213290e-01
 -3.5126295e-02
 -6.0658711e-01
  4.0234706e-01
  4.8008267e-02
 -9.9948496e-01
 -1.4762384e-01
 -9.7461961e-02
 -1.8583338e-01
 -1.8213050e-02
 -1.5191722e-01
 -5.1349908e-01
  6.3117808e-01
  1.6371016e-01
 -2.0515963e-01
 -4.5614561e-01
 -6.2421955e-02
  4.2445219e-01
 -2.5594798e-01
  4.3316773e-01
  6.9643453e-02
 -1.3463986e-01
 -2.4114650e-02
 -3.6965244e-02
  8.9185145e-03
 -1.0719700e-01
  6.1762434e-01
  6.3531244e-01
 -1.4860813e-01
  8.0194944e-01
  1.2103314e+00
  6.5131284e-02
  7.7292725e-02
 -1.5834212e-02
  1.8960987e-01
  1.1866507e-01
 -2.6912155e-02
  6.5681022e-01
 -9.6682125e-01
  2.2101818e-01
  7.3835969e-01
  4.2262308e-02
 -5.1290089e-01
 -2.8890073e-01
 -5.6741007e-02
  1.1993814e-01
  3.8372594e-01
 -3.1123534e-01
 -5.9435332e-01
 -6.3825268e-01
  1.4706479e-01
 -1.1324987e-01
 -7.8407890e-01
  1.5950825e+00
 -9.5532276e-02
  1.1951756e-01
  4.2874980e-01
 -6.6067827e-01
 -4.3766748e-02
  4.8690701e-01
 -7.0362961e-01
  6.9698449e-03
  5.0357616e-01
  6.6570842e-01
  6.8639708e-01
  6.2883502e-01
 -3.4275866e-01
 -1.0065360e-01
 -4.3225774e-01
 -8.2312399e-01
 -2.3801267e-01
 -3.6262728e-02
 -3.7557118e-02
 -1.1887144e-02
 -1.4160131e-01
 -2.2720711e-02
  1.7555819e+00
 -2.1672219e-01
 -1.0219806e-01
  4.1693759e-01
 -4.5471406e-01
 -6.7640477e-01
 -2.1725164e-01
 -9.0840876e-02
  3.5362688e-01
  5.8054054e-01
 -4.3172657e-01
 -2.0749004e-01
  7.2206920e-01
  4.3700036e-01
 -3.5891464e-01
 -2.8402159e-01
 -2.5612590e-01
 -5.5776590e-01
 -8.2543036e-03
  1.2451807e-01
 -5.6277251e-01
  6.2831080e-01
 -2.5048095e-01
  9.4648696e-02
 -1.7135486e-01
 -7.6550770e-01
 -5.7009894e-01
 -3.0369172e-01
  2.3003932e-02
 -5.0494289e-01
  3.3832636e-01
 -1.1448997e-01
  4.1719508e-01
 -1.9494516e-01
  3.2131799e-02
  6.4501993e-02
 -1.8877356e-01
 -5.3790969e-01
  8.7078506e-01
 -8.2115102e-01
 -7.4702390e-02
  5.2901584e-01
  2.5831088e-01
 -3.1529680e-01
  2.1450698e-01
  4.4987446e-01
 -5.1175213e-01
  2.0496364e-01
  1.5485513e-01
 -6.8761937e-02
  3.2333994e-01
 -1.4025679e-01
 -2.0694628e-01
  7.5663939e-02
 -3.2746473e-01
  2.5744364e-01
  1.4064409e-01
  4.2029688e-01
 -1.1875962e-01
  1.7908478e-01
 -2.3788407e-01
 -4.0907332e-01
  1.1668586e+00
 -4.1415423e-01
 -5.1260494e-02
 -4.7654584e-01
 -1.1417452e-01
 -3.8307881e-01
 -4.3874928e-01
  2.9238257e-01
 -1.1784174e-01
 -2.2738954e-02
  4.4701889e-01
  4.3714190e-01
 -1.5167660e-01
 -1.0155727e-01
  7.0810325e-02
  2.9211277e-02
  2.5452322e-01
 -6.3702935e-01
 -4.9014074e-01
  9.4842121e-02
 -1.7908151e-01
 -2.2104254e-01
 -3.1674308e-01
  8.5241383e-01
  8.5695201e-01
 -1.6000122e-01
  5.1149577e-02
  2.0655039e-01
 -3.8447490e-01
  9.2427230e-01
 -1.6295934e-02
 -2.5123969e-01
  6.8388224e-01
 -4.4027969e-01
 -2.7668718e-01
 -3.2879446e-02
  4.4269618e-02
 -8.4780371e-01
 -1.8123555e-01
  1.6233246e-01
 -3.8457510e-01
 -1.0561381e-01
 -9.5686555e-02
 -7.3850447e-01
  3.9311180e-01
  9.3755639e-01
 -2.9465011e-01
 -2.6437169e-01
 -3.8809547e-01
  8.1313002e-01
 -1.6737109e-01
  9.0811497e-01
 -1.8049613e-01
 -1.0368983e-01
  2.8739837e-01
  3.9858463e-01
 -3.0265281e-01
  1.9878916e-01
 -8.1699967e-02
 -1.7991884e+00
 -3.4560308e-01
  5.6811024e-02
 -2.6097405e-01
 -2.9243842e-01
 -2.0027627e-01
 -1.5178552e-01
  1.1563815e+00
  3.7168452e-01
  2.0163675e-01
  3.2780647e-02
  1.2199650e-01
 -2.7893433e-01
 -2.3032613e-01
  8.3326524e-01
  7.1789986e-01
  1.0714894e-01
 -3.5029358e-01
  7.1968682e-02
  3.3025351e-01
  4.3659377e-01
  9.0722442e-01
 -4.0520594e-01
 -4.3195763e-01
  1.3071238e-01
  3.2809994e-01
  7.2892137e-02
 -1.7117122e-02
  3.3379194e-01
  3.1021020e-01
  2.1265747e-01
  1.6995224e-01
  2.2250621e-01
 -2.8441817e-02
 -3.7766156e-01
 -2.7522054e-01
 -5.8724689e-01
 -7.5272448e-02
  1.8406986e-01
 -4.7186083e-01
  2.6455352e-01
 -3.3230314e-01
  1.5028602e-02
  2.9495639e-01
  2.2673118e-01
  4.2986292e-02
  4.5643087e-02
 -5.8389634e-01
  8.1296906e-02
 -6.6472448e-02
  8.0890544e-02
  4.8158503e-01
 -3.2384273e-02
 -4.8199701e-01
  8.3585165e-02
 -6.4590192e-01
  4.3955359e-01
 -5.8437262e-02
  4.8623551e-02
  1.3575573e-01
 -4.4280261e-02
 -3.9258355e-01
  1.6842733e-01
 -1.5006106e-01
  4.3254250e-01
 -4.0275916e-01
 -2.3365669e-01
 -3.4015784e-01
 -1.5750836e-01
 -1.7854875e+00
 -8.8687932e-01
 -1.8602180e-01
 -7.1306080e-01
 -1.8584017e-01
  2.0579530e-01
  4.4578326e-01
 -2.1335255e-01
 -4.8774293e-01
 -8.4403193e-01
 -4.4361678e-01
  8.0822951e-01
  1.0706084e-01
  2.7699009e-01
 -2.1418874e-01
  5.0295413e-01
  1.0380165e-01
 -4.4135213e-01
 -4.9790347e-01
 -8.6615331e-02
  2.4177656e-01
  2.7090076e-01
  4.5036456e-01
  5.8583134e-01
  1.4182125e-01
  4.4900797e-02
 -8.8676643e-01
 -1.5915288e-01
 -1.5957621e-01
  3.2920969e-01
  4.4875571e-01
  8.2076186e-01
 -5.7568878e-02
  2.7600512e-01
 -8.6855304e-01
  4.1575825e-01
 -1.3582740e+00
 -2.2960954e+00
 -3.6914298e-01
 -9.3743968e-01
 -1.5428782e-02
 -5.5168617e-01
 -4.3209061e-01
  9.4354218e-01
 -3.9752934e-02
  3.3487359e-01
 -3.3631586e-02
  4.4321415e-01
  5.9582114e-01
 -1.4663579e-01
  5.6793505e-01
  3.6180660e-01
  7.4768406e-01
  6.9101787e-01
 -2.7252302e-01
  1.2876526e-01
 -1.0591985e+00
  1.0882994e+00
  7.8937754e-02
 -4.0755829e-01
 -1.1453807e-01
  1.1378935e-01
 -2.8744498e-01
  1.0464276e+00
 -6.0324252e-01
  9.9733137e-02
  4.9467272e-01
 -4.3483689e-01
 -5.7008970e-01
  1.7060605e-01
  2.0009720e-01
 -2.5531298e-01
  5.3654307e-01
  2.8032941e-01
 -4.0935305e-01
  4.6968809e-01
 -1.3528202e-01
  1.9315976e+00
 -3.0032742e-01
  9.6855247e-03
  3.7772027e-01
  6.4401619e-02
  8.5311629e-02
  1.9545926e-01
  7.2355539e-01
  4.6369303e-02
 -3.1397286e-01
  2.2684164e-02
  6.1751896e-01
 -3.8621731e-02
 -3.5070598e-01
  4.1234997e-01
 -1.4347091e-01
  2.2869723e-01
 -2.9474571e-01
 -4.5335442e-01
  6.0063183e-01
  1.0449554e-01
 -4.2036292e-01
 -1.0805324e-01
 -6.4419544e-01
  2.5146967e-01
  5.9784967e-01
 -5.7248231e-02
 -4.4826144e-01
  2.0127667e-01
  1.1317115e+00
 -3.8908473e-01
  2.0016320e-01
  5.1073837e-01
  9.4660234e-01
 -1.7185397e+00
  3.4918743e-01
 -2.9845178e-01
  2.4323460e-01
  1.9491138e-01
 -2.3708063e-01
 -1.5515032e-01
  4.5365769e-01
 -2.1965544e-01
  3.8305253e-01
 -2.5956017e-01
  5.5446947e-01
  1.0664170e+00
  5.1579696e-01
 -1.1862823e+00
  3.3822075e-01
  3.2912004e-01
 -3.4623218e-01
 -4.4669288e-01
  1.6236076e-01
  2.8335807e-01
  5.8074611e-01
 -1.8299203e-01
  6.9672781e-01
  4.0162984e-01
  5.2709705e-01
  4.9919155e-01
 -1.5201511e+00
 -3.9026443e-02
  3.1394115e-01
  1.0222927e+00
 -2.0185827e-01
 -6.4681515e-02
  1.1681948e-01
  1.4993094e-01
 -1.6053756e-01
  1.9473904e-01
 -6.1809427e-01
  3.5624629e-01
  1.0445753e-01
  5.5279207e-01
  4.2462468e-01
 -1.4972894e-01
  1.8014471e-01
  4.0186721e-01
 -3.4274107e-01
 -1.4353202e-01
 -4.7898227e-01
  3.8036481e-01
 -2.5064057e-01
  2.0817721e+00
  1.2646654e-01
 -4.6026412e-01
  4.4773498e-01
  1.5402840e-01
  3.9214757e-01
 -1.3127032e-01
 -4.7007135e-01
  6.1129328e-02
 -3.3264050e-01
 -8.1712984e-02
  7.1449810e-01
 -5.7418919e-01
 -3.0008799e-01
 -3.2232130e-01
  4.9783710e-01
 -1.8058693e-01
  1.6578602e+00
  1.5177983e-01
  4.2944383e-03
  3.0693853e-02
 -5.6668162e-01
 -3.1020562e-04
  3.9017916e-01
 -8.7733358e-02
  1.6053413e-01
  2.6727599e-01
  1.1814480e-01
 -2.8396872e-01
 -1.0847744e-01
  2.6246446e-01
  3.6943600e-01
  4.2771676e-01
 -3.3434916e-02
  3.8733178e-01
 -3.2586110e-01
  7.5186312e-02
 -5.6762582e-01
 -1.5670602e-01
  1.5147761e-01
 -3.0509365e-01
 -2.4266869e-01
  2.5097862e-01
  4.1092068e-01
  3.5205610e-02
  1.3003385e-01
 -1.3277508e-01
 -6.1873119e-02
  7.1158320e-01
  5.5478609e-01
 -3.8044879e-01
  7.5113489e-03
  3.4124956e-01
 -2.4592984e-01
 -1.4588952e-01
  8.4570926e-01
  9.9073476e-01
  2.3528825e-01
 -5.6762385e-01
  1.7867794e-02
 -2.7906087e-01
  2.3557977e-01
  1.5610318e-01
 -2.1616837e-01
 -1.0089438e+00
  3.2658598e-01
 -6.4612374e-02
 -7.2213960e-01
 -9.2205204e-02
  9.2806377e-02
 -5.4317778e-01
 -2.5659230e+00
  3.7235931e-01
 -1.4320418e+00
  1.2103527e+00
  4.4509429e-01
 -1.1558129e+00
  5.3951097e-01
 -1.2812603e+00
 -2.0044887e+00
  6.3818944e-01
  2.0570347e+00
 -5.0525755e-01
  1.9634171e-01
 -4.2188832e-01
  9.5087367e-01
 -4.9021357e-01
  4.9920806e-01
  3.5822472e-01
 -4.5647655e-02
  1.7039433e-01
  1.2575921e+00
  3.9890492e-01
  8.0032122e-01
 -1.0959148e-01
 -6.9092423e-02
  5.6798149e-02
  6.9107300e-01
  1.1973970e+00
  2.4051006e+00
  2.3869930e-01
  7.9087007e-01
 -1.3618298e-01
 -5.7493073e-01
  5.9600383e-01
 -3.4610701e+00
  5.9230648e-02
 -1.5652072e+00
  3.0440396e-01
  2.6427448e-01
  5.2561438e-01
  5.5170256e-01
 -1.4048368e-01
 -1.1034677e-01
  5.0464679e-02
  1.4486517e-01
 -2.5905540e-02
  1.0480796e+00
  6.5584570e-01
 -2.4074782e-01
 -3.2904726e-01
  7.6983255e-01
  3.9089680e-01
  4.5094958e-01
  2.4071336e-01
 -4.7221500e-01
  5.7174790e-01
  1.6429435e-01
 -9.0625584e-02
  2.8159288e-01
  5.5739009e-01
  3.0061078e-01
 -8.3614331e-01
  8.2674366e-01
  4.2306298e-01
  7.4895900e-01
 -1.5252228e-01
 -3.9962414e-01
  5.5209398e-01
 -4.0003002e-01
 -1.1139347e-01
  1.8990931e-01
 -2.7489403e-01
  2.9532233e-01
 -5.1188797e-01
 -3.5442296e-01
 -7.6476127e-02
  5.9801471e-01
  2.5858086e-01
 -2.7180129e-01
 -2.9092920e-01
 -2.3673078e-01
 -1.0205705e+00
  2.6969016e-01
 -8.1935711e-02
 -2.2922154e-01
 -3.1621540e-01
  1.2424788e-02
 -7.3176670e-01
 -2.4423420e-01
 -1.9418067e-01
  1.1463098e-01
 -4.5870215e-02
 -8.5700774e-01
  1.4836261e-01
 -1.1389083e-01
 -2.1989937e-01
 -1.6855986e-01
  3.0236951e-01
  2.4228127e-01
 -1.9956253e-01
  6.3468337e-01
 -5.9897310e-01
  1.8286499e+00
 -3.6727422e-01
 -1.1400046e+00
  3.7327778e-01
  7.2439981e-01
 -7.9128802e-02
 -2.5279334e-01
  5.3085301e-02
 -3.0405065e-01
 -4.8431131e-01
 -4.4196185e-01
 -2.7298522e-01
  1.0586775e-01
 -2.6134661e-01
 -8.1222904e-01
  6.8325591e-01
 -1.8302099e-01
 -1.6942444e-01
 -1.8168986e-01
  3.6628522e-02
  1.9264919e-01
 -3.2766014e-02
  1.0114251e-01
 -4.0649796e-01
  1.7129500e-01
 -5.8868939e-01
 -2.4791472e-01
 -5.9086198e-01
  1.0045123e-01
 -2.2616762e-01
  3.4576163e-01
  7.5498265e-01
 -3.0724195e-01
 -8.5198004e-03
  5.6035690e-02
 -2.2328478e-01
 -3.7600175e-02
  2.2287309e-01
  5.8090079e-01
 -2.1764652e-01
  3.4663340e-01
  2.6576576e-01
 -4.5003104e-01
  6.7728683e-03
  1.1722507e+00
  2.5653931e-01
 -2.1078525e-01
  7.6159924e-01
  1.2172717e+00
  8.3790086e-02
 -9.9493690e-02
  7.0871764e-01
  1.6506526e-01
  1.2654947e-01
  3.1748664e-01
 -1.0760877e+00
  2.8401193e-01
 -6.7384326e-01
  3.1826678e-01
  8.5695796e-02
  5.1485252e-01
  4.7826394e-01
 -5.9501714e-01
  3.5988319e-01
  2.7534449e-01
 -1.9501783e-01
 -1.0846609e-02
  2.5695419e-02
 -7.4563563e-02
  3.0177853e-01
  3.9690194e-01
  4.7772360e-01
  4.2600924e-01
  2.4249656e-02
 -5.3925419e-01
  5.4569471e-01
  2.3331656e-01
 -3.9168850e-01
 -3.4211770e-01
 -3.6735781e-02
  2.1039131e-01
  1.8272544e-01
 -3.1054863e-01
 -4.8536089e-01
 -5.1109654e-01
 -6.3901186e-01
 -4.6015838e-01
  9.2744837e-03
 -5.5424875e-01
 -4.6449997e-02
 -2.2011003e-02
  9.2623031e-01
  1.1627499e-02
 -2.0840953e-01
  9.3210332e-02
 -2.0063791e-01
  5.1748323e-01
 -1.1790503e-01
 -4.8171824e-01
 -1.2126883e-02
  2.2173652e-01
  5.3844458e-01
  1.4969285e-01
  7.8662449e-01
  1.3376509e+00
  1.5222019e-01
  2.2997755e-01
  6.4130378e-01
  7.9495543e-01
 -3.0427776e-02
 -3.4417161e-01
 -1.8146650e-01
  2.8087524e-01
 -2.6717722e-01
  3.9554216e-02
  2.2331816e-01
  2.8629960e-02
 -1.9257492e-01
 -2.7011886e-01
  3.5268018e-01
  5.1250733e-02
  1.1228545e-01
  8.0527860e-01
 -7.7180880e-01
  6.8393946e-02
  5.0134373e-01
 -1.0108845e-01
  8.7751377e-01
  2.1925477e-02
 -7.4892008e-01
 -6.1728901e-01
 -8.2289994e-01
  8.1398141e-01
  3.0113271e-01
  5.1941913e-01
  5.3590471e-01
 -1.8720582e-02
 -4.9656254e-01
 -2.1371493e-02
  2.9234749e-01
  1.0432441e-01
 -5.2351892e-01
 -3.9190653e-01
  2.6549193e-01
  3.1933609e-01
 -1.1592237e+00
 -3.5069957e-02
  6.6563016e-01
 -1.1128515e-01
 -9.5350616e-02
  6.0549432e-01
 -4.0378946e-01
  1.0480154e+00
 -3.0027628e-01
 -3.8667428e-01
 -2.8761202e-01
  2.3627762e-01
  5.3166443e-01
 -1.4687458e-01
 -9.6344538e-02
  5.8473015e-01
  5.3923141e-02
 -4.9255574e-01
 -1.8570124e-01
 -9.5993263e-01
 -6.0372233e-02
  2.5169530e+00
  9.7830027e-02
  2.6343918e-01
  3.6697468e-01
  1.6318351e-01
 -2.8039345e-01
  3.1723335e-01
 -9.5688814e-01
  1.4659825e-01
  2.6668221e-02
  3.9966244e-01
  2.4276458e-02
 -4.8031726e-01
 -3.9590967e-01
  1.0041903e+00
 -9.5962459e-01
  2.8149763e-03
  4.9286261e-02
  2.4674343e-01
  9.7339720e-02
 -5.8922350e-01
  2.5629258e-01
 -2.5383940e-01
 -7.2842956e-02
  3.5244182e-01
 -2.2967562e-02
 -1.8979894e-01
  2.2569183e-01
 -2.3795901e-01
  3.4766042e-01
 -1.9034964e-01
 -3.8394225e-01
 -8.5858870e-01
  8.9152354e-01
  1.1505951e+00
 -3.5606691e-01
 -2.0532086e-03
 -1.3444440e+00
 -9.9053122e-02
  3.9124382e-01
  8.5591829e-01
 -4.8257169e-01
 -5.5702144e-01
  1.3970277e-02
 -8.6530380e-02
 -1.3640855e-01
  3.1833735e-01
  2.5142279e-01
 -7.0581388e-01
 -1.3701023e-01
  1.2498883e-02
 -3.3419001e-01
 -2.1741708e-01
  3.4952179e-02
  1.9999613e-01
  5.7810843e-01
 -1.6275029e-01
 -3.3169782e-01
 -7.1516246e-01
 -6.6082996e-01
  2.6012969e-01
 -1.2163339e-01
 -1.6369262e-01
 -6.7619509e-01
  3.0152670e-01
 -3.3108696e-01
  2.8274179e-01
 -7.6464087e-02
 -2.1000534e-01
  3.1119028e-01
 -2.2426371e-01
 -1.0619185e-01
 -4.2456433e-01
  8.1646907e-01
  6.5657534e-02
  2.3186564e-01
 -8.7481223e-02
 -6.9562387e-01
 -6.5873873e-01
 -5.7758397e-01
  8.9269537e-01
  1.0864588e+00
 -6.1155659e-01
  6.1663121e-01
  9.9663311e-01
  2.5366572e-01
  3.0609784e-01
 -2.7414912e-01
 -5.6693926e-02
  5.9210688e-02
  8.6806518e-01
 -3.0441196e+00
  5.6064975e-01
 -2.7879471e-01
 -2.0969878e-01
  1.8756118e-01
  4.3322545e-01
 -1.3509223e-01
 -1.4178100e+00
 -3.2724151e-01
 -5.6344837e-02
 -3.0042240e-01
 -2.8378227e-01
 -9.3655759e-01
 -3.9507425e-01
 -6.5132356e-01
 -5.5834323e-02
 -7.3421556e-03
  4.8588142e-01
 -3.7961501e-01
 -6.9557983e-01
 -3.7053000e-02
  3.3247110e-01
 -3.2875592e-01
  5.2279025e-01
 -4.3598136e-01
  3.2228863e-01
 -5.6855500e-01
 -7.5469393e-01
 -2.9190928e-02
 -1.2502798e-01
 -1.9286990e-01
  1.2392422e-01
 -3.1899729e-01
 -4.0146244e-01
 -1.6317320e-03
  6.9842376e-03
  5.8946598e-02
  4.8440233e-02
 -9.6094507e-01
 -7.5739324e-01
  7.6103151e-01
 -5.8449984e-01
 -2.1188447e+00
  2.1286200e-01
 -1.4031814e+00
  3.9282134e-01
  4.1160498e-02
 -2.2228698e-01
 -3.7077171e-01
  4.7426143e-01
 -3.3221585e-01
  1.1628198e-01
 -9.9749649e-01
  3.0622754e-01
  7.8421962e-01
 -5.9198534e-01
  2.4461666e-01
  1.7670847e-01
  1.0736340e-01
  1.0545541e+00
  8.0619299e-01
 -8.4845811e-01
 -6.3547945e-01
  3.4216064e-01
 -4.3709454e-01
 -3.3921424e-01
 -8.7356186e-01
  5.8713430e-01
 -6.8236893e-01
 -2.4115285e-01
  3.2256469e-01
  5.1646298e-01
 -7.2953850e-01
  8.5484922e-01
  1.3782591e-01
  4.8989788e-02
  4.9188018e-01
 -3.5726219e-01
  1.6256042e-01
  3.0920517e-01
  2.0918100e-01
 -7.4293546e-02
 -3.4417075e-01
 -2.2087537e-03
 -2.0182504e-01
  6.2328395e-02
  8.2196012e-02
 -3.1840956e-01
 -2.9478896e-01
 -3.2649851e-01
  6.7429370e-01
 -8.8089103e-01
  4.0598473e-01
  4.1903712e-02
 -1.8054548e-01
  7.2683267e-02
  4.2020890e-01
  1.6407628e+00
  3.0747786e-01
  7.3649573e-01
 -1.2737137e-01
 -1.0076545e+00
  1.2413561e-01
 -6.2531245e-01
 -3.0586447e-03
  3.1310525e-02
  2.2108540e-02
 -2.5253063e-01
  2.1777755e-01
 -5.7565737e-01
 -1.4568954e-03
 -7.6227057e-01
  2.1897924e-01
  2.4795361e-01
 -1.6666272e-01
  7.6548085e-02
 -6.8893833e-03
  9.1718537e-01
  1.2041247e+00
  3.2184262e-02
  5.9734024e-03
 -3.8180804e-01
  4.5163178e-01
  1.1302387e-01
 -3.0948875e-02
  4.8558885e-01
  1.4142634e-01
 -1.9262408e+00
 -3.7141865e-01
  2.4528104e-01
  2.7090353e-01
 -1.7309070e-01
  5.8156241e-02
  2.1518752e-01
  4.4516382e-01
 -1.3423519e-01
  2.0150638e-01
  6.3599211e-01
 -7.0537466e-01
  4.2577261e-01
  5.6586307e-01
  1.0228512e-01
  2.7865347e-01
 -3.7455238e-02
 -1.4230651e-01
  7.5594997e-01
 -3.6039209e-01
  3.4669095e-01
 -2.3143651e+00
  6.0887069e-01
  3.5243091e-01
 -1.2312756e-03
 -9.5156975e-02
  6.8734908e-01
  1.8821584e-02
 -3.0818498e-01
 -7.1024376e-01
  2.5540987e-02
  1.8774861e-02
 -1.1189375e-01
 -2.2303921e-01
 -1.5504834e-01
  2.4160588e+00
  3.9951134e-01
  3.4374252e-03
 -3.6383417e-01
 -4.6735039e-01
  3.4421217e-01
  9.0663826e-01
  1.1616877e-01
 -2.6701576e-01
 -4.3505195e-01
 -3.7265041e-01
  6.7715746e-01
 -1.0990511e+00
  6.5141726e-01
  6.3910764e-01
  1.1484211e-01
  2.1620964e-01
 -3.9053220e-01
  7.1047288e-01
  6.8081629e-01
 -1.6594428e-01
 -1.9928208e-01
 -1.0451932e-01
 -5.4078493e-02
  7.2379187e-02
 -3.1926878e-02
 -4.1346293e-02
  1.8012373e-01
  4.3250021e-01
 -8.5374278e-01
 -1.2705009e-01
 -2.6812485e-01
  1.7276487e-01
  9.1362029e-01
 -1.0701279e-01
  1.1771707e-01
 -3.2245257e-01
  2.2361102e-03
 -3.2940349e-01
  6.4468521e-01
 -4.7815353e-01
  6.2344390e-01
 -3.3625811e-01
 -8.4394181e-01
  1.6336744e-01
  3.3535996e-01
 -5.6926203e-01
  2.9490983e-01
 -1.8643941e-01
  1.5955371e-01
 -5.2684587e-01
  9.2687137e-02
 -5.9365427e-01
 -4.7345978e-01
 -6.8876386e-01
 -1.3293414e-01
  2.4196590e-01
  1.7800389e-01
 -6.1258787e-01
  2.5702259e-01
 -1.5954664e-01
 -3.1999719e-01
  5.5125040e-01
 -2.0527263e-01
  7.0058429e-01
 -4.4724813e-01
 -9.1179237e-02
  1.2655623e-01
  5.1127946e-01
  2.3687439e-01
 -3.7697226e-01
 -7.8705204e-01
 -1.2984690e-01
  3.9611734e-03
 -2.3311612e-01
 -3.9276072e-01
  7.2284865e-01
  4.2471915e-01
  6.2999123e-01
  9.3412861e-02
  1.9947615e-01
 -5.3623492e-01
 -6.1891538e-01
  4.7217879e-01
 -4.8278328e-02
 -8.8596977e-02
 -3.4782717e-01
 -5.5447793e-01
  6.4537875e-02
  5.3535092e-01
  3.8624503e-02
 -4.2987153e-01
 -3.9141431e-01
  5.4316550e-02
  4.3185630e-01
 -2.9844651e-01
  2.1022931e-01
  2.8402418e-01
 -1.2427026e-01
  4.7621039e-01
 -3.8327318e-02
 -8.7099513e-03
 -7.4491590e-01
  2.2227755e-01
  2.4871293e-01
 -1.1065538e+00
 -2.9331690e-01
  1.2432809e-01
 -7.3223062e-02
  1.8505558e-01
  4.4851053e-01
 -4.9363178e-01
 -6.1932898e-01
 -1.2998517e-01
 -1.8279251e-02
  4.5881677e-02
  7.6980501e-02
 -1.1824766e+00
 -5.2328944e-01
  4.0952596e-01
 -1.6016924e-01
  5.4006189e-01
 -3.6218449e-01
  1.1633977e-02
 -1.5906830e-01
 -3.5527042e-01
  1.5052533e-01
  1.6486675e-01
 -1.4022619e+00
  9.4196111e-01
  4.7816622e-01
  2.6286259e-01
  1.6460593e-01
  4.6953762e-01
  3.2259210e-03
  2.9503646e-01
 -1.0656216e-02
  9.6821122e-02
 -1.4435509e-01
 -5.9828097e-01
 -3.4891827e+00
  5.3357500e-01
 -3.7283272e-01
 -4.1338232e-01
  1.3045900e-01
  3.9966265e-03
 -4.8214024e-01
 -5.1964480e-01
 -2.0666093e-01
 -4.7243986e-01
 -1.4920209e-01
  3.4433329e-01
 -1.8446012e-01
  2.9975644e-01
  6.3446961e-02
  1.0984286e+00
  2.2792338e-01
  1.4747617e+00
  2.1410879e-01
  6.6918969e-01
  5.6141341e-01
  6.4528328e-01
  6.7461276e-01
  2.9422957e-01
  1.7375575e-01
 -5.5087966e-01
  2.7758753e-01
  8.0979671e-03
 -9.2116416e-02
  8.5320830e-01
  8.3049446e-02
 -7.7967107e-01
  1.9196609e-01
 -2.2210667e-01
  2.9323304e+00
 -3.1719610e-01
  7.6536298e-01
 -3.8993236e-01
  1.4224160e-01
  1.7716331e-02
  7.1800447e-01
  5.6732011e-01
 -1.5498708e-01
 -2.9387468e-02
 -1.1551551e-01
 -9.8849863e-02
  2.1866934e-02
 -4.8896369e-01
  5.4881475e-03
 -8.2870179e-01
 -1.9772363e-01
 -8.3678359e-01
 -9.2619330e-01
  1.4837775e-01
  4.4677380e-01
  1.1033580e-01
 -7.8958321e-01
  1.1532247e-01
 -6.8474513e-01
  2.5109279e-01
  2.8142124e-01
  9.4016649e-02
 -5.4513790e-02
 -3.1186032e-01
  2.2248828e-01
  1.3778841e-01
  2.4499074e-01
  1.0175775e-01
 -7.2506374e-01
  2.1877055e-01
 -1.9651116e-01
 -1.7966703e-01
 -7.7919543e-01
 -2.7646995e-01
  1.8681680e-01
  4.1192663e-01
  5.2222006e-02
  4.1131255e-01
  7.4810290e-01
 -7.2995025e-01
 -1.0241181e-01
  4.1807920e-01
 -5.9364820e-01
  2.9902425e-02
 -6.0148496e-02
 -9.8846120e-01
 -3.9785877e-02
 -7.2271562e-01
 -1.2070882e+00
  2.9312873e-02
  1.0688555e+00
 -2.6063466e-01
 -1.4196208e-01
  5.8653627e-02
 -3.0804018e-02
 -1.0320417e-01
  1.8000522e-01
  2.3926654e-01
 -8.5509069e-02
  5.7562542e-01
  2.1958518e-01
 -2.3333035e-02
 -4.3259439e-01
  1.3358726e-01
 -4.1656557e-02
  6.9860077e-01
  7.0153072e-02
  4.2434007e-01
  6.8288475e-01
  1.6858044e-01
 -9.2545551e-01
  6.9484675e-01
  3.2764122e-01
  4.2145342e-01
 -7.1255261e-01
  2.7304482e-01
  6.7322898e-01
  3.3382535e-02
  3.4568873e-01
  2.4043648e-01
 -4.8087120e-02
  1.3896395e-01
  7.2072096e-02
  8.0555135e-01
  4.6538645e-01
  1.2244382e-01
 -3.8711181e-01
  1.9033918e-01
  3.3190997e+00
 -4.5916196e-02
  9.5021941e-02
  1.6905464e+00
  1.8633308e+00
 -3.2998720e-01
  2.5120610e-01
 -3.1799228e+00
  1.4050306e-01
 -2.7791476e-01
 -5.6976312e-01
  2.3342617e-01
 -6.6782838e-01
  3.8500953e-01
 -5.8562768e-01
 -2.8698006e-01
 -3.5383448e-01
  5.8781964e-01
  2.3260290e-02
  2.1715520e-01
  1.6509978e-01
 -1.7292322e+00
 -1.8000445e-01
  3.6658219e-01
 -2.2106518e-01
 -3.2125983e-01
 -2.0947607e-01
  5.6103164e-01
  6.9276497e-02
 -2.6037419e-01
  9.5445290e-02
  5.4306400e-01
 -2.0115415e-02
 -3.6094505e-01
  1.4310622e-01
 -1.1891105e-02
  1.6233675e-02
 -3.1257081e-01
  1.2652224e-01
  1.0152941e+00
  5.2413595e-01
 -4.4541872e-01
  1.1712624e+00
 -5.4229093e-01
 -5.8645576e-01
  1.3640071e-01
 -1.1044381e+00
  1.4337324e-01
 -5.3703165e-01
  8.0922478e-01
  7.7302486e-01
 -7.1959145e-02
 -2.6271853e-01
 -6.2346619e-01
  1.7653499e+00
  2.7287564e-01
  1.3736556e-01
 -3.9163980e-01
 -2.7879429e-01
  2.4583335e-01
  7.0957494e-01
 -6.5459031e-01
 -8.2206607e-02
 -3.6356318e-01
 -2.2201109e-01
 -2.5873020e-01
  8.2106274e-01
 -2.6630250e-01
 -3.6880845e-01
  1.2370043e-01
 -2.8162342e-01
 -5.0325191e-01
 -1.4987828e-01
  2.8701477e-02
 -4.4087926e-01
  3.8524336e-01
  7.7047950e-01
  4.0182534e-01
 -2.1696045e-01
  1.5166935e-02
  6.0188192e-01
 -1.2258068e-01
 -1.8439800e-01
 -6.9573238e-02
 -6.2416321e-01
 -3.7327257e-01
 -7.4111617e-01
  4.7712165e-01
 -8.9116246e-02
  2.0241437e-02
  7.2491413e-01
 -1.1072758e-01
  2.9144433e-01
  1.0875368e+00
 -7.7794336e-02
  4.0980704e-02
  6.2826204e-01
  4.8412216e-01
 -6.0072875e-01
  3.6551902e-01
  5.8795631e-01
  2.2639826e-02
  3.0822822e-01
 -9.4936198e-01
 -3.8534239e-01
  8.4218526e-01
  6.3028663e-01
  6.3608420e-01
 -1.4557898e-01
  1.0480504e-01
  5.9661877e-01
 -5.5862981e-01
  7.8549629e-01
 -3.7587020e-01
  3.8617980e-01
 -3.0258244e-01
  2.4382389e-01
 -9.6288025e-02
  3.3114299e-01
 -2.3679923e-01
 -1.7651397e-01
 -8.4185481e-02
  2.6030299e-01
 -3.8654089e-01
  1.1693530e+00
  9.0410613e-02
 -5.4358774e-01
  2.4036479e-01
  5.3406602e-01
  3.7585136e-02
  5.0297327e-02
  5.5886108e-01
 -8.1004113e-01
  5.2883130e-01
  9.3082649e-01
  2.5335726e-01
 -1.9494033e-01
  1.2693422e-01
  6.4026609e-02
  9.4701403e-01
 -7.1059763e-01
 -4.1056633e-01
 -6.8017371e-02
 -6.7825222e-01
  8.8448083e-01
  2.1870810e-01
 -3.1570774e-03
 -2.1062779e+00
  2.0375253e-01
 -5.8822133e-02
  2.6853728e-01
  5.0528711e-01
  3.4498855e-01
 -3.1365401e-01
 -5.8592933e-01
 -1.2884426e+00
  7.5065404e-02
  9.4222951e-01
  3.6772063e-01
  1.8627355e-01
 -1.1578792e+00
 -4.8273504e-01
  2.8377017e-01
  6.1488110e-01
  2.3921137e-01
  5.0949032e-04
  2.8835593e-02
 -2.0433947e-01
  2.0248013e-02
  4.8742276e-02
 -2.9070586e-01
 -3.4011018e-01
 -4.5973361e-01
  1.2309130e-01
 -8.2027221e-01
 -4.2488497e-01
 -2.5984570e-01
  1.2924349e-01
  2.2935542e-01
 -2.1904131e-02
 -2.2089112e-01
 -5.8226389e-01
  2.5475863e-01
  2.7514992e-02
  5.4178786e-02
  1.0646999e+00
  3.3642270e-02
 -4.0400118e-01
 -4.1573718e-01
 -3.6231485e-01
 -3.8919085e-01
 -1.7215191e-01
 -6.5392649e-01
  2.0925987e-01
  1.9815075e-01
  1.0793977e-01
  2.7527028e-01
  2.7735752e-01
 -2.6724482e-01
 -3.2278378e-02
  5.5784959e-01
 -3.0893579e-01
  1.4894864e-01
  7.7782524e-01
 -3.1863291e+00
 -2.9428589e+00
 -4.9054770e+00
 -2.6291919e-01
 -2.1606040e+00
  1.6283351e+00
  4.2572945e-01
 -8.7418050e-01
  6.2794256e-01
  2.9186445e-01
  8.4819996e-01
  9.2776150e-01
  3.1175718e-01
  3.7760671e-02
 -2.0322643e-01
  5.1346707e-01
 -1.0516253e+00
  8.1439301e-02
  1.1278743e-01
  1.5234715e-01
  7.0300251e-01
 -3.1892911e-01
  2.4661779e-01
  1.0641415e+00
  2.0081673e+00
  1.4570309e-01
  1.9001489e-04
  7.1649009e-01
  1.4433339e+00
  4.1854498e-01
  9.3667817e-01
  4.2987898e-01
  9.9487507e-01
  6.4567596e-01
  5.1205868e-01
  1.3076497e+00
  7.4353981e-01
  3.8828310e-01
 -4.2679855e-01
  5.2784637e-02
 -9.8368627e-01
  4.4928667e-01
  2.4218557e+00
 -1.1042358e+00
 -4.0214670e-01
  5.0489527e-01
  2.6559758e-01
  5.6667620e-01
 -2.9072883e-02
 -1.1251547e-01
  7.8876454e-01
  1.2511811e+00
 -5.2031422e-01
 -2.8959370e-01
  1.0110309e-01
 -7.0399237e-01
  4.5673943e-01
  1.4190036e+00
 -3.0449143e-01
  2.2898857e-01
  7.6637620e-01
 -1.3135532e-01
 -4.4298583e-01
 -6.2688994e-01
 -3.9607579e-01
 -6.3006908e-01
  7.0770465e-02
  4.0253337e-02
  9.3215358e-01
  3.4527370e-01
 -6.4328015e-01
 -4.5567080e-01
 -1.7037691e-01
  4.4117695e-01
 -5.2646810e-01
  6.7377990e-01
 -1.2325420e-01
  5.5114937e-01
 -2.1727699e-01
  2.0269883e-01
 -5.8721077e-02
  6.0497028e-01
 -2.6442811e-01
 -4.2485097e-01
 -3.0746484e-01
  2.5510985e-01
 -3.9271393e-01
  1.6572987e-01
 -1.7353766e-01
 -2.0901355e-01
 -3.0069059e-01
  1.3165534e-01
 -1.7610613e-01
 -3.5899085e-01
 -4.1388100e-01
  1.6610944e-01
 -3.5603237e-01
 -3.5941267e-01
  2.1035706e-01
  1.7873113e-01
  3.4345496e-01
 -7.4903041e-02
 -2.5162166e-01
  3.0001196e-01
 -5.3111494e-01
 -5.9237295e-01
  1.4430176e-01
 -1.1574553e+00
  5.0730717e-01
  4.4632247e-01
  1.1265709e-01
  5.6649035e-01
  3.4118921e-01
 -1.3710573e-01
  1.0605395e-01
  1.1400942e-01
 -1.8873812e-01
 -1.7864397e-01
 -3.8181994e-02
 -7.4022007e-01
  1.3757357e-01
 -2.6521462e-01
  3.7548184e-01
 -3.5250089e-01
 -8.3074760e-01
 -4.6747020e-01
  3.3223650e-01
  2.4290285e-01
 -3.2201982e-01
  8.4111087e-02
  1.0618411e+00
  2.2647688e-01
 -1.4855444e-01
 -2.7002022e-01
  2.3006187e-01
  3.5947818e-01
 -3.3758816e-01
  6.7349750e-01
  5.6530398e-01
  6.2625873e-01
  3.6058453e-01
 -4.9789602e-01
  1.8084699e-01
  4.1873392e-01
 -1.8909344e-01
 -2.7907655e-01
 -2.6252848e-01
 -5.2973950e-01
  2.2724602e-01
  1.6883963e-01
 -8.4163316e-02
  3.6804891e-01
 -7.8552857e-02
 -4.1607466e-01
  3.2834598e-01
  8.9317471e-02
  7.3722136e-01
 -2.8454608e-01
 -3.4178340e-01
 -7.1263319e-01
  5.0576693e-01
 -7.1094704e-01
  2.7707270e-01
  1.1428817e-01
 -1.3887584e-01
  1.0015825e-01
  2.5531954e-01
 -2.8079400e-02
 -7.7748366e-02
  1.8038385e-02
  6.5278232e-02
 -8.0505379e-02
  4.5568824e-01
  5.3788441e-01
 -2.5617274e-02
 -5.9991056e-01
 -2.2800648e-01
 -2.0876952e-02
 -9.4922103e-02
 -3.2366243e-01
  4.8373449e-01
 -6.0575265e-01
  1.0668880e+00
 -1.9569239e-01
  3.7421158e-01
  7.7682483e-01
 -6.8555579e-02
 -2.9569700e-01
  1.6868681e-02
  3.7912318e-01
  3.4536216e-01
 -2.4680169e-01
  5.7591128e-01
  9.5728733e-02
 -1.6111003e-02
  6.8168890e-01
  5.8089936e-01
 -2.4778636e-01
 -5.7960439e-01
 -8.7773055e-04
 -2.8484309e-01
 -3.9742816e-02
 -3.1999001e-01
  9.7882801e-01
 -1.9809908e-01
 -3.8540909e-01
 -1.5967502e-01
  4.3756941e-01
  1.9045289e-01
 -4.8182648e-01
 -1.2392065e-01
 -3.4199038e-01
  3.8902131e-03
  3.0029528e-03
 -1.9580105e-01
 -1.6430546e-01
 -3.4573793e-01
 -2.2283344e-01
 -3.0098709e-01
 -6.6102338e-01
  1.5959999e-01
  1.4490101e+00
 -9.1721363e-02
  1.5816301e-01
  5.6119460e-01
  5.4303877e-02
  2.4580371e+00
  6.4718163e-01
  4.7728408e-02
 -6.6646487e-01
 -8.4353268e-01
  1.4792560e-01
  1.2733772e+00
 -3.6593133e-01
  7.4078673e-01
  8.0221005e-02
 -9.5869616e-02
  1.5216194e-01
 -3.3425286e-01
 -2.2100051e-01
 -1.4789329e-01
 -9.2257947e-01
 -5.5750340e-01
 -2.5242501e-01
 -1.1544210e+00
  1.0785612e-01
 -9.1481924e-02
 -5.7485819e-01
 -4.1191295e-01
 -5.3513324e-01
  6.1587256e-01
  4.2578566e-01
 -3.7057441e-01
 -2.8915694e-01
 -7.7565946e-02
  2.1941797e-01
 -2.1903451e-01
  2.3540299e-01
 -3.1940353e-01
 -3.1071958e-01
 -2.1242002e-01
 -5.3408481e-02
  1.0133057e+00
 -4.1949265e-02
  2.6112977e-01
  1.4403924e+00
 -3.4182128e-01
  5.1410866e-01
  9.6952236e-01
  1.2732743e-01
 -2.1313356e-02
  2.8761703e-01
  4.5815021e-01
  1.8487651e-02
  3.9432520e-01
 -1.2342561e-01
  3.3151710e-01
 -1.3885066e-01
  3.7895751e-01
 -8.0245280e-01
 -5.8905404e-02
  1.2549807e+00
 -6.0564508e-03
  4.9350956e-01
 -6.6527569e-01
 -3.0186975e-01
  8.2747996e-01
  3.3091328e+00
  3.3156417e-02
 -1.6472121e-01
  1.3453223e-01
 -3.9218372e-01
 -2.8877982e-01
 -2.1062204e-01
 -6.1102045e-01
 -9.1659862e-01
  1.2842493e-01
 -1.6918896e+00
 -3.5344982e-01
  1.0733989e+00
  8.0217361e-01
  3.8933542e-01
 -2.9165149e-01
 -5.1875789e-02
 -1.6797706e-03
  6.7512071e-01
 -9.0788329e-01
  3.8809076e-02
  1.1952246e-01
  4.5865831e-01
  1.8652846e-01
  1.7417458e-01
 -2.7815199e-01
  1.0096224e-01
 -9.0321384e-02
 -2.5200161e-01
  4.9857713e-02
  3.7249121e-01
  3.6711794e-01
 -7.7877468e-01
 -3.3336043e-01
 -1.6949475e-02
 -7.3954627e-02
 -6.5485817e-01
  2.7975377e-01
 -3.2852989e-01
  3.1199688e-01
 -8.0879904e-02
  4.8117074e-01
  6.9651091e-01
  9.3581206e-01
 -1.4707947e-01
  4.4482294e-01
 -4.1816938e-01
  2.6971176e-01
  1.4295027e-01
 -8.0788326e-01
  5.0694317e-01
  5.9937721e-01
  7.8750163e-01
  1.1598789e-01
  6.4629853e-02
  4.9638923e-02
 -3.2134733e-01
  1.0110566e-01
 -1.4826213e-01
 -3.7627965e-01
 -1.1134990e-01
  3.3257326e-01
 -4.7538167e-01
 -3.6195386e-02
  1.4379348e-01
  7.3819834e-01
 -4.1990644e-01
  5.5000812e-01
  4.7516517e-02
  5.0141716e-01
 -4.8647150e-03
 -5.8894027e-02
 -1.0105511e-01
  4.3099621e-01
 -2.1797782e-02
 -1.2286247e+00
 -4.7874901e-02
  9.0979457e-02
  1.5583648e-01
  9.1723818e-03
 -3.8446918e-01
  5.5898543e-02
 -6.3457400e-02
 -1.0740144e+00
  9.5385516e-01
  4.8844022e-01
 -2.7955297e-01
 -3.4809023e-01
  2.0631920e-01
  3.7363791e-01
 -9.7094327e-02
  2.5207907e-01
  1.2096022e-01
  4.0586010e-01
  6.0578054e-01
 -2.0495406e-01
 -6.8069071e-01
 -1.1918731e-01
 -1.8521112e-01
 -4.1100791e-01
 -5.0063771e-01
 -3.3897230e-01
  1.0744614e-01
 -1.9334486e-01
  6.4211941e-01
  4.9746138e-01
 -1.8094254e-01
 -6.6888601e-01
  3.3867476e+00
 -2.6459685e-01
  2.8118140e-01
  1.5521233e+00
  5.7020819e-01
  1.0131706e-01
  2.7573286e-02
 -2.4682476e-01
 -8.1021285e-01
 -1.6391928e-01
 -2.9980981e-01
 -1.9254977e+00
  5.0329071e-01
  1.7261869e-01
  1.1835328e-01
  1.2680399e-01
 -3.1959376e-01
 -4.0803003e-01
 -2.2756007e-01
 -3.8876557e-01
  1.7250739e-01
 -8.7836407e-02
 -1.5990576e-01
 -3.6934194e-01
 -3.4807539e-01
 -1.5067941e-02
 -7.1133959e-01
  3.9750135e-01
 -2.6294577e-01
  8.8901997e-01
  3.2635668e-01
 -6.2550396e-01
 -6.9405544e-01
  4.6424422e-01
  7.4112844e-01
 -4.8772144e-01
  1.5153079e-01
 -5.3122723e-01
 -2.2613189e-01
  7.4255216e-01
 -3.6813233e-02
 -3.7073669e-01
  2.6521924e-01
 -2.6503277e-01
  4.7017004e-02
 -3.9572102e-01
 -7.4168608e-02
  9.3575679e-02
  5.1102158e-02
 -3.6108157e-01
 -9.3619698e-01
 -6.2069023e-01
  5.0306022e-02
 -2.1462752e-01
  7.7952570e-01
 -1.5901829e-01
  3.6577299e-01
  5.2353263e-01
 -4.4915743e-02
 -4.2636079e-01
  4.7724327e-01
 -1.4149261e-01
 -9.1278845e-01
 -8.8373102e-02
 -6.8409133e-01
 -4.1421923e-01
 -2.1046339e-01
  7.4193335e-01
  6.6857046e-01
 -7.3809230e-01
 -3.9110719e-03
  1.4836629e-01
  5.1159024e-01
  1.8707435e-01
 -9.1486490e-01
 -1.4138266e-01
  2.9339343e-01
 -5.2336550e-01
  4.8652104e-01
 -1.0196085e-01
  5.5918153e-02
  6.1281458e-02
  7.8579143e-02
 -1.1651884e+00
  2.5435951e-01
  8.0821943e-01
  4.3403611e-02
  6.1765742e-01
  5.9485835e-01
 -1.5889576e-01
  3.5159481e-01
  8.7001687e-01
 -5.7032454e-01
 -4.2330258e-02
 -4.2237490e-01
  9.6604121e-01
 -5.2093840e-01
 -1.3990040e+00
 -1.3737357e+00
 -2.3487158e+00
  3.5715151e+00
  4.0698013e+00
  1.2220354e+00
 -6.1774778e-01
  7.7478558e-01
  1.1550424e+00
  5.2029431e-01
  9.9573606e-01
 -6.3379353e-01
 -2.2563004e-01
 -5.4674131e-01
  1.1168426e-01
 -1.4958405e-01
 -3.2940179e-01
  4.1780570e-01
 -7.5606352e-01
  1.1033429e+00
  1.2858206e+00
  1.4961165e+00
  7.1199286e-01
  3.0155519e-01
  4.8374283e-01
 -3.8728026e-01
  1.7627828e-02
 -5.9373462e-01
 -3.9043498e-01
 -2.5756758e-01
  1.0025277e+00
 -1.6891962e-01
 -3.4478629e-01
  4.9828503e-01
  7.9635555e-01
 -2.8154460e-01
 -2.9338396e+00
  7.5433683e-01
  5.9912395e-01
 -8.2299449e-02
  3.9932111e-01
 -2.4438636e-01
 -2.3521136e-01
  5.6164718e-01
  6.0320848e-01
 -2.5170918e+00
  1.1359516e+00
 -2.3765985e-02
  2.5872386e-01
  1.5187438e-01
  4.8960397e-01
  4.6011159e-01
 -2.1781877e-01
  5.0298966e-02
 -4.0324578e-01
 -2.3302795e-01
  5.0393635e-01
 -4.6728513e-01
  5.7647940e-02
 -2.8057727e-01
  1.8190576e-01
  1.8521650e-01
  1.2096629e-01
 -1.0960230e+00
 -4.3277746e-01
  1.8109147e-01
 -3.7540475e-01
  1.9350238e-01
  3.8229907e-01
 -6.7519873e-01
  5.0204372e-01
  7.7590480e-02
  3.9669061e-01
 -4.7591606e-01
 -6.6677555e-02
  1.6893382e+00
  2.4853908e-01
  1.7965288e-01
 -4.2029366e-01
  2.5036743e-01
  9.4188285e-01
  7.3479092e-01
 -8.1606966e-01
  3.5329279e-01
 -1.7283411e-01
  8.6121596e-02
 -1.2762563e-01
  8.0566299e-01
 -7.0859693e-02
 -2.4179417e-01
  5.0680703e-01
  5.2482998e-01
  4.1201758e-01
 -1.2965431e-02
  3.8225684e-01
 -2.5243261e-01
  6.6807073e-01
 -3.4564629e-01
  4.0670967e-01
  4.1630542e-01
  4.7840081e-02
  9.6783000e-01
 -8.3020163e-01
  5.4133779e-01
  9.8568249e-01
  4.0428013e-02
  1.9715087e-01
  6.9825065e-01
 -5.5602086e-01
  7.9284139e-02
  3.2831284e-01
  4.3332821e-01
  4.8928258e-01
  2.8677663e-01
 -7.8078395e-01
 -6.2641662e-01
  4.5070231e-01
  8.3343542e-01
  6.3354111e-01
  1.2860162e+00
 -1.4358523e-01
  1.3847405e+00
  3.6763218e-01
 -6.6616124e-01
  5.5638486e-01
 -7.6877069e-01
 -2.5420117e+00
  8.1799603e-01
  5.4387003e-01
  7.5428826e-01
 -1.4099619e-01
  5.3856105e-01
  7.6344919e-01
  2.9757929e-01
 -1.1108968e-01
  7.4955821e-01
 -1.5057336e+00
 -3.8579640e-01
  1.8876274e-01
  1.0514889e+00
  8.7667238e-03
  1.1536262e-01
  1.1955722e-01
  8.2731938e-01
 -9.6671820e-01
  1.1790691e-01
 -7.6912649e-02
  5.7270986e-01
  4.9333069e-01
 -6.1440740e-02
 -1.9875163e-01
 -3.1357050e-01
  3.8723391e-01
  2.5395700e-01
  2.6027790e-01
 -2.2188163e-01
  1.3416667e-01
  4.4241297e-01
 -2.3508693e-01
 -1.6189303e-01
 -1.1672737e-01
  6.8159688e-01
  4.9758500e-01
  6.3973224e-01
  8.0750026e-02
 -6.9057697e-01
  1.7457388e-01
 -8.2802027e-02
  3.1104517e-01
 -4.1364089e-01
 -4.1530579e-01
  1.4548107e+00
  3.1092390e-01
 -5.3430778e-01
 -8.3560340e-02
 -3.1797469e-02
  2.4089636e-01
 -1.9847493e+00
 -1.3893396e-02
 -2.1556927e-01
 -6.3975656e-01
  3.2241404e-01
 -3.2443529e-01
 -4.5569977e-01
 -2.5256732e-01
  1.0996687e-01
  3.9746901e-01
 -4.1022980e-01
  4.4311392e-01
 -3.2886487e-01
 -1.2623237e+00
  4.3370771e-01
  2.8121853e-01
  1.1966296e-01
  7.3623532e-01
 -1.3695669e-01
 -5.1947927e-01
  2.7739587e-01
  1.8653848e+00
  2.1739638e+00
  9.0804011e-02
  9.3523335e-01
  3.8952711e-01
 -1.0670034e+00
 -3.3233947e-01
  6.7767262e-01
  7.4586612e-01
 -2.1801950e-01
 -1.1192656e+00
 -1.3066897e-01
  2.2928943e-01
 -4.8598182e-01
  5.2558589e-01
 -5.1478446e-02
  1.0043973e+00
  5.1037943e-01
  6.3957131e-01
 -2.7100375e-01
  1.8984778e-01
 -6.5337718e-02
  8.1302571e-01
 -1.1470827e+00
 -2.3505789e-01
  2.8729516e-01
  5.1820058e-02
 -1.1452122e+00
 -3.0488974e-01
  1.2480011e+00
 -6.9977947e-02
 -8.8037126e-02
 -2.0224531e-01
 -1.8136616e-01
  7.7745599e-01
 -1.1414688e+00
 -2.0400943e-01
 -3.2298788e-01
 -2.9514313e-01
 -1.1480828e-01
 -3.5074127e-01
 -8.6079693e-01
 -5.2457899e-01
  3.3488199e-01
 -8.0400668e-03
 -3.6376178e-01
 -7.5687654e-02
  2.5599641e-01
 -2.4873504e-01
 -2.9243395e-01
  1.3329482e-01
 -1.7849316e-01
  2.0222886e-01
  3.6719385e-01
  5.1232584e-02
  2.9555112e-01
 -4.8017091e-01
  5.9707332e-01
 -6.0162091e-01
  4.7640127e-01
  5.9035357e-02
 -2.1718948e-01
 -7.2994119e-01
  2.2929722e-01
 -2.0643827e-01
  2.9196161e-01
 -1.8495086e-01
  4.2555401e-01
 -9.9582091e-02
 -1.7153665e+00
  4.5269990e-01
  1.6733263e-01
  1.8136068e-01
  1.2431713e-01
 -2.2233906e-01
 -4.5637288e-03
  7.2392291e-01
  4.7869332e-02
 -5.7853661e-02
  2.3020619e-01
  5.8441360e-02
 -9.7685999e-01
  4.5428365e-01
  4.1580158e-01
  2.3808089e-01
 -3.6324289e-01
 -5.8641928e-01
 -2.5730532e-01
  4.0160650e-01
  2.2923905e-01
  5.3174877e-01
 -6.7815065e-01
  7.8518021e-01
 -1.0750170e-01
 -3.8961518e-01
 -4.0367448e-01
 -3.6288786e-01
 -5.1809317e-01
 -4.2855865e-01
  1.3187209e+00
 -9.1658038e-01
 -9.6871769e-01
  1.4885613e-01
 -1.0560545e+00
  7.1708196e-01
  2.0791163e-01
 -1.9336627e-01
 -1.4468768e-01
 -9.2224017e-02
 -4.9650726e-01
  5.0706822e-01
  5.8870566e-01
  2.1810383e-01
 -2.2143333e-01
 -1.0918792e-01
 -5.9024055e-02
 -4.5919281e-01
  2.2716759e-01
 -1.1739924e-01
  2.0144293e-01
 -2.3235278e-02
  4.5052814e-01
 -3.6880094e-01
 -1.2653492e-02
  2.4602626e-02
 -4.0585810e-01
  7.4726634e-02
  3.6222196e-01
 -4.5680553e-01
  3.5422257e-01
  3.2381064e-01
  3.7641573e-01
 -6.9853258e-01
  5.9312564e-01
  5.5841494e-02
 -4.0226793e-01
 -3.7433144e-01
  1.4972976e-01
  1.0833988e+00
 -6.4956528e-01
  1.0347690e-01
  6.2655860e-01
 -2.5295925e-01
 -1.7896438e-01
 -1.8707137e-01
  3.7245959e-01
 -3.8089535e-01
 -3.2815212e-01
 -2.7911198e-01
  1.5377541e-01
  8.4030217e-01
 -3.4761599e-01
 -9.1339695e-01
  4.1309798e-01
 -2.9670623e-01
 -5.8705491e-01
  2.1786220e-01
  2.5545679e-02
 -1.6530406e-01
  2.4447732e-02
 -1.6748619e-01
  1.1150159e+00
  4.8451179e-01
 -1.3918610e-01
  5.8493263e-01
  7.8215069e-01
 -6.5435088e-01
  3.3671093e-01
  2.4046418e-01
  6.9641155e-01
 -3.7178105e-01
  2.1216743e-01
  8.1122573e-03
 -1.5349641e-01
  4.2480969e-01
 -1.9443029e-01
  4.0058870e-02
 -1.6051524e+00
 -7.7530909e-01
 -5.8089763e-01
 -1.3880348e-01
 -1.6105250e-03
 -4.6340147e-01
 -1.2723711e-01
 -3.0857369e-01
  1.3109815e-02
 -1.9369763e-01
  8.2077348e-01
 -2.7169019e-01
 -2.3993690e-01
 -1.2974572e-01
  2.2135994e-01
  5.6796688e-01
 -2.5111946e-01
 -2.4655701e-01
 -1.5930919e-02
 -4.9871374e-02
  6.0307211e-01
 -6.5526801e-01
 -4.9848211e-01
 -4.4311213e-01
 -2.8440368e-01
  1.2906291e-02
 -3.1321022e-01
  4.7502950e-02
  4.7151342e-01
  2.1070485e-01
 -6.6795811e-02
  2.3064958e-01
 -3.7943256e-01
  5.3757563e-02
 -2.2588521e-01
 -3.2642463e-01
  4.8516579e-02
  1.0494952e-01
  1.8258250e-01
  4.4756269e-01
  3.9465584e-02
 -6.7726202e-02
 -8.9401507e-04
  3.6296472e-01
 -6.8841356e-01
  1.5821086e-01
  6.6265684e-01
 -3.8310018e-01
 -5.3675961e-01
 -5.2092957e-01
 -3.4506232e-01
  3.7349629e-01
  1.9109224e-01
  2.3216853e-01
 -1.0509239e-01
  7.0323169e-02
  1.9770475e-01
 -3.1325090e-01
  1.3719800e-01
 -6.8764262e-02
  2.7069405e-01
  2.6107895e-01
 -1.5744250e-01
 -2.3560989e-01
 -6.3837582e-01
  6.1862785e-01
 -5.5264473e-01
  5.1634461e-01
 -3.0595896e-01
  1.1521729e-01
 -2.2970395e-01
  9.8427421e-01
  5.2238327e-01
  6.3012290e-01
 -1.8150777e-01
 -2.1872619e-01
 -4.8853049e-01
 -1.6853061e-01
 -4.6663749e-01
  5.0345290e-01
  6.4342362e-01
  6.0071129e-01
  1.8276221e-01
  3.6034888e-01
  2.7316579e-01
  1.3813946e-01
  2.7597913e-01
  3.3491448e-02
 -3.7808663e-01
 -1.7784078e-01
 -4.5656726e-01
  4.3227044e-01
  9.3809611e-01
  9.2581756e-02
  1.3771623e-01
 -8.4639692e-01
 -7.3165101e-01
  1.9687228e-01
 -1.6971235e-01
  3.1046608e-01
 -2.1477811e-01
  8.1723789e-03
 -3.4467509e-01
  1.8183757e-01
 -5.3262193e-02
  4.7122542e-02
 -1.5487732e-01
  3.5974100e-01
  9.4245911e-01
 -1.4165242e-01
  2.0044659e-01
  9.8226803e-05
 -2.0381472e-01
 -3.2259539e-01
  1.8934648e-01
  7.1329266e-02
 -1.6475031e-01
 -5.1318985e-01
 -1.4589888e-01
 -4.8557764e-01
 -3.9833862e-02
 -1.7395835e-01
 -1.0299256e-01
  2.5512341e-01
  1.9537449e-02
  1.5142830e-01
 -4.1821268e-01
 -1.0705277e+00
  3.1552485e-01
 -1.6690265e-01
 -1.8049651e+00
  6.9704771e-02
 -3.9602408e-01
 -5.2031779e-01
 -8.3114073e-02
  1.6427937e-01
 -4.1492328e-01
 -8.7166645e-02
 -2.7912850e-02
  1.3932359e-01
  6.4841568e-02
  3.5489041e-01
 -1.0636665e-01
 -1.1963699e-02
 -7.5963384e-01
  8.0307996e-01
 -2.1731767e-01
 -5.2040231e-01
 -1.5958416e-01
 -4.2802891e-01
  7.2566229e-01
 -4.3251601e-01
 -1.2284309e-01
  1.0897275e+00
  5.1392637e-02
 -5.2904534e-01
 -4.2496479e-01
 -5.8041131e-01
  3.9452004e-01
 -8.3870512e-01
 -4.7306755e-01
  4.3497407e-01
 -7.0100166e-02
  4.9481025e-01
 -2.8392214e-01
 -1.2505069e-01
 -4.3586019e-01
 -7.9932421e-01
  2.0145085e-01
  7.7295803e-02
  2.1439049e-01
 -3.6906549e-01
 -1.0695571e-01
  2.2647631e-01
  5.1802397e-01
 -5.1426786e-01
 -2.7221182e-01
  2.8377154e-01
 -5.3588450e-01
  4.5238757e-01
  2.8625900e-01
  4.9143919e-01
  4.6040055e-01
 -8.1140912e-01
 -7.8963786e-02
 -2.0012769e-01
  1.6755505e-01
 -3.2225886e-01
 -1.6985366e-01
 -9.2401439e-03
  1.2357563e+00
 -3.0938417e-02
 -2.1646711e-01
  6.6757280e-01
  3.6224949e-01
  9.1990429e-01
  2.0430493e-01
  9.6390325e-01
 -9.5926595e-01
  3.4639966e-01
 -3.2996237e-01
 -7.6662794e-02
 -4.0747645e-01
 -3.4119678e-01
 -1.2254856e+00
  3.4768438e-01
  2.5180438e-01
  2.5982243e-01
 -1.7222144e-01
 -1.3553323e-01
 -1.4853448e-02
  7.0909888e-02
  3.5903788e-01
 -1.6256660e+00
 -1.9365848e-03
  8.1648618e-02
 -3.6342674e-01
 -4.3340194e-01
  4.0871266e-01
 -8.8559657e-02
 -6.0331333e-01
 -1.6993159e-01
  5.7245851e-01
 -1.9452925e+00
 -5.2947342e-01
 -1.0238864e-01
 -4.6272931e-01
 -3.3828598e-01
  2.6431060e+00
 -2.1123044e-01
  9.4779190e-03
  4.3384197e-01
 -5.9815586e-01
 -1.9849710e-02
 -8.1156868e-01
 -3.4919286e-01
 -2.4697019e-01
 -7.5353749e-02
 -3.0575040e-01
 -4.5358402e-01
 -2.5681308e-01
 -5.6737330e-02
 -3.1079760e-01
 -1.9301908e-01
 -7.8697897e-02
  2.6600602e-01
  1.4307390e-01
 -1.5521928e-03
  1.4207497e-01
 -4.5701046e-02
 -5.6089228e-01
  2.6653564e-02
 -5.7757336e-01
 -6.2308140e-02
 -4.1968083e-01
  4.1186637e-01
  2.7990481e-01
 -9.4714606e-01
  2.9572108e-01
 -1.5688376e-01
  1.1345638e-01
 -3.2917473e-01
 -8.9015770e-01
 -8.7834418e-01
  3.5937929e-01
 -3.5593569e-01
 -2.0638861e-01
  1.6192088e-01
 -3.8141844e-01
  2.5336775e-01
 -5.3475463e-01
  5.6003243e-02
  2.3248662e-01
 -2.3070392e-01
  5.4185492e-01
 -7.2326496e-02
  7.8316939e-01
  2.5435877e-01
  5.4219067e-01
 -1.4009579e-01
 -1.2547286e-01
  2.0114189e-01
 -4.1295746e-01
 -3.5358554e-01
 -2.2950500e-02
 -1.6445032e-01
  2.0143376e-01
  6.1608368e-01
  5.7213113e-02
 -1.7396380e-01
 -5.3974539e-01
 -4.0519452e-01
  8.4452726e-02
  5.3827065e-01
 -2.1120279e-01
 -5.4352689e-01
  1.0599437e-01
  2.7944914e-01
  4.5541849e-02
 -1.6032445e-01
 -2.0743398e-01
  4.8530450e-01
  2.5873250e-01
  4.2630130e-01
  7.3581499e-01
 -3.0611536e-01
  3.5960755e-01
 -5.2435678e-01
  2.3912349e-01
  1.6472737e-01
  3.4027168e-01
 -7.8809404e-01
 -1.6924778e-01
 -3.3920249e-01
  2.8326663e-01
  5.0469434e-01
  5.9521878e-03
  2.9200599e-01
 -8.3732927e-01
 -1.0246229e+00
  1.0605894e+00
  2.5749689e-01
 -6.1009771e-01
 -3.0363345e+00
 -1.3955213e-01
 -3.9451882e-01
  3.7275440e-01
 -5.5493796e-01
  7.3818892e-02
  5.6599788e-02
 -1.2504029e-01
  1.6447209e-01
 -4.8161175e-02
  2.1950214e-01
  6.7312710e-02
  3.2343194e-01
  6.8869013e-01
 -4.8248276e-01
 -3.3521563e-01
 -1.0042581e-01
  4.2449826e-01
  1.5926750e-01
  6.7504324e-02
 -6.1126167e-01
  2.3886542e-01
  4.0796551e-01
  5.1526455e-03
  2.2960092e-01
  2.6583433e-01
  2.4636580e-01
  1.0679968e-01
  7.4099131e-02
  1.9985655e-01
  2.7921146e-01
  2.1047686e-01
  4.7270650e-01
 -1.8443482e-01
  5.1816106e-01
  3.8760915e+00
  4.2028588e-01
  7.4538216e-04
  1.2273613e+00
 -2.5025231e-01
 -1.1295775e-01
 -6.1293322e-01
  2.7699944e-01
  2.3490122e-01
  1.1723559e+00
  5.3754789e-01
  4.0138301e-01
 -6.3855660e-01
 -2.1721147e-01
  5.1541418e-01
  4.4093478e-02
 -7.0793164e-01
 -2.2715071e-01
 -4.0245360e-01
 -3.8511521e-01
 -4.1009864e-01
 -3.5250595e-01
 -6.1458588e-01
  2.5322172e-01
 -9.6736658e-01
  3.8235766e-01
  3.8413465e-01
 -2.9017596e+00
 -1.4096017e+00
 -2.3902571e-01
  1.5769251e-01
  1.6495086e-01
  3.4848401e-01
 -1.6415837e-01
 -2.6802129e-01
 -2.9822674e-01
  2.3083979e-01
  3.8658604e-01
  1.9427384e-01
 -7.1695381e-01
  5.6460238e-01
  1.9760506e+00
 -2.2203118e-01
  9.9893183e-01
  1.7988165e-01
  3.8891345e-01
 -7.0950025e-01
 -2.7339581e-01
  1.4366390e-02
 -1.5032905e-01
 -1.6900241e-01
  2.8068918e-01
 -4.4160074e-01
 -8.5917696e-02
  9.6345723e-02
  4.1866940e-01
 -6.5237534e-01
 -3.0343634e-01
 -4.3631315e-01
 -2.8344518e-01
  7.8117609e-01
  1.3442889e+00
 -7.6974645e-02
  4.0575176e-01
 -6.9430508e-02
  6.9143909e-01
  4.6223599e-01
 -3.5314685e-01
 -3.2112417e-01
  9.3083584e-01
 -5.7287041e-02
  7.3650932e-01
 -1.1979546e-01
  4.5998779e-01
 -3.3883607e-01
 -1.3593791e-01
 -3.0878717e-01
 -1.7257760e-01
 -6.0318130e-01
  6.8021908e-02
 -8.0628353e-01
  9.5439740e-02
  1.2864318e-01
 -3.4634393e-01
 -7.3510164e-01
  4.3905875e-01
  3.0941266e-01
  3.8304262e-02
 -1.2149968e+00
 -6.0775590e-01
 -1.4103729e-01
  1.7536348e-01
  3.0236813e-01
  1.0441886e-01
  8.4721071e-01
  1.5920933e-01
  8.9288741e-01
  1.6857255e-01
  1.5677486e-01
 -6.9513544e-02
  8.4024347e-02
 -6.5785420e-01
 -3.2606867e-01
  2.2704227e-01
 -4.9860862e-01
 -6.7187208e-01
 -2.2169773e-01
  1.1288983e-01
 -5.2889663e-01
 -4.1279694e-01
 -1.7495774e-02
  6.7825556e-02
 -7.0897010e-03
 -5.3041595e-01
  1.9601217e-01
 -6.2926233e-01
  3.1038756e-02
  5.2546668e-01
  3.8796642e-01
  7.9745871e-01
 -3.9387664e-01
 -6.5614426e-01
  7.9535618e-02
  3.9421743e-01
  4.6876174e-01
  3.8589829e-01
 -3.7214884e-01
  1.2745408e+00
  3.7820500e-01
  1.5718490e-01
  6.3277762e-03
  3.4080938e-01
  7.9850721e-01
 -1.4799199e+00
 -3.3549723e-01
 -2.1569268e-01
  7.1612090e-01
  3.7436095e-01
  4.1191468e-01
  1.3234673e+00
  6.7602003e-01
 -6.1569721e-01
 -4.8545371e-03
  1.0776279e+00
 -2.6217490e-01
  1.5916286e-01
  1.9938411e-01
 -4.7471461e-01
  3.6442426e-01
  3.6441606e-01
 -3.2638109e-01
 -7.6970451e-02
 -3.3157226e-01
  4.8276436e-01
 -5.0495827e-01
  4.4522631e-01
 -5.7416582e-01
  2.4097611e-01
  6.7678815e-01
  5.0130934e-02
  7.7058697e-01
 -3.7467971e-01
  3.1913561e-01
 -8.7948143e-03
  7.4535811e-01
  4.9905938e-01
 -1.1089181e+00
 -1.3153785e-01
  1.1385691e-01
 -4.8506197e-01
  3.1164613e-01
 -1.1808956e+00
  2.2017072e-01
 -7.7496654e-01
  2.8297973e-01
  1.4061773e-01
 -4.6353015e-01
 -2.8938448e-01
  2.2567640e-01
  4.5000029e-01
 -4.7086647e-01
 -4.7686845e-02
  2.0532379e-01
  1.4863758e-01
  1.3792285e+00
 -1.3717215e-01
  1.3837734e-01
  1.1006887e-01
  1.7154881e-01
  6.1349225e-01
 -4.8101913e-02
  3.7253061e-01
  7.9756409e-01
  7.5970852e-01
 -1.0874782e+00
  5.2655232e-01
 -3.0922687e-01
 -2.8884265e-01
  1.1515622e-01
  1.0036297e-01
 -4.6293849e-01
  3.2234203e-02
  1.2207022e+00
  3.1264323e-01
 -1.3919313e-01
 -4.8736069e-01
  9.5308763e-01
  7.5529563e-01
 -3.9457548e-01
 -8.4701407e-01
  9.0631795e-01
  3.2583073e-01
  2.3325770e-01
  5.5849469e-01
  3.7673342e-01
  6.7638552e-01
  8.0514508e-01
 -3.5333419e-01
 -3.6976133e-02
 -1.0555062e+00
 -1.5309139e-01
  8.9769602e-02
  9.0904021e-01
 -3.5027516e-01
  1.5999463e-01
  4.2096797e-01
  2.5790429e-01
  1.9272199e-01
  3.9971808e-01
  8.4432647e-02
  2.6833415e-02
  2.4439235e-01
  2.2321381e-01
 -3.0874722e-02
  1.6897689e-01
  2.1091920e-01
 -3.6351200e-02
 -4.6763945e-01
  4.8539916e-01
  6.5508926e-01
  4.9129289e-01
  3.9085299e-01
  1.7805824e-01
 -8.7938894e-04
  2.1607554e-01
 -3.1865826e-01
  2.7495855e-01
 -9.1699708e-01
 -3.6294651e-01
 -2.1636315e-02
  1.2453497e-02
  6.3679403e-01
  4.0601835e-01
  4.2750362e-02
 -5.3532153e-02
  2.6054645e-01
 -7.3187649e-02
 -2.3684518e-01
 -2.6032133e+00
 -1.2694615e+00
  4.5430982e-01
 -2.2381052e-01
  9.2760760e-01
 -2.3685554e-01
 -5.5776928e-02
  2.8823918e-01
  3.1534424e-01
  4.0956417e-01
 -3.1614420e-01
 -6.3230240e-01
 -6.3110304e-01
 -5.3980345e-01
  6.8953979e-01
  1.5970486e-01
  1.5298294e-01
  3.3139312e-01
 -4.4761491e-01
 -3.2973176e-01
 -7.4122101e-02
  1.1313035e+00
 -5.6971419e-01
  2.3911785e-01
  6.0137177e-01
 -2.7030641e-01
 -2.3318937e-02
  4.7650144e-02
 -4.2637768e-01
 -4.1099420e-01
  1.1557168e+00
  8.6381629e-02
  8.6625829e-02
  2.3300052e-02
 -3.3207276e-01
  2.2493536e-02
  3.8991177e-01
 -4.4058982e-01
  5.2302796e-01
  1.9357154e-01
 -3.7634000e-01
  1.0304017e+00
  3.2846707e-01
  2.6136079e-01
  1.1241963e-01
  1.8289328e-01
  7.3853999e-02
 -5.4360801e-01
  1.4793147e-01
 -4.7427833e-01
 -1.8456023e-02
 -1.7118643e-01
 -2.9322445e-01
 -4.2667663e-01
  4.6382579e-01
 -2.0192677e-01
 -9.8787791e-01
  5.2227330e-01
  1.1983621e-01
 -2.4474657e-01
 -2.4448468e-01
  2.2024943e-01
  2.0254612e-01
  1.3701595e-01
  6.2905389e-01
 -3.6730179e-01
  9.0693349e-01
  3.0872291e-01
 -9.3761504e-02
 -9.0370566e-01
  6.9225550e-02
 -1.4662600e-01
 -2.2037172e-01
  2.6275212e-01
  7.5958580e-02
  1.3473247e-01
 -8.4144163e-01
  3.5022134e-01
  8.2976180e-01
  2.7420884e-01
 -5.3688782e-01
  5.3304508e-02
 -3.1307366e-01
  3.9195883e-01
 -1.4814046e-02
 -2.6959550e-02
  5.3028291e-01
  6.4478552e-01
 -5.4081821e-01
 -1.1621290e+00
 -5.4027718e-01
 -2.0916317e-01
  8.8379823e-02
  2.5719348e-01
 -2.2584276e-01
 -7.6433629e-01
  1.3240844e-01
  3.3322898e-01
 -4.2808521e-01
  1.0319977e-01
 -9.6597576e-01
  9.8927265e-01
 -9.5048839e-01
  5.4752910e-01
  7.1397465e-01
 -7.8636920e-01
 -2.0860486e-01
 -5.4683179e-01
 -7.2987306e-01
 -1.7668037e-01
  4.3547329e-01
  6.9715208e-01
  4.9972394e-03
  2.4583308e-01
 -1.8360148e-01
  2.8619763e-01
 -1.0546362e-01
 -2.0526834e-01
  7.7274531e-01
  6.0697311e-01
 -4.9861857e-01
  3.8512817e-01
  3.8005808e-01
 -1.9945991e-01
 -4.9982476e-01
 -4.9836424e-01
 -7.1270443e-02
 -1.2450860e+00
  1.4917952e-01
 -5.0868815e-01
 -1.0242698e+00
 -4.1590607e-01
 -7.2958761e-01
 -3.4345964e-01
 -1.0734097e+00
  9.4789630e-01
  1.8600711e-01
  4.9493891e-01
  2.0721531e-01
  2.3925953e-01
 -9.5193344e-01
 -2.2910234e-01
  4.1192544e-01
  6.7938721e-01
  1.1913146e+00
 -3.0415621e-02
 -1.1965886e-01
 -4.6242857e-01
  5.9400862e-01
  9.8876782e-02
  4.5092693e-01
 -2.7392420e-01
  7.9637283e-01
  1.8356507e-01
 -1.7119300e-01
  5.2223802e-01
 -2.7459630e-01
 -1.6981530e-01
  4.9425912e-01
 -7.0949572e-01
 -3.9911520e-02
  3.3063143e-01
 -2.6545307e-01
  6.9116510e-02
 -7.9852790e-01
 -6.1682545e-02
  1.8590018e-01
  1.2423667e+00
 -3.2603696e-01
 -3.7033606e-01
 -5.6131923e-01
 -1.7671941e-02
  8.4679711e-01
  6.0405391e-01
  2.4451683e-01
 -1.0325478e-01
  3.2295132e-01
 -4.9307448e-01
 -3.5688919e-01
  1.1883919e-01
  2.0064157e-01
  2.1750233e-01
  2.3234291e-01
 -8.2710993e-01
 -4.0299708e-01
  3.0368468e-01
  4.1678050e-01
  5.2103615e-01
 -4.3678284e-01
 -3.3667129e-01
  1.4256396e+00
 -1.6944908e-01
  4.6635449e-01
 -1.0978847e-01
  2.5683916e-01
 -2.4130170e-01
 -5.9048456e-01
 -1.4790753e-01
 -8.8266730e-01
 -8.1878102e-01
  1.4186051e-01
 -2.3360519e-01
  4.0789044e-01
 -5.4251003e-01
  2.1349199e-01
 -4.5373496e-01
 -1.7727908e-01
  8.0319130e-01
  4.4231907e-01
  1.1620381e-01
 -8.9918143e-01
  6.3791919e-01
  8.7336373e-01
  1.3317293e-01
 -5.8720744e-01
 -2.5992418e-02
 -4.5922226e-01
  1.2356254e-01
 -4.5896086e-01
 -4.5579910e-01
 -9.2051281e-03
  2.0798114e-01
  3.4988329e-01
  2.5973976e-02
  5.1045410e-02
 -1.7964032e-01
  3.7689034e-02
  1.9177331e-01
  8.1340134e-01
 -8.0110264e-01
  6.9894677e-01
  9.7531654e-02
  1.8984233e-01
  2.8821608e-01
 -8.9702033e-02
 -5.4025239e-01
 -3.1199712e-01
 -1.0479436e+00
 -2.3508428e-01
 -6.9162560e-01
  1.1713369e-01
  4.0044338e-02
  8.7794840e-01
 -9.3906507e-02
 -6.8111157e-01
 -3.4167540e-01
  3.7919539e-01
  2.2497924e-01
  2.6667279e-01
 -5.9931040e-01
 -3.7934852e-01
 -2.8784716e-01
  1.4826597e+00
 -2.2412686e-01
  8.3904862e-02
  7.4976951e-01
  9.5178902e-02
 -2.1996219e-02
 -2.2584932e-01
 -1.6756438e-02
  6.9992870e-02
  2.4926235e-01
 -4.2660743e-01
 -5.6285124e-02
  6.3784771e-02
 -2.6529458e-01
  3.2554936e-01
  3.8085276e-01
 -2.7330828e-01
  2.6683781e-01
 -5.7001561e-01
  5.2080799e-02
 -2.8299242e-01
  5.5257897e-03
 -6.8390965e-01
  6.1276907e-01
 -6.7146999e-01
  3.4976929e-01
  1.2717701e-01
 -3.8458994e-01
  1.2361480e-01
  4.3952756e-02
 -3.9999112e-02
  5.7847857e-02
  2.2154249e-01
  8.6025810e-01
 -2.5426525e-01
 -2.7228922e-01
 -1.0149273e+00
 -1.6769518e+00
 -3.6056352e-01
 -1.2013203e+00
 -1.0104741e-01
  2.2474654e-01
 -9.0851516e-01
 -9.0793781e-02
  3.9690807e-01
  5.2194440e-01
 -1.7082521e-01
  8.8875974e-03
  3.7784570e-01
 -3.0771804e+00
  8.6874388e-02
  7.8394914e-01
 -6.1599863e-01
 -5.8928452e-02
 -1.0609553e-01
 -9.5560648e-02
 -4.9124306e-01
 -1.0560271e-01
 -1.9260219e-01
  5.0658512e-01
 -1.4295470e+00
 -2.4854220e-01
  1.2621017e+00
  7.2906939e-03
 -5.0252157e-01
 -2.3611660e-01
 -5.3196871e-01
  1.1477152e+00
  9.8398489e-01
  5.1676559e-01
 -6.0493189e-01
  3.3176026e-01
  4.6054074e-01
  1.6066080e-01
 -2.8826857e-01
  9.6305519e-01
 -7.0548689e-01
 -3.4807801e-02
 -1.8852606e-02
 -6.4004415e-01
 -4.2176390e-01
  2.1092796e-01
 -2.1089401e+00
 -6.9594967e-01
  3.7960860e-01
 -1.2416781e-01
  3.1590790e-02
 -8.8634361e-03
  9.8749781e-01
 -5.4470575e-03
 -9.1020904e-02
 -2.8233442e-01
  2.8102067e-01
 -8.3438796e-01
  1.2131005e-01
  7.1139330e-01
 -3.5643291e-01
 -2.4583676e-01
  6.5203184e-01
  6.1487150e-01
 -6.1256528e-01
 -7.9025245e-01
 -1.4168166e-01
 -7.5140134e-02
  2.0925522e-01
  6.7929581e-02
  1.0770099e-01
  1.6082940e-01
  1.8148710e-01
 -1.1874673e-01
  3.4853807e-01
  1.9364354e-01
 -3.5402828e-01
  5.5395192e-01
  3.1900221e-01
 -4.2971653e-01
  6.7763501e-01
 -6.1526954e-01
 -3.4389690e-01
 -1.1563241e-02
 -1.8936501e-01
 -8.5823804e-01
  3.4749582e-01
  1.4450692e-02
  1.1862183e-01
  7.4117906e-02
 -5.5294716e-01
 -2.5598687e-01
 -6.4757854e-01
 -1.0834979e-01
  2.3887639e-01
  5.1490504e-01
 -1.4330417e-01
  1.7467602e-01
 -4.9233798e-02
 -5.8021808e-01
 -5.7198703e-01
  3.8606271e-01
 -3.8559850e-02
  8.9874238e-02
 -1.3009925e-01
 -2.3953226e-01
  2.8225219e-01
 -1.9315898e-02
  7.2210801e-01
  3.9779258e-01
  4.9565580e-01
  2.0425130e-01
  5.0974030e-02
 -9.7486347e-01
  1.4755407e-01
  4.2752561e-01
 -1.5057835e-01
  2.3575744e-01
 -3.6171339e-02
 -1.2773409e+00
 -5.8782423e-01
  4.2195818e-01
  1.8967417e-01
 -2.5210074e-01
 -3.0807400e-01
 -1.9792494e-01
 -2.1347814e+00
  4.6179410e-02
  3.1934947e-01
  1.3500768e+00
  8.9883767e-02
  6.0104519e-01
 -3.2227674e-01
  1.1714213e-02
 -5.3849626e-01
  9.4080254e-02
  1.6820896e-02
  2.1912882e-04
 -4.6915069e-01
  1.0851369e+00
  8.7130412e-02
  1.1899217e-01
  6.4832580e-01
  4.9849998e-02
 -1.1296891e-01
 -2.8333199e-01
 -6.1285776e-01
 -7.2604573e-01
  1.8399603e+00
 -3.5396170e-02
  8.1022197e-01
  3.3897749e-01
 -2.2959068e-01
 -9.9611143e-04
  5.9152639e-01
 -2.4077132e-01
 -6.5871823e-01
  3.6603731e-01
 -2.5215274e-01
  1.4856966e-02
  8.8652802e-01
 -3.6446553e-01
 -2.7873310e-01
 -1.4389485e-02
 -6.4419374e-02
  5.2820778e-01
  3.5217187e-01
  2.2278591e-01
 -3.2169586e-01
 -1.6503498e-01
 -1.1728688e-01
  4.8561820e-01
 -1.8400764e-01
 -6.8980759e-01
  1.4640373e-01
  1.2175636e-02
 -1.4615752e-01
  2.2292663e-01
  8.6345625e-01
 -5.7878643e-01
  4.9529067e-01
  1.9621617e-01
 -2.5659069e-01
 -4.2238393e-01
 -6.4814955e-01
  6.9686705e-01
 -3.9618809e-02
  6.4831346e-01
  1.7800407e-01
  3.9119837e-01
 -1.7175514e-01
 -1.2694336e-01
  5.1569545e-01
  1.3395675e-01
 -5.3763473e-01
 -1.9954659e-01
 -2.3961617e-01
 -4.9167596e-02
 -7.7403313e-01
  3.9488658e-01
 -8.9922565e-01
  9.8470990e-03
 -3.5080859e-01
 -5.6445599e-01
  2.9541928e-01
 -6.1263281e-01
 -5.4270768e-01
  1.0154326e-01
  7.3498428e-01
 -2.9743725e-01
 -7.6677114e-01
 -2.3150335e-01
  2.7409312e-01
 -1.1448517e-01
  2.0608069e-01
 -3.6454248e-01
  6.3307442e-02
  7.0040441e-01
 -2.1669300e-01
 -1.7553560e-01
 -2.6144311e-02
  5.8135414e-01
 -2.7214682e-01
 -4.0908200e-01
 -1.0491498e+00
 -2.9343960e-01
  2.8510886e-01
  1.4481033e-01
  3.3306096e-02
  2.5222328e-01
 -2.8971955e-01
  9.1841209e-01
  1.3815317e-01
 -1.3957582e-01
  1.1583131e-01
  1.1396003e+00
  3.2401213e-01
  1.1235415e-03
  1.6601081e-01
 -5.0082929e-02
 -2.5992650e-01
 -1.6661440e+00
 -4.9697411e-01
  1.9885033e-01
  1.6164534e-02
  5.1978745e-02
  5.9335840e-01
 -1.1416920e+00
  3.6255796e+00
  3.5378495e-01
 -4.2439777e-01
 -2.5344926e-01
 -2.3552953e-01
 -7.2133088e-01
 -7.2514020e-02
 -3.5391721e-01
  7.0596687e-03
 -1.7504625e-01
 -4.7008261e-02
 -1.7709246e-01
 -2.6915532e-01
 -4.1416034e-01
  1.2942378e-01
  2.6776400e-01
 -5.5329788e-01
 -2.8636491e-01
  5.2376795e-01
  6.6243869e-01
 -4.2007622e-01
 -9.8207861e-01
 -9.1154981e-01
 -1.7704856e-01
  9.5090067e-01
 -8.7396812e-01
  4.6323556e-01
 -2.2005604e-01
 -4.6124685e-01
  3.2349560e-01
  4.7769240e-01
  1.2549606e-01
 -3.6133599e-02
  4.0755489e-01
 -4.7021303e-01
 -6.1689514e-01
  3.3833677e-01
  7.1473038e-03
 -8.1512648e-01
 -6.5079063e-01
 -3.5011906e-02
 -1.1951233e-01
  7.4453354e-01
 -8.6862303e-02
  2.2232734e-01
  3.3670646e-01
 -4.9512282e-01
 -1.8679126e-01
 -1.1054896e+00
  6.2703744e-02
  4.5948833e-01
  2.6169546e+00
  4.8337805e-01
  1.0754056e+00
 -3.1801024e-01
 -5.7206225e-01
  2.4858804e-01
 -6.7141730e-01
 -2.4215591e-01
 -8.0716360e-01
  1.0113056e+00
  5.6060821e-01
 -7.4385089e-01
 -5.8716094e-01
  7.3604517e-02
 -7.1046782e-01
  3.9902258e-01
 -3.9014602e-01
 -3.2182407e-01
 -1.2609699e-01
  8.7597209e-01
  1.4810935e-01
 -9.5186824e-01
  3.3773273e-01
 -1.8610213e+00
 -6.4470762e-01
 -8.0065137e-01
 -4.0455887e-01
  3.7360084e-01
  8.6052930e-01
 -3.7770525e-01
 -3.7833604e-01
 -3.3904231e-01
 -4.9470073e-01
 -1.1517184e+00
  3.8356718e-01
  9.6542895e-02
 -9.7368199e-01
  1.7337682e-02
 -7.6018907e-02
 -1.0555919e+00
 -7.3252213e-01
  7.4902976e-01
 -1.0612801e+00
  3.2041315e-02
 -1.2025314e-01
 -1.0427727e+00
  3.3606429e-02
 -8.9823920e-01
 -7.4436831e-01
 -2.2435251e-01
 -2.6531178e-01
 -1.1665198e+00
 -5.4411525e-01
 -1.8475322e-01
 -8.8445097e-01
  7.2486430e-01
 -9.2442282e-02
 -1.0133765e+00
  3.4580374e-01
  1.0342383e-01
 -7.0386928e-01
  5.7775471e-02
  1.3123521e-01
 -2.0482019e-01
  2.7317244e-01
 -6.2257427e-01
  8.9006037e-02
 -9.9383795e-01
  8.6738420e-01
 -5.7572685e-03
  4.3842620e-01
 -5.6053793e-01
  6.9558018e-01
  1.7343985e-01
 -1.5055712e-01
 -1.0752449e+00
 -2.8515616e-01
  5.8812529e-01
 -8.1055582e-02
  1.2168234e-01
  4.6782550e-01
 -1.1111397e-01
  1.1778586e-01
 -1.7920719e-01
  4.6344432e-01
 -6.5300661e-01
 -5.4709142e-01
  4.0738681e-01
 -4.3003085e-01
  3.3004722e-01
 -6.9007546e-02
  1.3581777e-01
 -3.1013539e-01
  2.6127440e-01
 -7.7439271e-02
  5.3150773e-01
  2.7924615e-01
  7.0301653e-03
 -5.8938831e-01
  1.7375983e-01
  3.2135162e-01
 -1.3277841e-01
  6.8179882e-01
 -9.7666159e-02
 -6.5296042e-01
  3.1330666e-01
  3.0942326e+00
  1.8223660e-02
 -3.7844712e-01
 -1.5006907e+00
  6.0115665e-01
 -4.8720551e-01
 -4.7199872e-01
 -1.0203882e+00
 -6.0379010e-01
 -3.9841706e-01
 -8.1633218e-02
 -1.8707883e-02
  1.2132299e-01
  2.4559201e-01
  1.2903851e-02
 -1.9548847e-01
  5.6680560e-01
 -1.6211456e-02
 -2.9919198e-01
 -4.0568843e-01
  4.0930885e-01
 -4.8138747e-01
  1.7951442e-01
 -2.8549677e-02
 -4.2525709e-01
  8.2372302e-01
  4.7924548e-01
  4.3806815e-01
  1.2697469e-01
 -8.2285804e-01
  1.5831606e-01
  3.9784071e-01
  6.0208714e-01
 -8.7944877e-01
 -3.6923146e-01
  3.6414120e-01
 -5.0416940e-01
  2.3522615e-01
  6.8203390e-01
  2.0259403e-01
  8.7157220e-02
  3.2929412e-01
 -5.1783109e-01
  6.9995219e-01
  3.8344839e-01
  2.0780331e-01
 -4.3357578e-01
  1.5171945e-01
  7.5442657e-02
 -8.4152676e-02
 -4.8484568e-02
  8.1609681e-02
  9.4357723e-01
  1.2586621e+00
 -4.9217191e-02
 -7.9936624e-02
 -2.2388205e-01
 -7.3550075e-01
 -5.3482062e-01
  9.6141267e-01
  5.6685574e-02
  9.1431803e-01
  3.0576169e-01
 -8.5223481e-02
  3.0863610e-01
  1.1724776e-01
 -5.0272959e-01
 -7.3503423e-01
  7.1025687e-01
 -4.5856446e-02
 -1.0423750e+00
 -3.6955070e-02
  5.1647186e-01
  2.1632078e-01
 -8.6664212e-01
 -9.4578989e-02
  7.7176207e-01
 -9.5876470e-02
 -2.3505777e-01
  6.0597521e-01
 -9.7495955e-01
  4.6860155e-01
  8.4626056e-02
 -5.3104526e-01
  2.7555200e-01
  5.0027186e-01
 -3.2861441e-01
 -7.6744264e-01
  2.9093543e-01
 -8.1578858e-02
 -2.7835196e-01
 -2.1709034e-01
  3.5184363e-01
  1.1185984e-01
 -6.9552195e-01
 -8.8749713e-01
 -3.0253214e-01
 -2.2482294e-01
  1.3405352e+00
 -1.6787951e-01
 -1.0143405e-01
 -9.3599349e-02
 -4.6285033e-01
  5.9224224e-01
  1.4054342e-01
  1.5810227e-01
  4.8656085e-01
 -1.4425968e-01
 -7.7955902e-01
 -2.8673676e-01
 -4.8774529e-01
  7.1612275e-01
 -9.2445284e-01
  1.7788057e-01
  2.8953321e-02
 -3.1710464e-01
  5.2849445e-02
  6.5084529e-01
  1.9835986e-01
 -8.9687839e-02
  1.9936241e+00
 -3.6183599e-01
  7.7571064e-02
 -2.4852921e-01
  2.9339454e-01
  5.9638715e-01
  2.0731071e-01
 -1.9665958e+00
 -3.7725931e-01
 -3.0414236e-01
  9.8126549e-01
  1.2354323e-01
  1.5820025e-01
  4.9539775e-01
  4.1344970e-01
 -7.5721517e-02
  6.3479495e-01
 -1.4025906e-01
 -2.7331215e-01
  4.8607174e-02
 -4.9341701e-02
 -5.6315819e-03
  1.3381840e-01
 -3.9454010e-01
 -5.1174098e-01
  6.5199673e-02
  8.6605436e-01
  8.9241732e-03
  3.8463730e-01
 -1.2228901e-01
  6.8921900e-01
 -1.1365370e-01
 -4.9088261e-01
 -3.4337983e-02
  1.7671286e-01
 -1.3869108e-02
  5.7478017e-01
 -1.0247212e-01
  6.3428414e-01
  2.8249064e-01
 -1.0033053e+00
 -1.2005378e-02
 -6.2249148e-01
 -3.9620289e-01
  4.9608773e-01
 -1.5532351e-01
 -6.4663702e-01
  8.3167426e-02
  5.6395787e-01
  5.2595057e-02
  1.2955204e-01
  1.8503249e-01
 -5.5770665e-01
  2.2980340e-01
  3.7637990e-02
 -6.6999078e-02
 -3.9681882e-01
 -1.1739056e-01
 -1.5564195e+00
 -2.3282548e-02
 -1.0441189e-01
 -7.1607131e-01
 -6.3607550e-01
 -7.1958983e-01
 -3.9781585e-01
  9.4580777e-02
  2.0031475e-01
  5.5368507e-01
  1.6488653e-01
 -7.1686006e-01
 -6.5887648e-01
 -1.8289952e-01
  2.7005944e-01
 -5.1825911e-01
  1.4394048e-01
 -8.4701645e-01
  1.9180922e-01
  4.3777975e-01
 -2.8126042e+00
 -4.1469827e-01
  2.6271977e+00
  1.6454663e+00
  3.6279008e-01
 -8.2537091e-01
  1.9556087e-01
  1.5470667e+00
  5.6262176e-02
 -1.2924916e-01
  1.0708858e-01
 -7.1822226e-01
 -2.4791930e+00
 -2.7144042e-01
 -2.5241606e+00
 -4.3333614e-01
  1.2220603e+00
  4.3408087e-01
  2.8800645e-01
 -6.1338109e-01
 -9.9144107e-01
  6.4386964e-01
 -6.8667376e-01
 -1.8532451e+00
  2.4652256e-01
 -1.0728582e+00
 -1.5172219e-01
 -1.0472579e+00
  1.5451643e+00
 -1.1246403e+00
 -7.3172516e-01
  2.7564418e-01
 -2.2456972e-01
 -2.0745275e+00
 -1.8661770e+00
 -5.4216945e-01
  9.7306579e-01
  5.8450675e-01
 -1.9909992e+00
 -1.1419214e+00
  2.7781442e-01
 -1.0059980e+00
 -2.5791731e-01
 -1.4211503e+00
 -1.6796306e+00
  1.8208718e+00
 -8.8191622e-01
 -1.8606619e+00
 -3.4877369e-01
  4.9146047e-01
 -1.2314280e+00
  8.4931530e-02
 -7.9258895e-01
 -3.2241744e-01
 -1.2370221e-01
  1.0956715e+00
 -1.0268379e+00
 -6.9922125e-01
 -7.8070886e-02
 -1.7664052e+00
 -1.5714674e+00
 -8.3463031e-01
 -1.7932366e+00
 -3.0444348e-01
  4.2691368e-01
 -1.3662244e+00
 -1.2246047e-01
 -3.4731913e-01
 -4.8056695e-01
 -3.9663970e-01
  1.6207892e-02
  5.4458457e-01
  6.8997282e-01
  1.3197711e-01
 -1.5900501e+00
 -7.4381548e-01
  3.7681493e-01
 -4.2660079e+00
  1.8962607e-01
  5.0802648e-01
 -6.0303110e-01
 -1.0435745e+00
 -1.5408967e+00
 -2.7972043e-03
 -3.8282958e-01
  1.9758707e-01
 -2.0964295e-01
  1.1798739e+00
 -3.4917283e-01
 -9.7193599e-01
 -2.0523314e-01
 -8.5331541e-01
 -1.6904640e-01
 -6.3736492e-01
 -5.7524234e-01
  2.6845515e-01
 -4.1267115e-01
  8.1738168e-01
 -1.8673934e+00
  5.9426165e-01
  3.5265222e-01
 -3.8076043e-01
  2.1922077e-01
  8.8781309e-01
  2.5196889e-01
  3.6560389e-01
 -1.2546479e+00
 -1.9111450e-01
  2.7778324e-01
 -3.0680430e-01
  3.4666482e-01
 -3.4574524e-02
 -1.4050277e-01
  6.1660297e-03
  1.0971414e-01
  3.8188982e-01
  3.1230113e-01
  6.2864029e-01
 -8.6443298e-02
  2.8666896e-01
  1.2470284e-01
 -1.0613675e-01
 -2.4937195e-01
  7.2243237e-01
 -7.3473585e-01
 -8.1188325e-03
 -7.6481128e-01
  7.1256214e-01
 -4.4603902e-01
  1.2999061e-01
  2.3387475e-01
 -3.7857833e+00
 -7.4272239e-01
  1.6317984e-01
 -6.7274314e-01
 -2.2773102e-01
  1.0686118e-01
  5.6716770e-01
 -2.7734748e-01
  6.2987441e-01
 -2.4545522e-01
  5.5279118e-01
  5.0918925e-01
 -6.4186990e-01
  1.1556473e+00
 -1.1628626e-01
 -5.2856338e-01
  3.1267530e-01
 -2.1401969e-01
  1.7481618e-01
  3.1136692e-01
  1.8468727e+00
 -5.5387533e-01
  3.6137998e-01
 -1.7447492e-01
  5.6805235e-01
  1.8879263e-01
 -7.4806178e-01
  3.9782722e-02
  1.4698339e-01
  3.1606072e-01
 -5.2432567e-01
  2.7307834e-02
  5.3201504e-02
 -4.2339629e-01
 -4.9771929e-01
 -1.8234755e-01
 -2.3147531e+00
  3.3709842e-01
 -7.0536837e-02
  1.2322373e+00
 -1.9238208e-01
 -8.1954378e-01
 -5.2286327e-01
  7.7497077e-01
  4.7802240e-01
  4.0699445e-02
  2.0904504e-01
 -7.3712006e-02
 -2.6289555e-01
 -1.3605310e+00
  1.5099010e-01
  5.5285685e-02
 -2.1320282e-01
  6.3910848e-01
  3.3226445e-02
  2.2099432e-02
 -1.4509760e-01
 -3.5551891e-01
  3.1135732e-01
 -6.9257420e-01
 -4.6234629e-01
 -2.8558314e-01
 -4.1358709e-01
 -9.9403137e-01
 -8.6548388e-02
 -8.1610484e-03
 -9.4770914e-01
 -3.1068644e-01
 -1.0753421e+00
 -2.6187003e-01
 -2.7814694e-03
 -4.2386448e-01
 -2.3337139e-01
 -8.3608878e-01
 -9.6119851e-01
 -9.9358872e-02
  1.2228506e-01
 -6.1749554e-01
  4.8618611e-02
 -2.2342657e-01
  6.4721978e-01
  3.6034214e-01
 -1.5648378e-01
 -9.9586505e-01
  4.7094640e-01
 -1.1056117e-01
 -2.5541070e-01
 -1.0009360e-01
 -5.5700265e-02
  6.7845476e-01
  1.1525615e-02
 -2.3425323e-01
 -5.9242034e-01
  1.8268993e-01
  2.6452494e-01
  2.1341357e-01
 -1.1038953e+00
 -2.0339207e-01
 -2.9555297e+00
 -3.8157341e-01
 -4.9498925e-01
 -8.2325292e-01
  2.2376304e-02
  4.5202228e-01
 -3.9119676e-01
  3.7965101e-01
 -3.3914271e-01
  1.2058399e+00
 -1.3261257e-02
  9.8638117e-02
  4.9826497e-01
 -5.8560157e-01
 -1.8682712e-01
  1.4222442e-01
 -5.8827144e-01
 -4.0105071e-02
  3.6314249e-02
  2.3425323e-01
  2.2902359e-01
 -1.5216787e-01
  3.0339754e-01
  8.8270441e-02
 -6.1740011e-01
  9.9130625e-01
 -4.1154811e-01
  7.6363015e-01
  7.8720540e-02
 -1.1807501e-01
  1.8510814e-01
 -1.4365822e+00
 -4.7268936e-01
  9.7618014e-02
  2.6896480e-01
 -7.5738931e-01
 -2.9053226e-01
 -6.9510436e-01
  2.1245520e-01
 -7.1337275e-02
 -9.0127699e-02
 -3.2068685e-01
 -1.4421418e-02
 -4.1619074e-01
  1.6034548e-01
  4.2900598e-01
 -6.1812494e-02
 -7.5363404e-01
 -2.7800056e-01
 -3.6424676e-01
 -6.6092131e-03
 -3.4554169e-01
  4.1575411e-01
  6.8039942e-01
 -2.6273894e-01
  6.5244740e-01
 -5.4091394e-01
 -1.6146579e-01
  4.5088547e-01
 -5.3999645e-01
  6.6230017e-01
  1.4995690e-02
 -3.0911368e-01
 -1.0270290e+00
 -2.4144873e-01
  2.2169302e-01
 -6.8566418e-01
 -6.7247075e-01
  1.5088097e+00
  2.2048821e+00
 -2.6916233e-01
  8.7641191e-01
  2.7706891e-01
  9.9810392e-01
 -8.6003888e-01
  1.0789087e-01
  7.8781299e-02
  3.3849269e-01
 -3.9759744e-04
  6.9150466e-01
  3.7694359e-01
 -8.0752209e-02
  3.1073254e-01
  3.0082867e-01
 -3.1163043e-01
  2.1711515e-01
  1.5095836e-01
  3.9050061e-01
 -7.3099129e-02
  1.0298984e-01
  1.6098668e-01
 -1.9247722e-02
 -9.1424972e-01
  2.3971793e-01
  3.3955419e-01
 -6.8054521e-01
  3.4053263e-01
  5.6389427e-01
 -3.9012928e-02
 -1.4853287e-01
 -9.6549159e-01
 -2.7703229e-01
 -1.1113276e+00
 -8.1302762e-01
  7.6812923e-01
 -5.3213155e-01
 -2.4233674e-01
  1.4211001e-01
  1.9170485e-01
 -7.4183303e-01
  2.0136328e-01
 -1.7085572e-01
  1.0465606e+00
  8.3838278e-01
 -5.6936896e-01
  4.0446141e-01
 -4.0146756e-01
 -2.1177363e-02
 -2.5934461e-01
  3.5635298e-01
 -4.0017202e-01
 -7.5776434e-01
  1.0505232e-01
 -2.6191613e-01
  1.8539955e-01
  1.6370983e-01
  1.7172389e-01
  9.9077582e-01
 -1.2672477e+00
  6.4103723e-01
  3.1064278e-01
 -1.3407534e-01
 -1.4166895e-01
 -4.1098642e-01
 -1.5657283e-01
 -4.1674742e-01
  5.4775409e-02
  8.4444785e-01
  1.0201652e-01
  2.6147521e-01
  7.9449520e-02
  2.6572645e-01
 -7.0199883e-01
 -4.2776655e-02
 -2.8966874e-01
  1.5581934e-01
 -1.8406814e-01
  1.9753562e-01
  1.9829671e-01
  3.7308335e-01
  1.7927468e-01
  4.3620372e-01
 -3.7698746e-01
  2.3200668e-01
 -4.2590603e-01
  3.6897644e-01
 -1.2637505e-01
  8.5625760e-02
 -1.4189744e-01
 -2.6960096e-01
 -1.6358161e-02
  4.9366599e-01
  1.0240595e-01
  1.0093823e-01
  1.6243015e-01
  1.8679689e-01
  3.6173126e-01
 -6.3370544e-01
 -6.0880799e-02
 -5.2910304e+00
  2.5978538e-01
 -5.2378476e-01
  5.9372127e-01
  2.6713017e-01
  2.6273635e-01
  7.6890105e-01
 -2.1225269e-01
 -2.7201781e-01
 -5.2952975e-02
 -4.5785517e-02
  7.6137446e-02
 -4.6093714e-01
  2.6986006e-01
  5.6104791e-01
 -1.0947163e-01
  5.9755945e-01
 -3.0105964e-03
 -1.2121823e-01
  6.1780000e-01
 -5.1955659e-02
  1.9868299e-01
  2.4963507e-01
 -5.1035953e-01
 -7.1866751e-02
 -8.2359433e-01
 -3.8854575e-01
 -1.9300333e+00
 -6.6964084e-01
  7.0804050e-03
 -1.1692335e-02
  9.3231104e-02
  1.8713637e-01
  1.5451589e-02
 -3.2890120e+00
 -5.1036179e-03
  6.8625528e-01
  3.3785072e-01
 -1.5424140e-01
 -9.0356499e-01
 -2.8042459e-01
  1.8327062e-01
  3.0504012e-01
  6.0983831e-01
  2.8897819e-01
  6.1980569e-01
 -1.3432758e-01
 -4.7182675e-02
 -6.0572618e-01
  9.4466425e-02
  9.7565576e-02
  1.3820416e-01
  4.0366564e-02
  2.8749895e-01
 -1.8454406e-01
  1.0212459e-01
 -8.2165980e-01
  1.0267621e+00
 -4.1008872e-01
 -3.1956983e-01
 -2.7837104e-01
 -2.1968240e-01
 -4.2687818e-02
 -8.0375662e-03
  7.5086899e-02
  2.6863006e-01
  4.8950431e-01
  7.0075296e-02
 -4.5548916e-02
  1.2900208e-01
 -4.0829915e-01
 -1.6059129e-01
  2.9527417e-01
  3.0943784e-01
 -9.9803424e-01
  7.7519226e-01
 -8.1030726e-02
 -4.0441203e-01
  4.8463190e-01
 -8.1442304e-02
 -2.5953393e-04
 -1.9876739e-01
  1.3132332e-02
 -1.2908286e-01
 -2.0719327e-01
  6.4375257e-01
  8.8454701e-02
 -1.7133354e-01
 -9.8967427e-01
  1.3347970e-01
  1.0128151e-01
  7.4537419e-02
 -2.8869506e-02
 -1.4373171e-01
 -1.1888912e-01
 -1.1588700e-01
 -1.6182120e+00
  1.3742572e+00
 -4.0848933e-02
  9.2164034e-01
  3.2893249e-01
  3.0053613e-01
  5.3106986e-02
 -1.2772996e+00
  5.6887096e-01
 -3.3167222e-01
 -1.1040191e-01
 -9.2154717e-01
  4.7099227e-03
 -3.9586738e-01
  1.6065283e+00
 -4.9467450e-01
 -4.2454228e-01
  1.3909325e-01
 -1.6103475e-01
 -9.9384707e-01
  3.3089522e-01
 -2.2266103e-01
  4.0096158e-01
  1.7411709e-01
  1.0460247e+00
  3.6665384e-02
 -2.1719636e-01
  6.3855809e-01
 -6.3281929e-01
 -1.2496449e+00
  4.4338909e-01
  2.4194649e-01
 -6.5901023e-01
  2.6510898e-02
 -2.5527444e-01
 -2.1858010e-01
 -4.2334804e-01
 -3.1879956e-01
  1.3041245e+00
 -6.3534981e-01
  3.9055040e-01
 -3.7512711e-01
  7.1835920e-02
  1.7804882e-01
 -6.1534816e-01
 -4.5297209e-02
 -1.1687231e-01
  1.0033946e+00
  2.5164849e-01
  9.9868643e-01
  4.3398641e-02
 -6.1987787e-03
  7.1293861e-01
 -1.4876324e-01
 -1.5777844e-01
  1.9559146e-01
  3.0603898e-01
  6.4555228e-02
  1.2060771e+00
  8.9402461e-01
  1.0331383e+00
  3.1473696e-01
 -5.6656361e-01
 -3.1302544e-01
  2.4455588e-01
  8.2650411e-01
 -1.1857740e-02
  3.8627353e-01
 -4.7292331e-01
 -1.8047552e-01
 -4.8082942e-01
  6.6159062e-02
 -4.0084031e-01
  1.4365001e+00
 -1.0310764e-01
  1.2824440e+00
  5.5483341e-01
  1.6950762e-01
 -5.8233047e-01
  2.9105726e-01
  3.9221302e-01
  4.2931744e-01
 -7.2792375e-01
 -1.7453100e-01
 -2.0125069e-01
  4.3701556e-01
 -2.4025217e-01
 -1.6073672e-01
  1.1376540e-01
 -2.5686698e+00
  4.9834743e-01
  1.0639393e+00
  3.3500057e-01
 -3.3006826e-01
  1.6703047e-01
 -1.8808652e-01
  4.4568968e-01
  4.7744951e-01
  1.5996721e-01
 -2.1792636e+00
  2.5745451e-01
 -2.6617058e-02
  1.2505596e+00
  2.0378242e+00
 -5.9733629e-01
 -2.3458298e-01
